500 300
</s> 0.001334 0.001473 -0.001277 -0.001093 0.000456 0.001007 0.000314 0.000070 -0.001201 0.000739 -0.001452 0.000417 -0.000250 -0.000319 -0.001105 -0.000627 0.000860 0.001008 0.000990 0.000532 0.000515 -0.001268 -0.001365 0.001657 0.001267 0.001030 -0.000201 0.001339 -0.000165 0.000245 -0.000050 -0.000994 0.000437 -0.000446 -0.001275 0.001585 0.001460 -0.000365 -0.000075 0.000170 -0.001213 -0.001336 0.001518 0.000021 -0.000861 -0.001014 -0.001025 0.000566 0.000067 0.000444 -0.001405 -0.001269 -0.000043 0.000381 0.000850 -0.001057 0.001360 0.000309 0.000373 -0.000203 0.000995 -0.000763 -0.000699 0.000719 -0.000251 0.000344 0.000602 -0.001363 -0.000661 0.000971 0.001411 0.001311 -0.001016 -0.000703 -0.000303 0.000667 -0.001263 0.000999 0.000929 -0.000533 -0.000517 -0.000746 0.001410 0.001304 -0.000393 0.001405 0.001607 0.000605 0.001661 -0.001037 -0.000511 -0.000702 -0.000969 0.000938 0.000526 0.000142 -0.000731 0.000508 0.001020 0.000065 0.000760 -0.001651 0.001438 0.000160 -0.000610 -0.000694 -0.000249 -0.000978 -0.001457 -0.000946 0.001426 -0.000590 -0.000893 0.000772 -0.000568 0.001586 -0.000535 -0.001530 0.000905 -0.000025 -0.001163 0.000325 0.000481 -0.000160 0.000608 -0.001319 0.000294 0.000606 -0.001003 0.000047 -0.000020 -0.000800 -0.000944 -0.001565 0.000008 0.000051 0.000003 -0.001311 -0.001654 -0.001582 -0.001442 -0.000182 0.000464 0.000395 -0.001061 0.001666 -0.000670 -0.000425 -0.000468 0.001578 -0.001255 0.000387 -0.000445 0.001063 0.000014 0.001423 -0.000940 -0.000868 -0.001397 -0.001222 -0.001066 -0.001038 0.000815 -0.000622 0.000893 0.001230 0.000452 0.000984 0.000825 0.000780 -0.001184 -0.001144 -0.001219 -0.000044 0.001377 -0.000912 -0.001020 -0.001399 0.001102 -0.001393 -0.000193 0.000726 -0.001539 -0.001493 0.000481 0.001175 0.001421 0.000715 0.001054 -0.001043 -0.001213 0.001325 -0.000922 0.000584 0.000191 0.000597 -0.000394 0.000066 -0.000562 -0.000376 -0.001478 -0.001087 0.001162 0.000335 -0.000788 -0.000531 0.000832 -0.001178 -0.000771 0.001578 0.001416 -0.001320 0.000290 -0.000750 0.000051 0.001002 0.001615 0.000662 0.001371 0.001049 -0.000077 0.001492 0.000845 0.001580 -0.000568 0.001582 0.001443 -0.000476 -0.001473 0.001611 0.000299 -0.000693 -0.000239 -0.000245 -0.001284 -0.000477 -0.000148 -0.001642 -0.001172 -0.000401 -0.000314 0.000597 0.000272 -0.000205 0.000982 0.000482 0.000183 0.001206 -0.000375 -0.000476 -0.000138 -0.000909 -0.001000 0.000067 0.001446 -0.000456 -0.000007 -0.001378 0.001236 -0.000507 0.000989 -0.000803 -0.000298 0.000031 0.001208 -0.000029 0.001478 -0.000248 0.000700 -0.000046 -0.001301 0.001417 0.000352 -0.001010 0.001003 -0.001382 -0.001451 0.001089 -0.001144 -0.000883 0.001176 0.001095 0.000228 0.001508 0.001619 0.001352 0.000588 -0.001450 0.000763 -0.001631 -0.000429 0.000504 0.000327 -0.000508 0.000979 -0.001536 -0.000470 -0.000437 -0.000552 0.001024 
. 0.083723 0.122701 0.074630 0.039177 -0.175943 -0.057330 -0.004801 0.106453 0.032041 0.239422 0.140882 -0.058152 0.087970 0.062620 0.141104 0.029550 0.133880 0.007865 -0.074913 -0.134007 -0.110050 0.094239 0.091100 0.044237 -0.049005 0.070299 0.081547 -0.143611 -0.102957 -0.046427 -0.261962 -0.082066 0.014251 0.202562 0.110042 0.007017 0.183256 -0.129105 0.060693 0.083974 -0.005266 -0.143339 -0.072458 0.144152 0.112839 -0.132285 -0.291782 -0.068642 -0.208057 0.059817 0.057288 -0.079460 -0.043322 -0.019006 0.080104 -0.021004 0.027181 -0.040225 0.051844 -0.138706 0.019435 0.129804 0.124650 -0.247926 -0.094900 0.153423 -0.017168 -0.187039 -0.098471 -0.147457 -0.143025 0.049225 0.049972 0.034904 0.142883 0.347828 -0.171335 0.140865 -0.140685 -0.038172 -0.200044 0.082149 0.205841 -0.035388 -0.112936 -0.204582 -0.115240 0.162601 0.020101 -0.072900 -0.084105 0.205627 -0.060141 -0.179601 -0.027928 0.101673 0.075023 0.005291 -0.039132 0.031669 0.128289 0.207064 0.088283 0.071736 0.106041 0.073164 -0.011169 -0.042329 -0.150236 -0.060070 0.066393 0.195349 -0.060041 0.164498 0.126921 0.054727 -0.042054 -0.046312 0.193973 -0.091805 -0.008719 -0.231580 0.084625 0.130375 0.204973 -0.049777 -0.041860 0.028558 -0.125165 0.161167 0.028094 -0.054388 0.011691 -0.000923 -0.104102 0.005427 0.075315 -0.323084 0.051233 -0.060120 0.303175 0.014564 -0.117928 0.212537 0.051853 -0.120914 -0.164913 0.090090 -0.220990 -0.006097 0.151524 0.010043 0.283450 0.061871 0.314656 -0.102959 0.044843 -0.009525 -0.200358 -0.035980 0.076360 -0.107875 -0.102019 -0.103302 -0.164619 0.098891 -0.090131 0.108042 -0.292403 0.135099 0.018723 -0.141752 0.042678 -0.233919 -0.252397 0.164112 0.026375 -0.068905 0.041818 -0.129692 0.222783 -0.129106 0.089302 -0.097776 0.234464 -0.160325 -0.033211 -0.231868 0.120271 -0.092670 0.055600 -0.117716 0.037892 0.023376 0.196464 0.161042 -0.309244 0.016419 -0.202521 -0.002120 -0.028210 0.035431 0.105156 -0.064266 -0.015652 -0.134689 -0.020911 0.042097 -0.207588 -0.050021 0.121537 0.142724 -0.062892 0.040333 0.027967 -0.033907 0.034577 -0.003712 0.010599 -0.146299 0.132242 -0.160982 0.256689 0.055775 0.007013 -0.028675 0.031156 -0.232171 0.179892 -0.030588 -0.194799 0.035934 0.023133 -0.048656 -0.054225 -0.275994 -0.029298 0.232914 0.188784 -0.003769 -0.098681 -0.133306 -0.431892 0.190487 -0.113965 0.049463 -0.102473 0.184942 -0.052059 -0.106323 -0.003184 0.140480 -0.016838 -0.225753 0.123795 -0.037152 0.146152 0.034912 -0.082994 0.243109 -0.549181 -0.008799 0.258955 -0.046450 0.012194 0.128222 0.032231 0.012943 0.166405 0.091413 -0.187803 0.219875 -0.059086 0.154553 -0.139730 0.130924 -0.010514 -0.162130 -0.329945 -0.180677 0.023295 0.050280 -0.207776 -0.072853 0.118768 0.012851 0.186122 -0.047116 -0.149875 0.275052 -0.216183 -0.235413 -0.116467 -0.020000 -0.147241 0.324599 -0.030861 0.007995 0.034723 -0.069825 
, -0.055615 0.035801 0.132021 -0.016178 -0.130603 -0.136231 -0.046518 0.025667 0.000642 0.146276 0.138308 -0.013027 0.111838 0.022989 0.127018 0.087634 0.053874 0.097439 -0.012388 -0.056996 -0.050302 0.095263 0.038377 0.028049 -0.048036 0.080300 0.115674 -0.126757 -0.053748 -0.067655 -0.323991 0.040440 0.033661 0.133699 0.103565 -0.074021 0.203702 -0.134213 0.101315 0.035395 -0.018643 -0.178587 -0.035611 0.202980 0.101182 -0.065393 -0.222163 -0.104028 -0.223155 -0.050540 0.045918 -0.159634 0.055431 0.102865 0.223268 0.022583 0.064554 -0.006358 0.044814 -0.095064 -0.039007 0.127558 0.147858 -0.178673 -0.128348 0.047657 0.025122 -0.279540 -0.096423 -0.172202 -0.015710 0.030208 0.095205 -0.021653 0.152243 0.475462 -0.191797 0.086126 -0.097723 -0.031849 -0.173654 0.010449 0.206727 -0.046493 -0.160953 -0.094863 -0.058453 0.070465 0.037067 -0.033641 -0.083535 0.192796 -0.021650 -0.050612 -0.104252 0.157245 0.068743 -0.044456 -0.000979 0.001689 0.165491 0.186224 0.086473 0.036891 0.099518 0.110744 -0.114793 -0.006879 -0.103653 -0.163939 0.049414 0.184019 -0.149083 0.117508 0.114097 0.075147 0.007524 -0.030963 0.156309 -0.035324 0.017563 -0.183152 0.061313 0.119799 0.195641 0.047326 0.000339 -0.000964 -0.139650 0.086416 0.043470 -0.023682 0.020784 0.121959 -0.179315 -0.145619 0.081930 -0.249587 0.078697 0.075861 0.203647 0.038806 -0.145485 0.142624 -0.042719 -0.176422 -0.289633 0.034640 -0.218077 -0.195355 0.213694 -0.041145 0.196733 0.068116 0.272365 -0.168130 0.190059 -0.007980 -0.160409 -0.009194 -0.018119 -0.081721 0.008205 -0.057667 -0.166273 0.200847 -0.080964 0.105145 -0.262633 0.166301 0.054510 -0.076466 -0.137616 -0.240506 -0.171475 0.295187 -0.010900 -0.048658 0.049376 -0.241528 0.141194 -0.189675 0.021324 -0.061266 0.142600 -0.130236 0.087724 -0.198127 0.168585 -0.104116 0.025197 -0.121993 -0.003996 0.059819 0.035912 0.134138 -0.233110 0.011364 -0.164756 0.051980 -0.002508 -0.101746 0.098623 0.005759 0.046054 -0.139319 -0.132397 -0.100401 -0.154984 -0.067708 0.037213 0.156654 -0.120535 0.063929 0.122870 -0.098894 0.022932 -0.066770 -0.004150 -0.232291 0.126609 -0.127882 0.297301 0.079576 0.053019 -0.020738 -0.053963 -0.340942 0.259567 -0.119876 -0.143919 0.115179 -0.049539 -0.020207 -0.140302 -0.149984 -0.067233 0.131930 0.218906 -0.143127 -0.043240 -0.078791 -0.423906 0.115596 -0.197237 0.067047 -0.001290 0.119058 0.030735 -0.035649 0.033236 0.133061 0.015740 -0.197350 0.128691 -0.077165 0.081613 0.083128 -0.121717 0.242907 -0.455970 -0.006075 0.259235 0.050479 0.043774 0.065244 -0.050585 0.006161 0.151826 0.086979 -0.250190 0.227553 -0.030380 0.099520 -0.148635 0.142446 -0.000584 -0.125534 -0.353661 -0.215709 0.039222 0.264874 -0.057016 0.060719 0.117625 0.012738 0.069424 0.044206 -0.138866 0.142639 -0.148453 -0.144678 -0.096882 0.058607 -0.084404 0.164072 -0.001085 0.031572 -0.047182 -0.018269 
der 0.107028 0.093864 0.215113 -0.088810 -0.232403 -0.155393 -0.026156 0.133959 -0.038247 0.175172 0.138019 -0.113547 0.029824 0.125782 0.061673 0.082377 0.076301 0.039813 -0.047481 -0.057176 -0.045785 0.256764 0.051892 0.121317 0.013050 -0.033337 0.179307 -0.180887 -0.138470 -0.028998 -0.417025 -0.075753 0.038372 0.108728 0.109279 -0.066948 0.148549 -0.089768 0.084362 0.127316 0.027102 -0.169288 -0.044422 0.060730 0.038289 -0.025549 -0.187219 -0.012912 -0.156877 -0.012887 0.046692 -0.056687 -0.005931 0.004563 0.299374 -0.090261 -0.016215 -0.045619 0.103178 -0.132856 -0.065945 0.047755 0.237538 -0.234757 -0.170879 0.088857 -0.018050 -0.207641 -0.088296 -0.262006 -0.121991 0.047637 0.062385 0.075216 0.102835 0.347458 -0.235931 0.177889 -0.056300 0.054849 -0.113595 -0.099450 0.224976 -0.118355 -0.146152 -0.060041 -0.118162 0.144868 -0.009857 -0.065996 -0.002184 0.221754 -0.064022 -0.185054 -0.259561 -0.026018 0.237861 -0.016730 0.101680 0.132003 0.218396 0.207777 0.144250 0.145833 0.078519 0.041642 -0.162488 -0.085965 -0.048042 -0.187780 -0.015512 0.237901 -0.046345 0.203836 0.204149 0.087622 0.012931 -0.025648 0.121750 0.001252 -0.037624 -0.065275 0.033639 0.215887 0.329307 0.069968 0.054959 0.055702 -0.248432 0.124551 -0.051369 -0.093348 -0.050227 0.107386 -0.172732 -0.064506 -0.166317 -0.364129 0.082514 -0.007736 0.232380 0.003318 -0.143048 0.221022 0.114999 -0.135939 -0.319875 0.169938 -0.237980 -0.236953 0.048244 -0.106639 0.305765 0.049158 0.203587 -0.008727 0.062248 -0.026667 -0.210597 0.083649 -0.143281 -0.019610 -0.057949 -0.026431 -0.137782 0.172449 -0.085623 0.149695 -0.255495 -0.000344 0.037479 -0.082561 -0.046644 -0.145643 -0.149057 0.233794 -0.035988 -0.038172 0.066184 -0.226285 0.079703 -0.047137 0.128765 -0.060017 0.149709 -0.218748 0.056479 -0.307867 0.238589 -0.068789 -0.052459 -0.045750 -0.084734 0.048425 0.098324 0.178392 -0.133589 -0.022328 -0.092494 0.129978 -0.079442 -0.123771 -0.031081 -0.157623 0.068102 -0.209842 -0.136104 -0.039189 -0.058938 -0.070630 0.193396 0.221220 -0.177584 -0.037320 0.111783 -0.025978 0.011890 -0.039101 0.126356 -0.297875 0.173839 -0.201186 0.433312 0.204611 0.037151 0.024440 -0.045609 -0.392328 0.153213 -0.098788 -0.091383 0.157970 -0.094367 0.000159 0.000343 -0.252346 -0.043448 0.309852 0.117510 -0.095824 -0.123063 -0.005166 -0.326690 0.130734 -0.011052 -0.006775 -0.166758 0.081878 -0.073235 0.019006 -0.099686 0.077834 0.004342 -0.162882 0.124051 -0.064236 0.155011 0.109768 -0.136241 0.187045 -0.327162 0.037140 0.205023 -0.042512 0.075238 0.004775 0.021508 -0.059692 0.106982 0.073820 -0.198487 0.130684 -0.102647 0.076092 -0.100905 0.296788 -0.002864 -0.030041 -0.394772 -0.114365 0.086973 0.231774 -0.100374 0.106465 0.185051 -0.054574 0.179372 0.038698 -0.087315 0.082954 -0.053708 -0.147714 -0.037786 0.075296 -0.000805 0.207391 0.024567 0.192293 -0.016353 -0.097162 
die 0.083792 0.133737 0.190733 -0.073259 -0.246957 -0.138761 -0.022332 0.094292 -0.046301 0.236231 0.163038 -0.025370 0.040992 0.079242 0.082569 0.051233 0.036380 0.076638 -0.063123 -0.043949 0.023118 0.155480 0.012158 0.146443 -0.061898 0.045603 0.160580 -0.134855 -0.176762 -0.058622 -0.338060 -0.009302 -0.019175 0.122209 0.101503 -0.091824 0.196551 -0.125009 0.126572 0.082789 0.002873 -0.163587 0.043284 0.046190 0.108811 -0.115829 -0.208381 -0.061975 -0.178849 -0.054464 0.075291 -0.060624 -0.034656 0.023888 0.227904 -0.075660 0.067100 -0.091541 0.066147 -0.107230 -0.038230 0.078473 0.244787 -0.190843 -0.225313 0.080682 0.058478 -0.256865 -0.091292 -0.228094 -0.031541 -0.011899 0.061460 0.094062 0.148112 0.412758 -0.241493 0.122099 -0.049962 0.103726 -0.144058 0.000257 0.166156 -0.052943 -0.089705 -0.098098 -0.070501 0.127125 0.005403 -0.053523 0.002011 0.209924 -0.038694 -0.106122 -0.151968 0.095692 0.141746 0.000033 0.058645 0.029328 0.251000 0.204142 0.135431 0.144033 0.019722 0.007912 -0.033152 -0.043674 -0.079351 -0.169273 0.027818 0.155712 -0.099690 0.125012 0.116058 0.049102 -0.019950 0.021132 0.134704 -0.060438 -0.027012 -0.143804 0.050086 0.163225 0.285241 0.090165 -0.050412 0.006195 -0.237525 0.041249 -0.069322 0.076282 -0.038912 0.062358 -0.201786 -0.089204 -0.078686 -0.273076 0.105376 0.019391 0.291980 0.043382 -0.166839 0.223068 0.089823 -0.184850 -0.326938 0.117822 -0.181308 -0.163674 0.049422 -0.075039 0.252016 0.062543 0.228785 -0.122158 0.107006 -0.031693 -0.194076 -0.034638 -0.042408 -0.073054 -0.124957 0.002877 -0.169481 0.190567 -0.092154 0.153873 -0.244102 0.021165 0.150644 -0.090285 -0.020150 -0.183373 -0.205496 0.150924 -0.039525 0.031421 0.073942 -0.194553 0.135756 -0.128620 0.132847 -0.056564 0.216559 -0.232846 0.057136 -0.229628 0.220012 -0.112847 -0.003110 -0.071928 -0.077505 0.034924 0.115944 0.203517 -0.245905 -0.041780 -0.282697 0.113032 -0.066959 -0.123057 0.015967 -0.148861 0.051407 -0.130714 -0.103917 -0.104479 -0.137938 0.011586 0.153529 0.147378 -0.139353 -0.062742 0.140810 -0.026619 -0.005224 -0.067167 0.032577 -0.318655 0.151927 -0.160270 0.315120 0.194153 0.031265 -0.008673 -0.031961 -0.374122 0.143399 -0.158074 -0.036650 0.115502 -0.120579 0.071245 -0.104165 -0.290198 -0.134749 0.237411 0.157435 -0.106336 -0.124338 -0.072048 -0.371257 0.059898 -0.079758 0.060511 -0.150825 0.091516 0.044731 -0.035852 -0.105368 0.096004 -0.025021 -0.149684 0.157715 -0.060842 0.084796 0.163759 -0.134859 0.207349 -0.367994 0.032927 0.166139 0.028532 0.086188 0.000489 0.026607 -0.014677 0.158669 0.013022 -0.179246 0.228562 -0.137855 0.142698 -0.004867 0.138567 -0.040788 -0.014026 -0.427516 -0.061900 0.124550 0.220788 -0.000107 0.055552 0.109735 -0.066973 0.060512 0.003725 -0.085391 0.107468 -0.019231 -0.253073 0.010627 0.091962 0.028118 0.118438 0.007277 0.186511 -0.009711 -0.102708 
- -0.125631 0.164136 0.083250 -0.083517 -0.138622 -0.093382 -0.066409 0.058334 0.093038 0.081751 0.211342 -0.118226 0.134069 0.070873 0.025811 0.094986 0.068799 0.022568 -0.002265 -0.056159 -0.024226 0.080636 -0.043213 0.101589 0.055929 -0.078702 0.111043 -0.176450 -0.118486 -0.070950 -0.328482 0.084591 -0.023553 0.039923 0.058715 -0.145356 0.033172 -0.095062 0.256179 0.071500 0.030167 -0.150085 -0.001546 0.066229 0.016951 -0.052980 -0.144432 -0.118206 -0.267686 -0.016861 -0.017871 -0.223127 -0.013279 -0.030473 0.207578 -0.052212 0.003059 0.089685 0.011910 -0.140031 -0.061912 -0.002098 0.250268 -0.285270 -0.130433 0.123634 -0.049415 -0.138150 -0.093693 -0.061282 -0.012786 0.098787 0.115236 -0.062059 0.114616 0.314912 -0.099918 0.109035 -0.044069 -0.006459 0.035321 0.139484 0.158981 -0.151992 -0.113515 -0.217633 -0.144168 0.068620 0.096336 -0.202162 -0.195193 0.235772 -0.019209 -0.320725 -0.161470 0.091146 0.100422 0.094992 -0.017854 0.017873 0.148244 0.143571 0.165736 -0.005650 0.065602 0.099627 -0.229995 -0.071713 0.065855 -0.103493 -0.031700 0.281325 -0.093694 0.213556 0.176386 0.053905 -0.070451 0.024056 -0.082335 0.072782 0.174538 -0.063057 0.159061 0.111563 0.282520 0.050180 -0.012996 0.031752 -0.256035 0.173815 0.069173 -0.207376 -0.039335 -0.014479 -0.140656 -0.196820 0.003616 -0.193692 0.172316 -0.027084 0.274694 0.072590 -0.053323 0.181215 -0.015724 -0.156512 -0.285055 0.280347 -0.281694 -0.118846 0.196227 -0.022542 0.124446 0.030220 0.219566 -0.155935 0.015563 -0.000034 -0.054596 0.042797 -0.011915 -0.025507 0.029223 -0.139590 -0.001374 0.361989 -0.070548 0.118816 -0.338827 0.052623 -0.023466 -0.075568 -0.058580 -0.187020 -0.108187 0.136357 0.151517 -0.004795 -0.065349 -0.334424 0.129715 -0.139939 -0.026153 0.045645 0.249852 -0.187549 0.091889 -0.222582 0.127799 0.114774 0.040927 -0.089811 -0.159747 -0.046528 0.150661 0.037671 -0.202302 0.063163 -0.070919 -0.024713 -0.008099 -0.124201 -0.042849 0.059954 -0.013431 -0.147309 -0.146770 0.090254 -0.143562 -0.043621 0.169881 0.205911 -0.089119 -0.053186 0.046852 -0.006826 -0.049859 -0.056764 0.067586 -0.048499 0.298698 -0.361525 0.340992 0.199644 0.065465 0.034387 0.079626 -0.216477 0.297421 0.040663 -0.030587 0.013520 0.070347 -0.052894 -0.126570 -0.311080 0.014505 0.249910 0.129260 -0.134681 0.091140 -0.046800 -0.300411 0.138556 0.029983 -0.028689 -0.010690 0.169556 -0.047028 -0.135395 0.220019 0.292281 0.135932 -0.167969 -0.002716 -0.047127 -0.041846 0.048004 0.042880 0.239162 -0.426718 -0.051066 0.255941 0.021406 0.036116 0.173099 -0.024070 0.103454 -0.067923 0.278467 -0.246677 0.110272 0.091262 0.183730 -0.087905 0.389435 0.204015 -0.043430 -0.323254 -0.191365 0.101504 0.169923 0.053354 0.006298 0.198362 0.085197 0.134100 0.006723 -0.186640 0.110277 -0.028108 -0.139411 0.054942 0.027597 -0.039296 0.121719 -0.060141 0.151444 -0.123559 -0.146230 
und -0.018814 0.087029 0.172139 -0.025243 -0.149279 -0.112308 0.037993 0.036287 0.113673 0.244044 0.121666 -0.046278 0.105899 0.032526 0.171083 0.107488 0.164794 -0.006810 -0.030546 -0.088206 -0.009811 0.087462 0.101059 0.030985 0.049379 0.004419 0.073046 -0.133414 -0.087317 -0.017680 -0.385014 0.049249 0.034734 0.188500 0.112199 -0.034453 0.185823 -0.210762 0.104351 0.075278 -0.025733 -0.158887 -0.076438 0.132581 0.041617 -0.022600 -0.194025 -0.121381 -0.149014 -0.039516 0.023902 -0.086088 -0.000325 0.012345 0.156530 0.007441 -0.019205 -0.046978 0.099062 -0.227259 -0.033686 0.061031 0.120987 -0.265332 -0.217561 0.103238 -0.015991 -0.263824 -0.088083 -0.209843 -0.089017 0.058149 0.128929 -0.048378 0.178389 0.351920 -0.195313 0.104131 -0.158991 0.023448 -0.159952 0.062289 0.221234 0.001435 -0.188841 -0.096683 -0.113324 0.141278 0.076595 -0.002969 -0.040181 0.126796 -0.137946 -0.141486 -0.172284 0.084915 0.128139 -0.087175 0.016874 0.027867 0.237273 0.171627 0.110502 0.092425 0.054222 0.141503 -0.062766 -0.016935 -0.102801 -0.185941 0.106232 0.201103 -0.114314 0.150327 0.182192 0.049631 -0.117742 -0.019823 0.177912 -0.038002 0.007975 -0.256639 0.098565 0.159260 0.191670 0.049476 0.043143 0.023929 -0.152734 0.131480 -0.035725 -0.049234 0.039498 0.076615 -0.167904 -0.103071 0.097598 -0.255157 0.021108 0.079631 0.239247 -0.041384 -0.137282 0.203812 0.016899 -0.085632 -0.316304 0.081518 -0.178115 -0.148843 0.174795 -0.132663 0.240304 0.069973 0.261732 -0.024704 0.058516 0.011206 -0.228710 0.062906 -0.065718 -0.080526 0.013526 -0.096558 -0.143035 0.112056 -0.064229 0.181906 -0.222192 0.123931 0.020706 -0.032643 -0.017607 -0.190962 -0.264958 0.284710 0.015542 -0.013365 0.136870 -0.253388 0.147184 -0.061431 0.070611 -0.005188 0.165602 -0.189212 0.094921 -0.148681 0.188029 -0.045200 -0.060188 -0.037239 0.081829 0.117767 0.175075 0.074706 -0.254265 -0.025616 -0.201844 -0.031466 -0.008290 -0.109466 0.096564 -0.044655 0.043606 -0.149681 -0.140377 -0.055385 -0.110250 -0.006979 0.166594 0.152874 -0.122326 0.026662 0.102428 -0.039571 0.081436 -0.057770 0.024051 -0.182302 0.179826 -0.155549 0.394486 0.137132 -0.007568 0.004358 -0.002212 -0.371958 0.271469 -0.110426 -0.089311 0.120680 0.008283 0.004929 -0.139641 -0.198768 -0.105957 0.164399 0.193740 -0.078591 -0.190495 -0.098868 -0.413218 0.145930 -0.137709 0.033802 -0.047242 0.094589 0.059926 0.038127 -0.119979 0.151923 -0.040620 -0.205392 0.187317 -0.115884 0.082788 0.093797 -0.100069 0.186689 -0.447580 0.062722 0.309825 0.022896 0.093124 0.019467 -0.024703 -0.002618 0.143671 0.053734 -0.153760 0.163344 -0.226790 0.228867 -0.120469 0.161917 -0.014126 -0.024741 -0.345046 -0.183543 0.092036 0.124336 -0.030352 0.053959 0.161734 -0.038161 0.133205 0.068824 -0.085134 0.136191 -0.103672 -0.231281 -0.098539 0.073071 0.080166 0.131452 0.038882 0.026333 0.052655 -0.030193 
&quot; 0.060163 0.145833 0.191748 -0.038531 -0.099223 0.042484 -0.115350 0.103903 0.003653 0.148440 0.070618 -0.035643 -0.052249 0.154008 -0.089436 0.087616 -0.025858 0.078991 -0.170322 -0.186750 0.015878 0.147080 0.056149 0.164220 -0.077970 -0.123139 0.141344 0.010102 -0.223978 0.056848 -0.055283 0.024843 -0.024300 -0.075510 -0.066192 0.098553 0.004771 0.016525 0.002665 -0.002305 -0.059817 0.009137 0.095768 0.183585 0.089008 0.030923 -0.030866 -0.114390 -0.074720 0.085843 0.030996 -0.108145 0.055242 -0.006279 0.097534 0.020429 -0.156713 0.100159 0.054575 0.079278 -0.123523 0.104444 0.174140 -0.185181 -0.191630 0.090580 -0.043303 -0.048547 -0.028603 -0.063917 -0.029905 0.210646 0.015483 -0.066197 0.037676 0.193623 -0.144214 0.199215 -0.068557 -0.133543 0.006902 0.109673 0.015317 0.024438 -0.004620 -0.151237 -0.117901 -0.058204 0.002837 -0.110370 -0.094955 0.234351 0.010647 -0.022490 -0.175491 -0.024433 0.010577 0.090191 0.174901 0.038122 0.030969 0.066119 0.116408 0.014506 -0.048855 0.043972 -0.065244 0.028362 -0.019437 -0.032866 0.050796 -0.028294 -0.117723 -0.032505 0.093362 -0.037290 0.113323 0.093406 -0.097645 0.041403 -0.024161 -0.059031 0.000167 0.076171 0.047128 0.134848 0.082113 0.074889 -0.129442 0.133146 0.014261 -0.187780 0.011844 -0.007555 -0.009275 -0.062236 -0.050125 -0.148436 -0.009816 0.059660 0.179887 0.098115 -0.089956 -0.108910 -0.082518 -0.037753 -0.097020 0.117416 -0.122376 -0.071653 0.055786 -0.070476 0.115819 0.097173 0.007228 -0.028584 0.105019 -0.014361 -0.004672 0.041895 0.018302 -0.071252 -0.000279 -0.048809 -0.148885 0.191512 -0.034735 -0.023028 -0.071993 -0.055573 -0.074221 -0.033723 -0.071969 -0.045586 0.030146 0.162423 0.142346 0.087808 -0.143976 -0.132528 0.156273 -0.092602 0.024095 0.004341 -0.072585 -0.068488 0.063207 -0.131854 -0.069326 0.088565 0.083929 -0.036099 -0.051987 0.087707 -0.000134 0.100663 -0.211914 0.043024 -0.100747 -0.062831 -0.026981 -0.099192 -0.129666 0.083156 -0.093787 -0.131149 0.136376 0.127129 -0.046918 -0.037298 0.172125 0.052722 0.008149 -0.047161 -0.147475 -0.098354 -0.033534 -0.064786 0.012562 -0.192093 0.215064 -0.231897 0.096113 0.040555 -0.068957 -0.040676 0.036754 -0.123950 0.093980 0.101954 -0.225337 0.027876 -0.007915 -0.164477 -0.126253 -0.161762 -0.024982 0.145448 0.013552 -0.042721 -0.149139 0.020142 -0.041231 0.023101 -0.169624 0.033430 -0.003354 -0.012225 0.007036 -0.180370 -0.120348 -0.002175 -0.033672 0.000669 0.022715 0.027118 0.061615 -0.138585 0.163329 0.217031 -0.307279 0.066164 0.112359 -0.097721 -0.052098 0.026894 0.069071 0.066322 0.219481 -0.042100 -0.139495 0.166041 -0.081684 0.307512 0.001995 0.074520 -0.027994 -0.042364 -0.148840 -0.196579 -0.142927 0.176321 -0.020411 0.025154 0.161608 0.038230 0.119446 -0.042457 0.170088 -0.004871 -0.060937 -0.021374 -0.001290 -0.067380 -0.049482 0.129058 0.056015 0.047297 -0.107753 0.009994 
in 0.063194 0.107532 0.165925 -0.033256 -0.162218 -0.152453 0.012430 0.208700 0.027013 0.218992 0.113703 -0.093221 0.010077 -0.008136 0.192418 0.090581 0.011598 0.043949 -0.074568 -0.079226 -0.160468 0.095606 0.020328 0.025851 -0.109756 0.012805 0.102361 -0.178761 -0.157644 0.038052 -0.340881 -0.022153 -0.048288 0.201022 0.012272 0.076612 0.131738 -0.098885 0.024424 0.055856 0.037861 -0.122036 -0.082812 0.161293 0.042832 -0.083692 -0.309952 -0.148671 -0.137664 -0.054993 0.079694 -0.019898 0.060090 0.072104 0.253023 -0.015202 -0.031787 -0.039257 0.063870 -0.039838 0.025799 0.036943 0.135825 -0.253580 -0.094820 0.047043 -0.015044 -0.158527 -0.109266 0.004567 -0.200869 -0.033061 -0.060340 -0.000926 0.133139 0.447238 -0.178212 0.118562 -0.024980 -0.000298 -0.057107 0.015507 0.137341 -0.083445 -0.114034 -0.124060 -0.087064 0.095807 -0.091814 -0.031231 -0.094789 0.219165 0.012945 -0.094875 -0.088512 -0.043142 -0.052561 -0.017874 -0.029203 0.114464 0.202116 0.313740 0.076323 -0.075221 0.002775 0.009922 -0.062731 0.067683 -0.098938 -0.090122 0.031832 0.189376 -0.084223 0.134572 0.219254 0.124793 0.120890 -0.069471 0.130181 0.047566 0.079349 -0.096255 -0.107353 0.137852 0.085285 0.107871 0.017274 -0.033104 -0.081621 0.039648 0.014705 0.046220 -0.094438 0.098671 -0.126853 0.018677 0.013127 -0.243116 0.201701 0.006507 0.196495 -0.056926 -0.084213 0.204298 0.059046 -0.191935 -0.357668 0.054737 -0.122327 -0.232909 -0.042533 -0.087668 0.321600 0.109360 0.307813 -0.104274 0.070499 0.018643 -0.248110 -0.012658 -0.066185 -0.067696 -0.146794 -0.086994 -0.121009 0.212334 -0.052991 0.163558 -0.186783 -0.005517 0.116832 -0.069068 -0.061400 -0.128574 -0.322757 0.113682 -0.033726 -0.028506 0.130538 -0.067685 0.158101 -0.012566 0.061753 -0.026856 0.177358 -0.213143 0.117616 -0.283653 0.086959 -0.162066 -0.072247 -0.073437 -0.129453 0.081734 0.078414 0.091149 -0.188642 -0.034315 -0.251368 0.027293 -0.030482 -0.140855 -0.014465 -0.024303 -0.067641 -0.266496 -0.197809 0.034181 -0.182095 -0.095859 0.149784 0.043655 -0.154343 0.055512 0.035986 -0.028167 0.016975 0.029722 0.004795 -0.210677 0.156447 -0.207489 0.360554 0.070687 -0.029635 0.012812 0.183594 -0.472897 0.113447 0.025768 -0.023095 0.153167 -0.034897 0.178640 0.088450 -0.261408 0.054419 0.118981 0.149671 -0.040197 -0.057386 0.036587 -0.388687 0.079151 -0.023202 -0.012216 -0.215929 0.031960 -0.014742 -0.052585 0.009190 0.068502 0.106744 -0.092819 0.186575 0.038273 0.104269 -0.036777 -0.142411 0.298478 -0.468246 -0.020492 0.344066 0.143823 -0.088376 0.054331 -0.137179 -0.088710 0.215655 0.016166 -0.316793 0.179907 -0.050820 0.087249 -0.207853 0.056267 -0.064164 -0.088089 -0.304290 -0.124473 0.128612 0.300736 -0.028171 0.050275 -0.024696 0.092530 0.222623 -0.050598 -0.164343 0.029849 -0.138972 -0.238318 -0.127217 0.104622 -0.054458 0.200426 -0.104628 0.188918 -0.071762 0.040127 
den -0.045238 0.054585 0.118747 -0.088189 -0.220346 -0.184849 -0.075186 0.062872 -0.020513 0.373225 0.162086 -0.039998 0.002913 -0.048250 0.167253 0.039813 0.106593 -0.011960 -0.085736 -0.090614 -0.042036 0.188336 -0.093989 0.151610 0.074683 0.023675 0.116374 -0.258381 -0.192000 -0.001250 -0.332978 -0.052089 0.011986 0.165391 0.132261 0.030896 0.164512 -0.031743 0.078971 0.147255 -0.008035 -0.164813 0.066312 0.064853 0.014283 0.035118 -0.209989 -0.102907 -0.165750 0.020023 0.121235 -0.141803 0.047860 0.201454 0.226256 -0.004442 -0.037173 -0.056292 0.063962 -0.216926 -0.055503 -0.016568 0.211584 -0.352758 -0.115676 0.072935 -0.117389 -0.231838 -0.189045 -0.154584 0.027727 0.110841 -0.067991 0.021601 0.115151 0.383562 -0.224998 0.121435 -0.077315 0.109305 -0.100419 0.047873 0.077287 -0.022375 -0.122912 0.014390 -0.078123 0.171549 0.036925 -0.149986 -0.174123 0.111050 -0.119152 -0.165172 -0.113733 0.134442 -0.032955 -0.126760 -0.022473 0.095556 0.201676 0.245254 0.040548 0.118733 0.091851 0.001798 -0.198340 -0.175374 0.005278 -0.124845 0.118371 0.290802 -0.062631 0.139839 0.132528 -0.052348 -0.061518 0.018161 0.158564 -0.025660 0.079035 -0.199315 -0.033411 0.090627 0.177281 -0.095169 0.111142 -0.048717 -0.195195 0.194806 0.096577 -0.098803 -0.016332 0.036063 -0.320457 -0.089479 -0.093380 -0.338253 0.128187 0.044791 0.337847 0.009080 -0.150235 0.249426 -0.034380 -0.141547 -0.408706 -0.042586 -0.143450 -0.233130 -0.020461 -0.126926 0.269213 0.115823 0.234897 -0.177131 0.101797 -0.043727 -0.140120 0.037938 -0.081146 -0.100504 0.005926 0.080980 -0.122336 0.368178 -0.178052 0.252849 -0.199389 -0.076739 0.086828 -0.015938 0.020791 -0.348062 -0.220939 0.138385 0.020124 -0.024315 0.150770 -0.175221 0.081576 -0.108357 0.012568 -0.055432 0.294889 -0.191987 -0.016255 -0.204204 0.188335 -0.109982 0.008117 0.021014 -0.015560 0.050344 0.244254 0.057418 -0.243147 0.043655 -0.029071 0.066285 -0.123118 -0.081265 0.116508 -0.049406 -0.011367 -0.099199 -0.147841 -0.008468 -0.043122 0.026212 0.158291 0.225704 -0.285682 -0.198523 0.122062 -0.053159 0.042682 -0.023897 0.040450 -0.248634 0.100126 -0.274972 0.311809 0.135247 0.039195 -0.189479 0.050562 -0.284109 0.237371 -0.041827 -0.012655 0.123684 0.049070 -0.077793 -0.108201 -0.348215 -0.180425 0.186034 0.194262 -0.111883 -0.078584 -0.017455 -0.407534 0.147627 -0.008680 0.081063 -0.100420 0.012411 -0.004058 0.035580 -0.049255 0.150293 0.004786 -0.029410 0.115867 0.086075 0.170250 0.121343 -0.131808 0.213017 -0.466659 -0.022792 0.226861 -0.021319 0.035826 0.052702 0.199322 -0.011986 0.165402 0.025956 -0.245670 0.211723 -0.216072 0.252121 -0.190554 0.105382 -0.094019 -0.005227 -0.288115 -0.034494 0.071219 0.216486 -0.205205 0.037298 0.070926 0.047645 0.031252 0.156989 -0.037700 0.081227 -0.098338 -0.157593 -0.030637 -0.113242 0.128508 0.113800 0.011027 0.058222 -0.097358 -0.071419 
: 0.014772 0.190952 0.144006 0.076943 -0.089971 -0.026644 0.015869 0.207805 -0.144986 0.181496 0.268192 -0.053180 0.023013 0.142543 -0.001313 -0.084283 0.047664 0.162875 -0.023774 -0.055640 -0.072908 -0.003896 0.025289 0.146168 -0.041549 0.021272 0.216968 -0.106867 -0.037725 0.048278 -0.232524 0.019358 -0.104691 0.007660 -0.037645 0.018634 0.086425 0.002410 0.150538 -0.092074 -0.044176 -0.070867 -0.032801 0.152114 0.081167 0.022568 -0.216096 0.026312 -0.188237 0.101376 0.170265 -0.220797 -0.061691 0.039123 0.166990 -0.000202 -0.068861 0.065588 0.084565 0.221850 -0.115171 0.030550 0.286198 -0.305236 -0.163442 0.093367 -0.113228 -0.101757 -0.063597 0.023060 -0.102927 0.178143 0.029102 -0.102938 0.062807 0.250635 -0.153893 0.078972 -0.046279 -0.180386 -0.283855 0.126292 0.070390 -0.146116 -0.216432 -0.058711 -0.214774 0.121435 0.062277 -0.200222 -0.112622 0.120264 0.045690 -0.034173 -0.144785 0.090628 0.097709 -0.062773 0.106923 -0.111904 -0.032201 0.030993 0.196072 0.106965 0.104871 0.109833 -0.083438 0.216872 -0.067042 0.017665 -0.065652 0.193299 -0.065170 0.065790 0.198773 0.079787 0.017138 0.187149 -0.020963 0.027309 -0.106162 -0.103402 0.163384 0.044754 0.217580 0.126397 0.055951 0.105517 -0.280842 0.104451 -0.000026 -0.116965 -0.078388 -0.001321 -0.179188 -0.123503 -0.096091 -0.351451 0.059595 0.107738 0.233359 0.042564 -0.186801 -0.026056 -0.081724 -0.198488 -0.097043 0.148839 -0.283868 -0.221785 0.191650 0.053596 0.026751 0.069992 0.062892 -0.065374 0.118375 -0.189969 -0.100085 0.179726 0.138105 -0.000845 -0.043295 -0.085108 -0.076156 0.107600 -0.075015 0.041329 -0.316213 0.187626 0.068281 -0.192252 0.080207 -0.185204 -0.151463 0.115138 -0.011620 0.044495 -0.168397 -0.081856 0.238555 -0.111755 -0.085371 0.099801 0.335437 -0.130173 -0.022113 -0.245017 0.104512 0.013782 -0.021517 -0.014367 0.006392 -0.003630 -0.071389 0.190308 -0.092601 0.065621 -0.284120 0.001722 0.047819 -0.047130 -0.003896 -0.019188 0.028477 -0.340320 -0.091212 0.187110 -0.128315 -0.129835 0.099332 0.243925 -0.219736 -0.103632 -0.193734 -0.079051 -0.132410 -0.023304 0.088647 -0.126730 0.107646 -0.201941 0.156038 0.072605 0.038470 -0.059651 0.093098 -0.110485 0.078231 0.050123 -0.100396 -0.119800 0.095625 -0.142164 -0.130816 -0.285746 0.238161 0.080456 0.110260 -0.115552 0.001141 -0.143555 -0.301325 0.107631 -0.025355 -0.018675 -0.092315 0.132280 -0.134673 -0.098556 -0.071829 0.173179 -0.099411 -0.090030 -0.199399 -0.054387 0.320891 0.348191 0.033055 0.180785 -0.387482 0.267007 -0.013027 0.019834 -0.116972 -0.080680 0.216614 -0.053155 0.024622 -0.020732 -0.128478 0.264232 -0.101944 0.132061 -0.023642 0.113868 -0.078758 -0.126072 -0.197586 0.128002 -0.079592 0.105286 -0.133393 0.156488 -0.028981 0.082379 0.167071 -0.081764 -0.015350 0.178546 -0.039349 -0.174886 -0.045403 -0.008903 -0.149739 0.343466 -0.132247 0.255133 -0.187805 -0.063015 
mit -0.014296 0.118324 0.183780 -0.048771 -0.177380 -0.130995 0.046364 0.052480 -0.079643 0.331759 0.083265 -0.016072 0.110798 0.075123 0.124725 0.024097 0.160178 0.094980 0.029707 -0.136500 -0.006910 0.051442 0.026378 0.093584 -0.082596 0.059239 0.043146 -0.197508 -0.143636 -0.094325 -0.267181 -0.101991 -0.000991 0.172286 0.025498 -0.010642 0.051550 -0.195126 0.077740 -0.019258 0.037370 -0.214277 0.004626 0.189669 0.011564 -0.035354 -0.146419 0.032922 -0.120985 0.031987 0.090878 -0.075662 0.034789 0.082108 0.288721 -0.035014 -0.083938 0.093162 -0.035744 -0.041316 -0.119575 -0.052006 0.132496 -0.100302 -0.106105 0.167459 -0.016693 -0.131796 -0.074356 -0.103940 -0.128409 -0.052901 0.114335 -0.009296 0.171544 0.451874 -0.340124 0.168565 -0.052023 0.021395 -0.196278 0.038853 0.067315 -0.075481 -0.141930 -0.090029 -0.086791 0.122344 0.063982 -0.041821 -0.143820 0.190611 -0.112285 -0.141729 -0.149712 -0.078720 0.109825 -0.068402 0.000094 -0.123161 0.137129 0.300980 -0.013661 0.084325 0.085787 0.011263 -0.144014 0.005350 0.019205 -0.085071 0.059726 0.002067 -0.092707 0.173375 0.101608 0.122661 0.040623 -0.013599 0.145542 0.207070 0.244155 -0.124226 -0.112570 0.058170 0.045869 0.047854 0.013054 0.131969 -0.218713 0.168714 0.116330 0.000618 0.045951 0.131621 -0.165115 -0.009670 -0.129680 -0.179460 0.026263 0.096466 0.321203 0.039547 -0.219546 0.214138 0.079512 -0.099446 -0.317208 0.018088 -0.179681 -0.177072 0.114300 -0.019125 0.271655 0.087013 0.309373 -0.024146 0.114695 0.142574 -0.152773 -0.047569 -0.198882 0.026870 -0.039760 0.003708 -0.179468 0.104967 -0.110245 0.124475 -0.196090 0.170519 0.028756 -0.003101 -0.094015 -0.173796 -0.305137 0.006471 -0.059402 -0.089790 0.081234 -0.170431 0.264223 -0.222016 0.015748 -0.032341 0.085608 -0.323570 0.036788 -0.165997 0.099567 0.049618 -0.115186 0.030920 -0.108353 0.103251 0.067484 0.209617 -0.104249 0.069213 -0.375297 -0.134107 0.074189 -0.052171 -0.082925 0.041648 0.023287 -0.086372 -0.210480 0.040777 -0.186185 0.027367 0.082075 0.201246 -0.081520 0.035381 0.052223 -0.013260 0.003944 0.057500 -0.049836 -0.119675 0.051420 -0.188984 0.394268 0.070104 0.192768 -0.041220 0.148601 -0.244741 0.309500 -0.075993 -0.116760 0.032893 0.208755 0.194358 -0.208920 -0.383673 0.061412 0.166001 0.078751 -0.063018 -0.046717 0.021834 -0.403794 0.029057 0.069693 0.013112 -0.128066 -0.034867 0.049362 -0.052883 -0.001903 0.039988 0.072902 -0.009632 0.182113 0.010291 0.221294 0.136245 -0.161420 0.111720 -0.278598 0.024118 0.263888 0.012134 -0.023880 0.014527 0.057667 0.013427 0.171643 0.204906 -0.276900 0.118777 -0.138413 0.289314 -0.093028 0.049319 -0.060564 -0.131031 -0.368509 -0.297343 0.136091 0.219825 -0.158882 0.019266 0.136296 0.083494 0.353699 0.134419 -0.054569 0.051561 -0.106313 -0.173764 -0.167095 0.044910 0.005090 0.066436 -0.105793 0.004318 -0.224511 -0.085938 
von 0.058188 0.116066 0.235047 -0.042067 -0.111993 -0.125354 -0.105314 0.138535 0.095819 0.284189 0.154407 -0.081012 0.015280 0.110522 0.104589 0.108084 0.023619 0.039715 0.053340 -0.060147 0.111324 0.159019 0.011617 0.079455 -0.085085 0.074983 0.071824 -0.055898 -0.090612 -0.127351 -0.320915 -0.088033 0.094029 0.121821 0.015018 0.067883 0.160525 -0.159874 0.201486 0.071157 0.047972 -0.213361 0.046936 0.112752 -0.002810 0.049621 -0.296701 -0.041808 -0.221338 -0.038863 0.195301 -0.141449 0.095526 -0.073706 0.218748 0.106129 0.033950 0.028202 0.041760 -0.123628 -0.171837 0.172605 0.183390 -0.318720 -0.027179 0.054868 0.009125 -0.146181 -0.111491 -0.043741 -0.313970 0.073758 -0.077157 -0.062516 0.181035 0.366833 -0.135227 0.036701 0.034816 -0.013234 -0.047683 -0.028318 0.162023 -0.110576 -0.197140 -0.006215 -0.015438 0.076730 -0.039413 -0.028214 -0.133812 0.229442 -0.091701 -0.057834 -0.231255 0.025783 0.175565 -0.100967 -0.009010 0.065240 0.309096 0.104450 0.208134 0.099219 0.034851 -0.006149 -0.102981 -0.141941 -0.034420 0.023932 0.075140 0.117135 -0.115557 0.166182 0.201588 -0.004224 -0.000132 0.083528 -0.036482 -0.038864 0.095932 -0.119310 -0.028875 0.144469 0.232203 0.016815 0.046070 0.090734 -0.179386 0.114414 -0.003246 -0.115978 0.017698 0.029408 -0.207778 -0.064154 0.103786 -0.393067 0.172690 -0.045240 0.259875 0.081891 -0.207864 0.160263 -0.002233 -0.193956 -0.319602 0.158898 -0.064877 -0.216069 0.103665 -0.148703 0.195190 0.133407 0.137110 -0.228272 0.054843 0.009791 -0.077102 -0.017710 -0.006307 -0.081112 0.030851 -0.136732 -0.142571 0.204505 0.018215 0.119123 -0.245898 0.167868 0.133207 -0.068206 -0.027863 -0.135412 -0.234339 0.191293 0.117782 0.000826 -0.060945 -0.300652 0.039545 -0.183035 0.102328 -0.139111 0.344644 -0.112053 0.028667 -0.155304 0.068590 -0.028954 0.026611 -0.135686 -0.034932 0.010848 0.100685 0.166041 -0.366887 0.031509 -0.193969 -0.144360 0.031744 -0.119470 -0.011541 -0.105394 0.091398 -0.241145 -0.302085 0.046165 -0.099726 0.025134 0.079308 0.126699 -0.205957 -0.069943 0.220919 -0.015328 0.093639 0.009556 0.159534 -0.267355 0.224795 -0.244633 0.499377 0.055301 0.081452 -0.019775 0.031916 -0.384906 0.283409 -0.157676 -0.103668 0.169207 0.061428 0.168995 -0.129116 -0.115427 -0.033935 0.159536 0.244169 -0.085621 0.085216 0.013268 -0.251019 0.178990 -0.063211 0.041362 -0.146889 0.098733 -0.116398 0.055028 -0.053088 -0.021859 0.085011 -0.002002 0.245355 -0.054219 0.113198 0.147652 -0.183948 0.283080 -0.238546 0.095934 0.323327 -0.054471 -0.037189 0.158353 0.014932 -0.055830 0.104919 0.077410 -0.075261 0.174116 -0.105667 0.202371 -0.204436 0.196162 0.223381 -0.077742 -0.288314 -0.199543 0.273303 0.123791 -0.101528 -0.042804 0.182439 0.023653 0.309188 0.089194 0.022924 0.130839 -0.062434 -0.147067 -0.052640 -0.008524 0.025406 0.086639 0.020572 0.083583 -0.152873 -0.177425 
zu 0.082948 0.013097 0.154612 -0.078168 -0.146830 -0.133577 0.008534 -0.081111 0.165458 0.221948 0.066416 0.007941 0.033432 -0.099257 0.094126 0.174529 0.198523 0.050822 -0.103447 -0.125893 -0.115645 0.064560 -0.006821 0.007292 0.072732 -0.018969 0.171769 -0.102743 -0.216215 -0.085602 -0.209229 -0.082975 -0.019563 0.176318 0.160360 0.063002 0.153682 -0.075453 0.175319 -0.023721 0.088317 -0.167280 0.011940 0.104884 0.064560 -0.104623 -0.276486 -0.180474 -0.096692 -0.123750 0.081635 -0.019598 0.051777 0.126277 0.254828 0.061669 -0.011904 -0.128538 -0.027857 -0.174164 -0.074566 -0.003419 0.226071 -0.223959 -0.168191 0.021733 -0.063672 -0.191615 -0.047070 -0.133801 -0.070684 0.093791 -0.046322 -0.004170 0.026301 0.451730 -0.142972 0.040626 0.001797 0.005233 -0.296003 0.021663 0.085406 -0.000835 -0.030328 0.000589 -0.105289 0.044187 0.078530 -0.021560 -0.034094 0.128633 -0.093352 -0.242731 -0.089790 0.156163 0.093545 0.054510 0.060406 0.108551 0.298252 0.160614 0.080673 0.096208 0.032682 0.082968 -0.055251 -0.081241 -0.007595 -0.099675 0.068863 0.182386 0.039332 0.316848 0.129686 -0.109867 0.017627 0.040311 0.060621 -0.194058 0.096394 -0.322058 0.006993 0.239030 -0.009779 0.151333 -0.082547 -0.027407 -0.061833 0.028940 0.171961 0.037211 -0.041437 0.128843 -0.191981 0.001776 0.047332 -0.135218 -0.012392 0.037880 0.292325 0.038761 -0.224195 0.157909 -0.005785 -0.189235 -0.275029 0.048849 -0.235932 -0.090237 0.208436 -0.088639 0.451471 0.143549 0.274453 -0.215860 0.146303 0.054016 -0.090060 0.002407 -0.107628 0.022179 0.062800 -0.021356 -0.144678 0.190931 -0.095385 0.079563 -0.213293 0.148949 0.087022 0.037376 -0.057045 -0.176416 -0.261627 0.057444 -0.080706 -0.021175 0.174016 -0.086862 0.135486 -0.248335 0.016760 -0.121779 0.180970 -0.284030 0.188378 -0.248776 0.264502 -0.240891 -0.020305 -0.161865 0.019616 0.253701 0.045281 0.062317 -0.249573 -0.001547 -0.260711 0.062691 0.134798 -0.139499 -0.020530 -0.026604 0.013251 -0.041795 0.029703 -0.204525 -0.212314 0.078168 0.008396 0.161620 -0.139114 0.114445 0.035306 0.036050 0.082807 -0.119131 -0.092955 -0.385626 0.091812 -0.145478 0.298652 0.126617 -0.121881 0.029999 0.094385 -0.121853 0.397771 -0.215417 -0.165099 0.075390 -0.005919 -0.032208 -0.000200 -0.290662 0.106667 0.126038 0.179157 -0.190546 -0.105429 -0.080748 -0.588062 0.136828 -0.251205 0.119862 -0.094524 0.015297 -0.006762 -0.106437 -0.185873 -0.012857 0.054854 -0.091791 0.233105 0.050910 0.275615 0.074312 -0.272736 0.227992 -0.325072 -0.011871 0.318492 0.000147 -0.145240 0.134865 -0.111717 0.073196 0.202960 0.034011 -0.128691 0.160421 -0.151870 0.313206 -0.069909 0.055575 0.012047 -0.068202 -0.376415 -0.216183 0.139553 0.246505 -0.040264 0.084935 0.081342 -0.039785 0.002366 0.163836 -0.231362 0.148045 -0.120828 -0.208010 0.006885 -0.028953 -0.068500 0.159938 0.067612 0.052848 -0.020183 0.082264 
das 0.012038 0.072787 0.146557 -0.034416 -0.181736 -0.076709 -0.077789 0.005955 0.029991 0.094091 0.117165 -0.036495 0.039340 0.066604 0.114623 0.017051 0.050706 -0.032170 -0.075934 0.003046 0.114505 0.192400 0.012468 0.023272 -0.037771 0.000685 0.014332 -0.072170 -0.109865 -0.027112 -0.307710 0.065893 -0.000818 0.117462 0.187621 0.009456 0.176484 0.004425 0.036275 -0.045790 -0.057908 -0.172113 -0.001510 0.142628 0.091651 -0.051474 -0.309398 -0.115932 -0.131638 -0.014390 -0.023375 -0.098990 -0.087292 0.077232 0.137193 0.097332 0.013895 -0.048425 0.033381 -0.032132 -0.053953 0.129628 0.185103 -0.231456 -0.255640 0.021531 0.083715 -0.234830 0.014090 -0.059780 -0.139650 -0.050142 0.028146 -0.009289 0.106786 0.427944 -0.229485 0.133428 -0.025263 0.007459 -0.171608 0.087750 0.121063 -0.101734 -0.212379 -0.119327 -0.135802 0.003560 0.111855 -0.013569 0.025887 0.074617 0.020488 -0.115515 -0.051174 0.174791 -0.049365 0.007171 -0.050550 0.130449 0.256076 0.356009 0.117316 0.146733 0.042692 0.004421 -0.072920 -0.023053 -0.108125 -0.041142 0.038828 0.214644 -0.066488 0.127174 0.081979 0.118929 0.046662 -0.046955 -0.071051 0.119639 0.025180 -0.226921 0.045421 0.026210 0.123313 0.152664 -0.054181 0.178942 -0.188160 0.134230 -0.168218 0.126304 0.065763 0.121013 -0.200946 0.029940 -0.039698 -0.226894 0.004455 -0.138786 0.399266 0.040250 -0.102146 0.069065 0.011971 -0.273833 -0.458135 0.077252 -0.305470 -0.230793 0.177675 0.040410 0.178462 -0.013074 0.241713 -0.048744 0.033117 -0.009214 -0.067343 -0.036941 -0.028849 -0.149357 -0.001606 0.021006 -0.194456 0.199259 -0.095552 0.031831 -0.152807 0.201355 0.237247 -0.250028 -0.061270 -0.125422 -0.176860 0.090836 -0.127512 -0.023634 0.074195 -0.157076 0.032127 -0.153810 0.117302 -0.168443 0.087090 -0.251309 0.060471 -0.042375 0.176651 -0.105948 -0.014860 -0.066940 -0.065369 0.132432 0.018398 0.196741 -0.231901 0.104225 -0.239113 0.111729 0.009864 -0.215705 0.020724 0.027424 0.024540 -0.132095 -0.049598 -0.231711 -0.123974 0.032370 0.190616 0.120531 -0.117789 -0.068259 0.112359 -0.111783 -0.054299 -0.087391 0.020544 -0.099356 0.239636 -0.178870 0.146984 -0.040087 -0.019836 -0.049180 0.151780 -0.277354 0.053183 -0.170788 -0.054387 -0.058542 -0.205559 -0.018310 -0.266036 -0.199289 0.083893 0.173060 0.236152 -0.181247 0.055450 -0.002632 -0.354047 0.011399 -0.153141 0.004550 0.015568 0.166931 -0.070060 -0.195978 -0.159422 0.215279 -0.044260 -0.181021 -0.090433 -0.061500 0.095231 0.090683 -0.023519 0.199343 -0.423383 -0.026211 0.187007 0.154816 0.050342 0.100709 -0.029852 0.198941 0.130559 0.106289 -0.371333 0.369284 -0.052894 0.113620 0.053366 0.146406 0.027049 -0.147914 -0.287292 -0.267926 -0.154815 0.250801 -0.162013 0.008706 0.091979 0.019426 0.290723 0.090411 -0.097959 -0.116660 -0.106386 -0.201890 -0.058705 0.122530 0.165603 0.099469 -0.145483 0.238725 -0.135701 -0.103966 
auf 0.107607 0.115225 0.270806 -0.026793 -0.229119 -0.137351 -0.065672 0.105039 0.025702 0.152575 0.132432 -0.142210 0.132550 0.031388 0.129665 0.175918 0.017732 0.272042 -0.106781 -0.070469 -0.238222 0.167187 0.088258 0.114292 0.072343 0.119867 0.198441 -0.074881 -0.167077 0.113096 -0.410548 0.039420 -0.053828 0.124645 0.084504 -0.153360 0.114026 -0.170166 0.141493 0.150555 0.117668 -0.189459 0.061681 0.119151 0.018504 -0.073843 -0.131869 -0.099471 -0.079144 0.027108 0.057761 -0.158641 -0.040330 0.081658 0.199442 0.050821 0.022181 0.025399 0.088807 0.010798 0.079200 0.065484 0.142610 -0.216382 -0.253164 0.060192 -0.139502 -0.238424 -0.040562 -0.241518 -0.087844 0.055087 -0.008048 -0.055915 0.016625 0.334804 -0.081934 0.155882 -0.040674 0.025029 -0.141704 0.073430 0.261998 -0.208647 -0.052722 -0.145720 -0.105049 0.174886 -0.045110 0.068976 -0.117482 0.337431 0.062761 -0.239175 -0.298585 -0.016116 0.163250 -0.181622 0.039255 -0.104088 0.251704 0.331624 0.084079 -0.017040 -0.032669 0.169394 -0.028110 -0.150151 -0.065911 -0.039509 0.113424 0.152729 0.078785 0.206937 0.142266 0.102833 -0.046882 -0.059180 0.070315 -0.131801 0.082692 -0.185527 0.020044 0.085156 0.132610 0.210148 0.165662 0.121156 -0.105283 0.101714 0.046119 -0.115226 -0.116275 0.126553 -0.135814 0.089253 -0.046298 -0.196044 0.044379 -0.083955 0.281404 -0.058839 -0.236861 0.104828 0.100843 -0.071285 -0.202367 0.104083 -0.168026 -0.130316 -0.141754 -0.029949 0.249505 0.180466 0.086751 -0.034621 0.053721 -0.002695 -0.186318 0.076946 -0.076146 0.047455 -0.087769 -0.221975 -0.190957 0.087297 -0.123766 0.062576 -0.290834 0.255930 0.368316 -0.113838 -0.065445 -0.196816 -0.212966 0.255007 -0.039826 -0.044161 0.213771 -0.131188 0.187528 -0.207666 0.024690 0.121662 0.246962 -0.324605 0.120043 -0.308380 0.274805 0.052966 0.016895 -0.016390 -0.041772 0.194418 0.211686 0.083199 -0.232723 0.027754 -0.305571 -0.051198 -0.171034 -0.152322 0.195119 0.014188 -0.133449 -0.244110 -0.293766 -0.037011 -0.040382 -0.033696 0.165169 0.291109 -0.054493 0.042465 0.145205 0.131683 0.102247 0.071769 0.035834 -0.323674 0.239029 -0.296646 0.287734 0.174744 -0.123422 -0.084303 -0.026408 -0.273589 0.060068 -0.171410 0.068081 0.287586 -0.145377 0.096754 -0.002810 -0.369069 -0.002995 0.233854 0.303550 -0.253919 0.117805 -0.190100 -0.438627 0.027229 -0.157489 -0.036532 0.105300 0.154478 0.062322 0.018547 0.074010 0.035118 0.060508 -0.091814 0.297859 0.078440 0.154238 0.199625 -0.125373 0.087606 -0.390108 -0.121253 0.103817 -0.009821 0.047881 -0.011528 -0.041072 0.073632 0.224782 0.091042 -0.161270 0.201859 -0.145322 0.130678 0.002163 0.140704 -0.036295 -0.142719 -0.121696 -0.020183 -0.087006 0.241534 -0.016006 -0.038555 0.068465 0.095838 0.210101 0.008556 0.124384 -0.060474 -0.166037 -0.188494 -0.089109 0.165208 -0.041985 0.012454 -0.000538 0.137446 -0.139933 -0.208194 
im 0.000906 -0.027182 0.102480 -0.114161 -0.200444 -0.048934 -0.056676 0.066275 -0.002631 0.175752 0.031556 -0.184911 0.249458 0.014191 -0.061659 0.095032 -0.053943 0.149326 -0.110585 -0.001881 0.050642 0.138520 0.016934 0.152536 -0.002381 -0.085181 0.149513 -0.185349 -0.083080 -0.177021 -0.289324 -0.101597 0.202387 0.236301 -0.039317 -0.055390 0.130683 -0.135159 0.156132 -0.025228 -0.049619 -0.183353 -0.023816 0.041165 0.047858 -0.109692 -0.217992 -0.161412 -0.024511 0.148413 0.053739 -0.276372 0.037954 -0.004429 0.011446 -0.106316 -0.088247 0.089543 -0.050327 -0.269661 -0.073374 -0.118456 0.252444 -0.377745 -0.299822 0.155957 -0.246831 -0.217009 -0.109796 -0.021619 -0.007591 0.037800 0.003965 0.024139 0.067974 0.370034 -0.225713 0.141107 0.104160 -0.058242 0.046144 -0.122047 0.189637 -0.157609 -0.194739 -0.183650 -0.034120 0.085156 0.208799 -0.195417 -0.157372 0.063993 -0.091228 -0.165719 -0.087368 0.196556 0.117394 0.013018 -0.052297 0.224580 0.168409 0.228470 -0.010664 0.073672 0.153743 -0.058268 -0.129146 -0.170762 -0.111944 -0.187317 -0.059416 0.208257 -0.094659 0.098518 0.249951 0.093317 0.013668 -0.119359 -0.040507 0.083788 0.110532 -0.199842 -0.063321 -0.003039 0.218855 -0.003219 0.154705 0.210133 -0.176626 0.204461 -0.019701 -0.136181 -0.066214 -0.015732 -0.115605 0.034446 0.134108 -0.256369 0.139820 0.026959 0.239612 -0.014023 -0.150318 0.086902 0.023396 -0.153301 -0.399688 0.071724 -0.228148 -0.195688 0.128015 -0.152817 0.283413 0.057943 0.155229 -0.084190 0.138845 0.013483 -0.290832 0.037329 -0.103667 -0.104269 -0.168435 -0.160649 -0.006065 0.280636 -0.206381 0.207733 -0.124978 -0.014619 0.272779 -0.150864 0.008873 -0.158473 -0.215299 0.260922 -0.059281 -0.096658 0.123807 -0.092586 0.177431 -0.136888 0.122255 0.031626 0.229507 -0.371080 -0.047710 -0.143601 0.170808 0.046644 -0.254709 0.054627 -0.014143 0.280175 0.114518 0.179122 -0.105679 0.120598 -0.085936 0.296570 0.078233 -0.319041 0.207312 0.036460 0.034215 -0.220606 -0.214433 0.055802 -0.129548 -0.144063 0.248337 0.124852 -0.042979 -0.172061 0.004097 -0.044058 -0.037410 -0.098303 0.097972 -0.138891 0.204752 -0.366663 0.379703 0.172834 0.044026 -0.014800 0.031133 -0.270286 0.255964 0.139435 -0.178203 -0.000216 -0.016854 0.078999 0.096621 -0.222691 -0.081201 0.197883 0.129195 0.016904 -0.044597 -0.016319 -0.566005 0.076594 0.057089 0.026189 -0.142069 0.172569 -0.142006 -0.196895 0.146638 0.329676 0.014567 -0.032384 0.194056 -0.081406 0.090619 0.031534 -0.163471 0.328683 -0.393618 -0.135680 0.280738 -0.161786 0.052893 0.142227 0.104311 -0.181466 -0.029976 0.180958 -0.217338 0.121854 -0.194212 0.349018 -0.057866 0.374762 0.117178 -0.050294 -0.400919 -0.196797 0.049909 0.207792 -0.151995 0.008868 0.106968 0.032585 0.233329 -0.093839 -0.062246 0.041144 -0.212200 -0.162999 -0.016130 0.094364 0.001556 0.202543 0.069884 0.152904 -0.133544 -0.091979 
ist -0.118162 0.035042 0.186050 -0.082224 -0.223118 0.037294 -0.068241 0.008694 -0.062081 0.233526 0.267835 0.044672 -0.108187 0.132485 0.182267 0.123978 0.134477 0.079272 -0.076741 0.016307 -0.054726 0.241537 0.042730 0.039899 -0.023673 0.065079 0.112543 -0.071107 -0.056085 0.023042 -0.360301 0.084328 -0.085452 0.136574 -0.019832 -0.047170 0.241425 -0.144887 -0.013117 0.010488 0.126855 -0.121676 -0.156653 0.220583 0.133322 -0.084013 -0.214752 -0.172585 -0.153371 0.032233 0.048705 -0.039108 0.032660 0.045684 0.226628 -0.024370 0.047659 -0.055827 0.048601 0.030299 -0.020664 0.138771 -0.006862 -0.230550 -0.125821 0.054986 -0.007945 -0.127626 -0.107375 -0.292516 -0.040343 0.077335 0.073493 0.115259 0.061499 0.431696 -0.241181 0.017421 -0.096844 0.060619 -0.030744 -0.000022 0.241867 -0.009858 -0.272668 -0.018822 -0.124665 0.003005 0.043509 -0.046393 -0.035979 0.235078 -0.123434 -0.213193 -0.145464 0.173467 0.053001 0.083756 0.165377 0.131776 0.198640 0.185644 0.116167 -0.023883 0.147133 0.067885 -0.212556 0.159881 -0.170761 -0.090255 -0.096266 0.191597 -0.189503 0.016873 0.246611 0.240480 0.243257 -0.042451 -0.164475 0.087419 -0.080912 -0.133082 0.007206 0.028384 0.164356 0.137950 0.125470 0.184375 -0.224055 0.102968 -0.119604 -0.020250 0.183681 0.228948 -0.265191 0.022188 -0.143524 -0.146996 -0.046552 -0.098674 0.247331 0.119024 -0.223298 0.013459 -0.117151 -0.092635 -0.204832 0.056250 -0.091085 -0.341941 0.199274 -0.068870 0.131001 0.128776 0.295569 -0.163789 0.136379 0.002474 0.067251 0.054392 -0.031842 -0.026391 -0.037067 0.014332 -0.119875 0.061717 0.017083 0.146420 -0.224982 -0.058366 0.083158 -0.026877 -0.167904 -0.192069 -0.127995 0.203203 -0.184718 0.094999 0.109532 -0.331984 0.164176 -0.228163 -0.022965 0.042109 0.123137 -0.200689 -0.103424 -0.193799 0.307912 -0.147079 -0.039351 -0.021563 0.155656 0.042763 0.100980 0.177379 -0.137209 -0.117877 -0.125879 -0.027160 0.281530 0.063355 -0.111540 -0.036682 0.077670 -0.303978 -0.121937 -0.067178 -0.221090 -0.076582 0.123758 0.062627 -0.109405 -0.030527 0.113250 -0.096950 0.177984 0.018585 0.052165 -0.366537 0.152081 -0.124524 0.214336 0.052157 -0.074705 0.115786 0.166740 -0.495882 0.067457 -0.159612 -0.241580 0.129309 -0.138043 -0.128552 -0.096801 -0.352187 -0.069146 0.116833 0.004541 -0.165859 -0.026137 -0.180669 -0.488017 -0.019913 -0.044785 0.079012 0.005504 0.202214 0.032859 -0.003278 -0.051963 0.157064 0.108684 -0.006088 0.108404 -0.068426 -0.080104 0.022501 -0.166515 0.271328 -0.291515 -0.078656 -0.045379 0.064429 -0.053003 0.240423 -0.135793 -0.013253 0.082811 0.062208 -0.236449 0.284604 -0.041468 0.114769 -0.174450 0.275637 0.054327 -0.069650 -0.289603 -0.089358 0.052358 0.334232 -0.085959 0.057940 -0.105453 0.103352 0.258028 -0.115357 -0.166903 0.227489 -0.258776 -0.085064 -0.177014 -0.027215 0.053767 0.130584 -0.208437 0.111055 -0.032514 -0.018628 
fr -0.059769 0.104258 0.193391 -0.107042 -0.194773 -0.074149 0.074188 0.180245 -0.077340 0.289775 0.062456 -0.060445 0.125554 0.207454 0.170752 0.077665 -0.002941 0.022771 -0.169955 0.002660 0.046978 0.245630 0.138652 0.110721 -0.090870 -0.015509 0.119554 -0.069736 -0.140418 -0.099373 -0.430596 0.003619 0.023710 0.019946 0.193894 -0.174748 0.118095 -0.179668 0.053085 0.013263 -0.075087 -0.265453 -0.105314 0.079161 0.076434 -0.146303 -0.175535 -0.066855 -0.004951 -0.147168 0.076354 -0.243647 -0.039138 -0.060222 0.099826 -0.099088 -0.067179 -0.104875 0.050697 -0.278418 -0.039178 -0.013037 0.095744 -0.263075 -0.268649 0.052975 0.040509 -0.332647 -0.121569 -0.199427 -0.179496 0.129753 0.020081 0.015910 0.048115 0.504170 -0.206147 0.038892 -0.040741 -0.013530 -0.172358 0.026528 0.159627 -0.034174 -0.213110 -0.221119 -0.165929 0.094325 0.144980 -0.186578 -0.160793 0.217953 -0.079374 -0.163225 -0.216682 0.218148 0.286938 -0.087581 0.180731 0.117149 0.167671 0.237640 0.187712 0.192363 0.038504 0.087282 -0.038580 -0.037107 -0.191806 -0.051902 -0.068061 0.318249 -0.080120 0.152733 0.198813 0.038406 -0.167502 0.001934 -0.020989 -0.046663 -0.069595 -0.163196 0.057501 0.109511 0.273878 0.070111 0.093507 0.114468 -0.305632 0.193144 0.046283 -0.044897 0.034597 0.054555 -0.125217 -0.218532 -0.008168 -0.264801 0.156777 0.150357 0.160270 0.011015 -0.159348 0.198381 -0.082878 -0.296617 -0.248576 0.164054 -0.142101 -0.234837 0.159406 -0.025236 0.366514 0.063949 0.318380 -0.024750 0.062229 0.028688 -0.158131 -0.012189 -0.186472 0.025467 0.046105 0.056201 -0.112370 0.118814 -0.066104 0.197003 -0.200416 0.060466 0.101466 -0.139208 -0.002231 -0.128938 -0.266396 0.191714 0.241072 -0.006916 0.106774 -0.391603 0.167604 -0.204061 0.065819 0.181251 0.140736 -0.336253 0.109864 -0.244983 0.033627 -0.098173 0.100512 0.006832 -0.096741 0.112333 0.075364 0.064168 -0.262172 0.019541 -0.208067 0.051983 0.089085 -0.174611 -0.054718 0.073669 0.071190 -0.173809 -0.076151 -0.083651 -0.115250 -0.087701 0.102899 0.127909 0.011949 -0.110759 0.223335 -0.335419 0.165864 -0.017906 0.109400 -0.216874 0.085186 -0.308460 0.380684 0.001547 -0.001370 -0.016317 0.043735 -0.244833 0.136599 0.011061 0.019384 0.181767 -0.101602 0.010678 -0.012111 -0.181845 -0.153292 0.290247 0.386272 0.014635 -0.115363 -0.200440 -0.453289 0.094240 -0.134365 0.129785 0.074543 0.056420 -0.026794 0.048664 0.072066 0.023031 0.104475 -0.177492 0.261046 -0.001522 0.194802 0.181005 -0.164933 0.325047 -0.416241 0.124873 0.235585 0.090486 -0.013147 0.029017 -0.126500 -0.125193 0.111862 0.101793 -0.068786 0.065192 -0.156430 0.109717 0.033430 0.290412 0.044753 0.053633 -0.310982 -0.083545 -0.004386 0.091084 0.131670 0.031409 0.156437 0.071483 0.255408 0.145433 -0.094264 0.036041 -0.134748 -0.172870 -0.241416 0.043224 -0.051411 -0.019826 0.036237 0.153895 -0.076929 -0.020397 
sich -0.093393 -0.018962 0.087671 -0.069708 -0.163813 -0.044585 -0.022632 -0.047312 -0.150671 0.100519 0.089943 -0.113830 0.094003 0.192761 -0.049409 0.072287 0.029312 0.099751 -0.063124 0.062187 -0.167366 0.013441 0.064386 0.135473 -0.054666 0.031101 -0.071288 -0.123200 -0.142979 -0.038983 -0.283647 0.009208 0.158773 0.123771 -0.032215 -0.011720 0.116283 0.106599 0.059131 -0.076853 -0.083138 -0.061348 0.116524 0.234154 0.105644 0.148815 -0.260003 -0.134512 -0.095392 -0.059568 0.081727 -0.065272 0.061732 0.008704 0.296098 -0.069035 0.056725 -0.029561 0.116224 0.043264 -0.008310 0.051856 0.197415 -0.119156 -0.229849 0.066941 -0.192056 -0.161364 0.002790 -0.230521 -0.023172 0.145354 0.161367 0.044830 0.058287 0.361017 -0.027830 0.108208 0.070645 -0.044821 -0.143488 -0.090602 0.032705 -0.040016 -0.118233 -0.097889 -0.133149 0.091884 -0.150129 0.047723 0.013437 0.335553 -0.085189 -0.091222 -0.044134 0.034736 -0.081864 0.065585 -0.043134 0.094896 0.212333 0.241961 0.193079 0.114322 0.075188 0.051713 0.009610 -0.038744 -0.108976 -0.226436 -0.001220 0.164359 -0.072408 -0.030964 0.009853 0.168199 0.047875 -0.062665 0.177828 -0.028861 -0.119599 -0.082739 0.049699 0.183779 -0.066058 0.051297 -0.162642 0.098740 -0.166342 0.038314 0.077366 -0.142035 0.061872 0.105737 -0.085260 -0.146314 -0.038602 -0.251669 0.009235 0.091056 0.458938 0.179077 -0.041747 0.101255 0.031323 -0.073415 -0.206934 0.155926 -0.175315 -0.133082 0.095808 -0.133667 0.233616 0.026106 0.223739 -0.280172 0.107443 0.136705 -0.117955 -0.013306 -0.059884 -0.077424 -0.000447 -0.046426 -0.105620 0.074740 -0.021924 0.095709 -0.225142 0.080256 0.175728 -0.125032 0.036395 -0.289622 -0.103945 0.322341 -0.108647 -0.016118 -0.022570 -0.211642 0.151419 -0.208008 0.086403 -0.090051 0.210262 -0.206951 0.101547 -0.141209 0.354330 -0.037188 0.176414 -0.004935 0.039749 0.117470 0.083887 -0.114401 -0.135700 -0.014604 -0.262538 0.081598 0.136775 -0.135813 0.087607 -0.013861 0.041188 -0.005300 -0.235551 0.133218 -0.076902 0.069424 0.083364 0.143597 -0.261347 -0.168849 0.123763 0.169580 -0.068343 0.005623 0.025814 -0.310630 -0.107472 -0.274129 0.234512 -0.032704 0.156723 -0.077600 0.157380 -0.213745 0.020706 -0.043720 -0.173948 0.079771 -0.004444 0.141469 -0.148828 -0.204930 0.073266 0.366480 0.182533 -0.081335 -0.098064 -0.138363 -0.369486 0.029667 -0.037507 0.139186 -0.120234 0.093542 0.138339 -0.188568 -0.244543 0.192335 -0.018766 -0.100608 0.005391 -0.033479 0.118134 0.054411 -0.129930 0.246956 -0.286513 -0.021577 0.382449 0.005416 0.086706 0.042425 -0.150301 -0.026082 0.087847 0.129007 -0.200901 0.066593 -0.197910 -0.126815 -0.098294 0.205586 0.002789 -0.086449 -0.118288 -0.061084 -0.090319 0.425790 -0.042669 0.171951 -0.083623 -0.008270 0.003271 0.095735 -0.186558 0.166925 0.013973 -0.296695 0.002891 0.082827 -0.026734 0.021565 -0.092721 0.147757 -0.291549 0.191080 
Die 0.167634 0.030639 0.127866 -0.041692 -0.302638 -0.044875 -0.048334 0.051935 -0.080729 0.235304 0.079533 0.043683 0.074634 0.254491 0.017053 0.111346 0.171087 0.056533 -0.108767 -0.018758 -0.095363 0.220729 -0.016663 0.235909 -0.004533 -0.000459 0.089738 -0.078886 -0.209845 -0.131697 -0.350801 0.039224 -0.168093 0.151706 0.079088 -0.037893 0.227724 -0.049727 0.156410 -0.041274 -0.033750 -0.026934 -0.048057 0.048268 0.022639 -0.131782 0.084601 0.000433 -0.245636 -0.020854 0.124691 0.067355 -0.022573 -0.055934 0.255816 -0.216589 0.022271 0.075261 0.090544 -0.049138 0.044944 0.312073 0.278949 -0.179612 -0.181247 0.185538 0.015088 -0.146254 -0.084436 -0.253418 -0.177045 0.126229 0.242606 -0.009909 0.203861 0.230221 -0.175306 0.218538 0.160450 0.037811 -0.070168 -0.093600 -0.026582 -0.215960 -0.053597 -0.181795 -0.129567 0.130626 0.165905 -0.155541 0.028734 0.311118 0.028077 -0.091896 -0.228833 0.050811 0.128840 -0.095220 0.049846 -0.010462 -0.021107 0.265156 0.121191 0.141916 -0.018243 0.099236 -0.095470 0.010815 -0.012345 -0.313862 0.164841 0.126818 -0.163428 0.210868 0.086952 0.067830 0.019100 0.067230 0.106966 -0.113175 -0.141273 -0.153057 0.099814 0.148453 0.282478 0.194133 -0.102179 0.061327 -0.298448 0.163358 -0.175640 -0.111300 -0.027886 -0.088835 0.114086 -0.034131 -0.067945 -0.150288 0.090841 -0.144848 0.210836 0.099547 -0.052135 0.160659 -0.035406 0.013501 -0.146958 0.184792 -0.266560 -0.169523 -0.053864 -0.109213 0.239098 0.067679 0.207447 0.010777 -0.082868 -0.006683 -0.225038 -0.112841 -0.102766 0.016311 -0.062535 -0.209902 -0.178170 0.149008 -0.044422 0.084808 -0.179027 0.055042 0.052895 -0.174699 0.131609 -0.121936 -0.106016 0.000551 0.163308 -0.019011 0.059784 -0.207001 0.168753 -0.234933 0.220032 -0.096534 0.138572 -0.291943 0.133209 -0.162126 0.165622 0.158200 -0.062365 -0.069167 -0.039883 0.014387 0.233822 0.202388 -0.224237 -0.091970 -0.204096 0.166951 -0.010481 -0.102776 0.005877 -0.181385 0.192748 -0.100615 0.024919 0.003172 -0.041073 0.207204 0.075241 0.304128 -0.108506 0.114026 0.179143 0.002939 0.049550 0.107889 0.007298 -0.269477 0.156710 -0.164615 0.229300 0.196647 0.000585 0.072016 0.094737 -0.388890 0.172448 -0.097492 0.047454 -0.058546 -0.133031 0.148444 -0.043159 -0.350401 -0.071672 0.284427 0.073004 -0.187477 -0.340279 0.105991 -0.234301 0.246282 0.039015 0.097454 -0.365462 0.164764 -0.021563 -0.011255 -0.211713 0.115528 0.011105 -0.089011 0.078180 -0.211985 -0.056225 0.088985 0.052737 0.039024 -0.412739 -0.028142 0.091370 -0.025071 0.322097 0.265708 0.081173 -0.244787 0.073809 -0.026509 -0.190152 0.122692 0.022759 0.308194 0.035409 0.115514 -0.288374 -0.034629 -0.487913 -0.024547 0.053074 0.144044 0.026759 0.136531 0.331429 -0.186374 0.033020 -0.162945 -0.063130 0.294697 0.033746 0.010451 -0.173706 -0.010499 -0.115865 0.017701 -0.147034 0.318597 0.014220 0.043232 
dem -0.035431 -0.024424 0.133077 -0.133010 -0.195498 -0.112390 0.054179 0.051639 -0.090142 0.186357 0.131741 -0.011952 0.082227 0.052898 0.058395 0.084517 0.041007 0.038786 -0.121975 -0.062058 -0.040492 0.256349 0.016248 0.090661 -0.054087 0.002965 0.050118 -0.130120 -0.105711 0.053198 -0.366026 -0.181891 0.038725 0.156166 0.136231 -0.009039 0.174608 -0.107923 0.067118 0.030747 -0.099268 -0.343973 -0.003958 0.102152 -0.054882 0.032704 -0.136533 -0.106738 -0.086373 0.021386 0.116307 -0.192443 0.096653 0.144377 0.140259 0.003567 -0.191987 0.091119 0.080774 -0.121346 -0.040911 0.018732 0.306991 -0.254289 -0.170031 0.111534 -0.082393 -0.232375 -0.060170 -0.124258 -0.140055 0.132950 0.089160 0.131574 -0.106996 0.416092 -0.263498 0.067589 -0.016851 0.025982 -0.165908 0.023714 0.167731 -0.026097 -0.164541 -0.125660 -0.124810 0.108746 -0.000614 -0.093284 -0.014790 -0.015761 -0.056252 -0.174093 -0.124547 0.086987 0.114616 -0.112674 0.036277 0.076520 0.189277 0.252070 0.028599 0.047314 0.206828 0.068576 -0.184594 -0.167081 -0.039922 -0.150908 0.029741 0.228182 0.042365 0.126954 0.034608 0.162610 0.021815 -0.017824 0.134503 0.047273 0.016296 -0.189081 -0.068567 0.105091 0.122663 -0.010029 0.156844 0.108500 -0.179269 0.251422 0.174660 -0.163245 -0.050412 0.088022 -0.133184 -0.097344 -0.180634 -0.332778 0.038237 -0.033967 0.251051 -0.005982 -0.092914 0.147791 -0.053893 -0.157191 -0.424846 0.005754 -0.167819 -0.219001 0.084592 0.109506 0.163847 -0.052229 0.306611 -0.041369 0.146316 -0.054871 0.004741 0.019701 -0.159825 -0.011637 0.095527 0.047199 -0.087762 0.200251 -0.142013 0.194417 -0.151516 0.029285 0.065821 -0.187854 -0.044028 -0.188427 -0.171471 0.243332 -0.125753 -0.088093 0.162848 -0.097487 0.027965 -0.088001 0.048082 -0.057542 0.101054 -0.250260 0.048781 -0.157989 0.201219 0.012137 -0.089343 0.062834 -0.062511 0.130495 0.193688 0.173974 -0.107797 0.137748 0.041048 0.025758 -0.058827 -0.167213 0.097611 0.115844 0.054995 -0.136669 -0.119362 -0.008488 0.053280 -0.118100 0.227191 0.090370 -0.248689 -0.171925 0.035002 -0.123975 0.011250 -0.098944 0.031317 -0.161139 0.231195 -0.306668 0.308317 -0.056112 0.105235 -0.119409 0.030746 -0.263760 0.163498 -0.072248 -0.067369 0.082488 0.049122 -0.238449 -0.198405 -0.225567 -0.051407 0.302708 0.208113 -0.068205 0.038378 0.020814 -0.462815 0.109513 -0.064377 -0.147924 -0.002513 0.150610 -0.059876 -0.110219 0.023239 0.115071 -0.124234 -0.092157 -0.017676 0.055683 0.229652 0.067038 -0.087114 0.115406 -0.397450 -0.171045 0.246499 -0.011925 0.079327 0.242149 0.002062 0.006271 0.153162 0.148735 -0.242529 0.128098 -0.006764 0.168232 -0.164460 0.180923 0.004260 -0.074551 -0.279638 -0.212497 -0.182030 0.251308 -0.272733 0.021364 0.176386 -0.063285 0.202764 0.127447 -0.104829 0.103458 -0.113662 0.011179 0.020563 0.024480 -0.001343 0.171609 -0.025774 0.149203 -0.111377 -0.065026 
nicht -0.012429 -0.045264 0.129465 0.001783 -0.177156 -0.167906 -0.126832 0.113240 -0.152666 0.165256 0.043651 -0.138013 0.050493 0.040899 0.106476 -0.095498 0.075026 0.019914 -0.124969 -0.058514 -0.100850 0.039211 0.000108 0.192435 -0.030606 -0.066732 0.220175 -0.084083 -0.042355 -0.077547 -0.265344 0.035020 -0.011843 0.062846 0.034756 -0.007187 0.131802 -0.152335 0.043588 -0.033187 -0.056643 -0.098738 -0.062967 0.165927 0.157953 -0.042142 -0.193009 -0.064005 -0.009906 -0.080806 -0.019700 -0.153999 -0.040065 0.192423 0.028155 0.015498 0.206858 -0.002593 0.064235 0.008368 -0.021171 0.152245 0.238326 -0.395026 -0.015018 0.179282 0.117987 -0.289909 -0.046326 -0.229708 -0.030842 0.030491 0.091125 -0.037204 0.096689 0.533181 -0.164421 0.114014 0.052438 -0.043516 -0.082205 -0.074062 0.128573 -0.126188 -0.223109 -0.081158 -0.180588 0.171623 -0.092263 0.019000 -0.057079 0.199981 0.102143 -0.092979 -0.013914 0.239718 -0.071652 -0.001199 0.068895 0.135775 0.336549 0.087922 0.193455 0.082008 -0.017955 0.049570 -0.083188 0.050967 -0.066917 -0.170516 0.014431 0.033976 -0.087740 0.032061 0.055875 -0.127113 0.100373 0.008026 0.140128 0.136417 0.062307 -0.043739 0.111684 0.148253 0.302598 0.115701 0.011199 0.119495 -0.100793 0.160618 0.139087 -0.116597 -0.009553 0.029424 -0.137045 -0.047778 -0.006442 -0.265164 0.086516 0.037872 0.386700 0.067033 -0.251709 0.005607 -0.039823 -0.237177 -0.291425 0.016308 -0.164315 -0.216119 0.195657 -0.010447 0.210186 0.025843 -0.043217 -0.048057 0.131460 -0.034081 0.089669 0.008523 0.053211 -0.170367 -0.087968 0.054150 -0.218574 0.168549 -0.136064 0.133726 -0.145238 0.141844 0.169100 -0.118858 -0.170133 -0.263336 -0.141460 0.028236 -0.041747 -0.102638 0.048886 -0.101208 0.187605 -0.202963 0.020693 -0.036848 0.094524 -0.199710 0.108635 -0.170160 0.211882 -0.180539 0.088815 -0.052137 0.009903 0.085392 0.097709 0.114569 -0.018003 -0.162083 -0.140435 0.024428 0.132548 0.013705 -0.003647 0.015023 -0.003898 -0.079617 -0.266768 -0.036051 0.034468 0.086704 0.107434 0.182131 -0.026561 0.137445 0.067274 -0.028523 -0.004586 -0.072367 -0.018705 -0.171206 0.054290 -0.274731 0.327161 0.073205 0.035324 0.122703 0.010743 -0.271443 0.153903 -0.184239 -0.150243 0.029316 -0.098548 -0.077097 -0.202800 -0.255542 -0.136555 0.248781 0.034858 -0.119065 0.026340 -0.137878 -0.331368 0.183740 -0.190376 0.085958 0.039888 0.115416 0.061972 -0.146736 -0.178844 0.082214 0.155867 -0.189290 0.044667 -0.029746 0.035083 0.088899 -0.318454 0.343480 -0.473698 -0.043442 0.086167 -0.107535 0.037216 0.053786 -0.087046 0.011929 0.418474 0.241690 -0.263643 0.228650 0.044886 0.165686 -0.206208 -0.092763 0.054754 -0.145837 -0.342961 -0.164336 0.105396 0.196211 -0.008262 0.057296 0.033935 0.122772 0.023605 0.016893 -0.160804 0.151292 -0.126915 -0.115638 -0.102094 0.161071 -0.053837 0.235937 0.005579 0.147108 -0.022274 -0.065787 
ein -0.012174 0.163190 0.158022 0.017874 -0.055094 -0.085713 -0.115665 0.049885 0.119352 0.106793 0.197870 -0.048913 -0.027092 0.185082 0.164331 -0.008014 0.123763 0.088736 -0.205328 -0.133367 -0.023472 0.353757 0.060420 0.015282 0.052273 0.024809 -0.054073 -0.210014 -0.027778 -0.093580 -0.308083 -0.012390 0.057294 0.154884 0.017847 -0.046002 0.002578 -0.164327 0.102479 0.113735 0.120709 -0.082179 -0.081364 0.202939 0.088832 -0.023243 -0.278568 -0.013395 -0.031625 0.005056 0.080471 -0.034522 0.007725 -0.019463 0.050851 0.056149 0.056495 0.093817 -0.094671 -0.087691 -0.057210 0.126067 0.103749 -0.236993 -0.070784 -0.104470 0.073400 0.005536 -0.319725 -0.218303 -0.071109 0.100464 -0.008065 0.061800 0.119918 0.420894 -0.057779 0.049048 0.065307 0.059313 0.042967 0.143804 0.033099 -0.268298 -0.252869 -0.031639 -0.245410 0.029287 0.118762 0.072894 0.023356 0.113879 -0.002340 -0.170733 -0.047217 0.038665 0.023827 0.039067 0.117327 0.188091 0.096038 0.268767 0.224921 0.028491 -0.001915 0.045027 -0.028480 0.061362 -0.156886 -0.051066 0.112032 0.122397 -0.149069 0.184611 0.125705 0.170812 0.226917 -0.165399 -0.009904 0.043444 -0.111997 -0.238826 0.050987 -0.038248 0.034243 0.157904 -0.050685 0.175612 -0.238440 0.257749 -0.234570 0.037395 0.099808 0.309532 -0.131535 0.169564 -0.094183 -0.160859 0.238657 0.055080 0.355587 0.082121 -0.037563 -0.088110 0.079429 -0.119899 -0.428555 -0.171848 -0.278514 -0.171295 0.020230 -0.077294 0.031790 -0.074114 0.294480 -0.037919 0.013517 0.109653 -0.201878 0.189785 -0.241084 0.002439 0.139872 0.099250 -0.115289 0.153231 -0.244932 0.058183 -0.234393 0.017114 -0.025955 -0.134533 -0.003689 -0.185661 -0.241206 0.077511 -0.033172 -0.036422 -0.028928 -0.262689 0.000586 -0.207163 0.010545 -0.061073 0.099574 -0.098532 0.093423 -0.170313 0.261085 -0.283495 -0.037151 -0.013846 -0.017719 0.140786 -0.127957 0.246086 -0.246419 0.068249 -0.091603 0.038169 -0.064985 -0.115818 -0.028632 0.205824 0.019116 -0.004242 -0.055470 -0.074874 -0.073149 0.085673 0.102419 0.226317 -0.148855 0.058032 0.028577 -0.105689 0.071699 -0.108793 0.019080 -0.237803 0.218876 0.006007 0.187520 -0.060925 -0.072279 -0.008691 0.052241 -0.157468 0.080727 -0.114974 -0.321149 0.184387 0.003691 -0.134580 -0.165743 -0.259510 0.148657 0.195952 0.105639 0.047514 0.145887 -0.032432 -0.362946 0.051051 -0.285836 0.048351 0.015705 0.111199 0.101964 -0.130598 0.135067 0.094898 -0.141508 -0.069631 -0.082525 0.032693 0.125984 0.125293 0.061291 0.340219 -0.389025 0.013495 0.063640 0.076669 -0.033012 0.103273 -0.244690 -0.144095 0.151846 0.182307 -0.412655 0.174265 -0.108864 0.165289 -0.143265 0.179802 0.017824 -0.140688 -0.205625 -0.063146 -0.150545 0.012412 -0.045993 0.190313 0.027284 -0.092052 0.344859 0.274992 -0.000751 -0.045189 0.005377 -0.387214 -0.187313 0.122252 -0.038033 0.143686 0.086238 0.268410 -0.237174 0.044105 
des 0.151189 -0.097321 0.298307 -0.142754 -0.202834 -0.119057 0.045285 0.115946 0.037147 0.039476 -0.033175 0.043757 0.181589 0.088281 -0.057546 0.207236 0.014208 0.138144 -0.271373 -0.097145 0.053699 0.231791 0.171725 -0.092550 0.222469 -0.158386 0.096817 -0.210477 -0.179204 -0.116043 -0.430601 -0.108937 0.010052 0.064035 0.123355 -0.006179 0.132242 -0.007120 0.124163 0.243358 0.205169 -0.242881 -0.072902 0.027258 0.112391 -0.103887 -0.243563 0.084452 -0.163189 -0.121472 0.061840 -0.297780 -0.151156 0.098973 0.162832 0.060310 0.015161 -0.073079 0.206776 -0.323812 -0.072172 -0.051659 0.135527 -0.068260 -0.215023 0.079598 -0.188872 -0.373363 0.001228 -0.191690 -0.095668 0.008383 -0.084639 0.045879 0.024937 0.321370 -0.281529 0.247072 -0.088560 0.146310 -0.214679 0.035979 0.275469 -0.094214 -0.113889 0.070613 0.020037 -0.014487 -0.079064 -0.180314 -0.074661 0.113264 -0.110949 -0.269491 -0.302907 -0.092372 0.276262 -0.054112 0.039022 0.280114 0.277744 0.020533 0.056036 0.361516 0.063855 0.006247 -0.187868 -0.066508 -0.187764 -0.129643 -0.128893 0.241885 -0.024121 0.235736 0.019727 -0.077654 -0.201023 -0.001865 0.270358 0.016555 0.025594 -0.224302 0.140517 0.137793 0.375782 0.163591 0.158493 0.141168 -0.179106 0.110474 -0.082635 -0.299682 0.047728 0.124474 -0.063972 0.005162 0.040651 -0.320861 0.067117 0.056474 0.374541 0.035356 -0.246730 0.279670 -0.003850 -0.257155 -0.404861 0.104174 -0.326400 -0.079562 0.199641 -0.112155 0.327481 0.200885 0.196743 -0.191793 0.060154 0.069208 -0.214531 0.062958 -0.219913 -0.100203 -0.007299 -0.000005 -0.168259 0.489982 -0.258520 0.226706 -0.216129 0.048760 -0.200219 -0.027975 0.071365 -0.244635 -0.226090 0.177851 0.055457 -0.124960 -0.140889 -0.150924 0.124778 0.015803 0.292509 -0.131299 0.133252 -0.259185 -0.150168 -0.327304 0.200368 0.013028 -0.152132 -0.006657 0.017964 0.041547 0.070394 0.199714 -0.186640 0.014382 -0.195907 0.174927 -0.110254 -0.166855 -0.019850 -0.281516 0.115758 -0.195772 -0.184043 0.126147 0.075965 -0.266911 0.408692 0.182540 -0.028572 -0.201299 0.120713 0.057632 0.024678 0.137546 0.083029 -0.123128 0.153023 -0.236504 0.407431 0.015782 -0.106222 0.123913 0.193499 -0.378827 -0.024242 -0.131076 -0.059601 0.158799 -0.007719 -0.207214 -0.041929 -0.111543 0.061381 0.254607 -0.066145 -0.128515 -0.101352 0.040531 -0.366057 0.086792 -0.033330 0.009099 0.070456 0.176557 -0.149482 0.028365 0.015912 -0.002996 0.161707 -0.165152 0.232537 -0.183009 0.155396 0.116582 -0.083711 0.099038 -0.247893 0.117090 0.195746 -0.005641 0.067012 -0.046822 0.059397 -0.053490 -0.030777 0.255952 -0.155247 0.487743 0.006749 0.057918 -0.091232 0.416209 0.074597 -0.063833 -0.184873 -0.137610 0.092210 0.221447 0.053435 -0.123171 0.147769 0.166834 0.543767 0.013683 0.050226 0.132215 -0.008990 -0.214309 -0.003942 -0.184506 0.204425 0.309682 0.078739 0.097877 -0.244388 0.009242 
( -0.065361 0.220204 0.193849 -0.050534 -0.151737 -0.028962 0.000132 0.286320 0.081740 0.093885 0.324351 0.166614 0.119198 0.025880 -0.161455 0.082923 -0.150645 0.115974 -0.007143 0.025811 0.025859 0.139164 -0.404022 0.159671 0.040848 -0.081858 0.056401 -0.195570 -0.227730 -0.007419 -0.214382 0.044329 0.130130 0.041707 0.172558 -0.043525 0.110619 -0.230463 0.220461 -0.142879 -0.061527 -0.089893 -0.161005 0.295348 -0.114639 -0.104601 0.072848 -0.253044 -0.220924 0.024862 0.141155 -0.275794 0.148454 -0.099092 0.140748 -0.070795 0.032877 0.182012 -0.051935 -0.241444 -0.071953 0.035977 0.038277 -0.332407 0.055289 0.089995 -0.266312 -0.037405 -0.082153 0.120041 -0.079768 0.062391 0.074414 -0.082690 0.050512 0.299895 -0.292772 0.102010 0.105998 -0.037649 -0.040081 0.141760 0.067728 -0.275424 0.008641 -0.274622 -0.297352 0.024000 0.018241 -0.252829 -0.164577 0.244712 -0.175952 -0.127127 -0.303012 -0.066741 0.046359 0.135892 -0.110671 -0.187363 0.036380 -0.020644 0.208926 -0.020460 -0.156345 0.036843 -0.061148 -0.072035 0.035602 0.000052 -0.166763 0.215343 -0.124159 0.253345 0.428390 0.049860 -0.213637 0.072819 -0.215806 -0.097699 0.012308 -0.135865 0.303594 0.153621 0.185658 -0.038676 0.038340 0.277030 -0.206138 0.250541 -0.190848 -0.159877 -0.038013 -0.225538 -0.033743 -0.247518 0.190530 -0.209618 0.157867 -0.015825 0.143682 0.173540 -0.073132 0.298104 -0.193009 -0.140873 -0.165291 0.419685 -0.289550 -0.054140 0.171470 0.174201 0.153765 -0.084382 0.191717 -0.012386 -0.050231 -0.152815 0.145496 0.133037 0.149042 -0.005210 0.127252 0.049375 -0.058171 0.352854 0.161903 0.170493 -0.455794 -0.103767 -0.236488 -0.123972 0.141359 -0.384765 -0.072136 0.067911 0.162093 0.003551 0.024108 -0.294476 0.197124 0.122084 0.140230 0.370752 0.459075 -0.163559 0.164367 -0.194308 -0.223027 -0.064264 0.267914 -0.184197 -0.164788 -0.024835 0.007618 -0.054015 -0.412353 0.052798 0.032276 -0.144980 -0.154512 -0.245773 0.109690 0.201654 0.066557 -0.244418 -0.101211 0.190967 -0.068249 0.148581 0.237680 0.316717 -0.071881 -0.239730 -0.001191 0.032663 -0.129352 -0.020921 0.054229 0.106970 0.378903 -0.461083 0.391595 0.222219 0.127145 -0.119710 0.188809 -0.057505 0.195872 0.231659 -0.233447 -0.109049 0.233523 0.075819 0.012889 0.007605 0.164448 0.425968 0.210282 -0.288644 0.008574 0.142964 -0.324557 0.050822 0.340479 0.250004 -0.065996 0.218932 -0.022620 -0.250876 0.300144 0.169232 0.219877 -0.151775 0.088292 -0.121189 -0.014005 -0.056350 -0.002728 0.183082 -0.334380 -0.203974 0.171460 -0.066902 -0.028149 0.235821 0.224473 -0.120968 -0.082984 0.565000 -0.235014 0.239577 0.018563 -0.010321 0.049061 0.564735 0.234861 -0.096437 -0.321529 -0.225237 0.015746 -0.092422 -0.062795 -0.021252 0.319252 -0.033010 0.491053 0.143051 0.045539 0.259021 -0.041001 0.039749 0.002446 -0.029379 -0.031451 0.234215 -0.290998 0.223444 -0.008765 -0.171833 
) 0.012577 0.167094 0.201979 -0.064251 -0.053389 -0.025729 0.085272 0.224531 0.091980 0.112510 0.357144 0.157732 0.106747 0.061760 -0.102574 0.102991 -0.125199 0.110910 -0.073429 0.017644 0.033471 0.106683 -0.337313 0.151455 -0.007562 -0.101356 0.039939 -0.158690 -0.249637 -0.137614 -0.225747 0.037448 0.077209 -0.103338 0.163950 -0.045636 0.058176 -0.164705 0.315081 -0.114449 -0.087165 -0.023344 -0.202593 0.236007 -0.208150 -0.140417 0.062453 -0.222436 -0.146578 -0.027285 0.118666 -0.243595 0.085909 -0.018497 0.256414 0.008099 -0.050612 0.117529 -0.004254 -0.203962 -0.037831 0.076487 0.096533 -0.288714 -0.013221 0.144538 -0.250651 0.056569 -0.090327 0.102345 -0.138066 0.099557 0.172117 -0.109975 0.022796 0.220899 -0.323000 0.019173 0.170945 -0.119834 -0.078010 0.135063 -0.015812 -0.213913 0.014923 -0.206718 -0.242171 0.012515 0.103886 -0.264373 -0.201089 0.348826 -0.092232 -0.115584 -0.415515 0.094594 0.051361 0.038690 -0.113770 -0.132964 0.061364 -0.070571 0.157325 0.086403 -0.167634 0.022361 -0.053660 0.047189 0.074072 -0.101246 -0.075640 0.151986 -0.253009 0.274411 0.303028 0.082934 -0.105126 0.025399 -0.146744 -0.113589 0.044169 -0.098870 0.184381 0.109513 0.195276 -0.073276 0.115323 0.167829 -0.187733 0.218887 -0.231577 -0.091094 -0.033886 -0.310268 -0.021854 -0.213203 0.170421 -0.127889 0.157960 0.092627 0.214976 0.221504 -0.114745 0.322671 -0.196984 -0.121528 -0.199827 0.295132 -0.266737 -0.147907 0.229584 0.168765 0.173961 -0.138060 0.160914 -0.000245 -0.038473 -0.149911 0.098818 0.227672 0.166737 0.022624 0.187735 0.058950 -0.042067 0.457375 0.168221 0.097639 -0.346340 0.026608 -0.167310 -0.145903 0.083284 -0.321339 -0.105267 0.134387 0.094482 -0.071746 0.059462 -0.276726 0.205122 0.113544 0.032295 0.300743 0.323470 -0.090805 0.150059 -0.281922 -0.146567 -0.020112 0.154937 -0.136942 -0.039409 -0.052737 0.190505 -0.028659 -0.376555 0.080144 0.043060 -0.291743 -0.073141 -0.341709 0.149282 0.143832 0.115582 -0.087056 -0.029373 0.154943 0.052073 0.084109 0.190455 0.351786 -0.019194 -0.146437 -0.006719 0.117022 -0.090435 -0.059300 0.018887 -0.019054 0.410189 -0.551196 0.360075 0.256109 0.115159 -0.169547 0.171300 -0.117048 0.232123 0.259735 -0.160979 -0.047385 0.141145 -0.015504 -0.026870 -0.072922 0.134236 0.365016 0.186895 -0.322916 0.023099 0.035740 -0.367113 0.090140 0.207530 0.135436 -0.046632 0.178915 -0.082888 -0.118309 0.099665 0.294955 0.338485 -0.174271 0.035164 -0.085381 -0.127133 -0.075008 0.066191 0.090190 -0.387988 -0.219305 0.086083 -0.124784 0.119894 0.309009 0.186314 -0.092411 -0.174680 0.577372 -0.203026 0.400921 -0.077590 -0.087084 -0.202457 0.511384 0.050910 -0.172940 -0.447881 -0.441591 0.156964 -0.057176 0.012413 0.015270 0.355540 -0.025194 0.390045 0.088752 -0.172906 0.083483 0.028160 0.051034 -0.057581 -0.128855 0.030946 0.106942 -0.278662 0.164953 -0.161722 -0.103699 
es -0.036762 0.006390 0.152614 0.056913 -0.155197 -0.088010 0.039221 -0.050041 0.017896 0.110603 0.077136 0.101276 0.038801 0.051453 0.185822 0.004082 0.074587 0.125758 -0.039128 -0.083489 -0.102897 0.093181 0.024363 0.112119 -0.020075 -0.178103 0.265035 -0.168989 -0.072785 0.055191 -0.266865 -0.003979 -0.005459 0.083634 -0.082932 -0.050538 0.228529 -0.143804 0.064403 0.055789 -0.036818 -0.110113 -0.038668 0.153965 0.147461 -0.077306 -0.425676 -0.159345 -0.162022 -0.002390 -0.008096 -0.050097 0.084730 0.149693 0.264102 0.027080 -0.027095 0.025627 -0.000961 -0.140753 0.109475 0.069352 0.088922 -0.055817 -0.233866 0.070580 -0.052856 -0.174975 -0.184852 -0.018477 0.049582 0.008566 0.009382 0.135711 0.206189 0.420392 -0.260006 0.030926 0.003474 0.005369 -0.061088 0.084365 0.097010 -0.053813 -0.027287 -0.086540 -0.204466 -0.046499 0.066189 0.001755 -0.050041 0.269826 -0.015130 -0.137817 0.055022 0.151313 0.036781 0.042737 -0.036456 0.133895 0.257942 0.241052 0.255489 0.108519 0.121515 0.139581 -0.190723 0.101021 -0.157506 -0.028217 -0.016816 0.148926 -0.023740 0.036692 0.048961 0.083606 0.101495 0.006670 0.053393 -0.090428 -0.189481 -0.236212 0.156674 0.088039 0.229675 0.168922 -0.130121 -0.063025 -0.039192 0.055103 0.216155 -0.109668 -0.051917 0.157979 -0.102186 -0.006173 -0.161204 -0.185539 0.205739 0.045989 0.136316 -0.007078 -0.274906 -0.010459 -0.143706 -0.310094 -0.257260 0.091259 -0.168279 -0.212647 0.157992 0.048625 0.055445 0.041481 0.087572 0.031963 0.287158 -0.106388 -0.160227 0.035662 0.040608 -0.090477 0.062558 -0.116273 -0.208368 0.262954 -0.135237 0.060258 -0.300340 0.092688 0.184963 -0.098831 -0.367501 -0.193389 -0.058247 0.236665 -0.035621 -0.157320 0.127042 -0.226886 0.090751 -0.248948 0.013874 -0.231770 0.106447 -0.160502 0.021978 -0.174316 0.301323 -0.135707 0.008109 -0.119551 -0.018498 0.105144 0.073578 0.302884 -0.143174 -0.024502 -0.046908 0.171485 0.210609 -0.013096 -0.014695 0.033154 -0.079885 -0.098826 -0.146990 -0.086408 -0.100096 0.000019 0.092048 0.218080 -0.174342 0.016589 0.113179 -0.116096 0.052919 -0.123532 0.091920 -0.329145 0.161467 -0.169504 0.247004 0.167307 0.038825 0.003325 0.118038 -0.354432 0.097036 -0.066449 -0.191348 0.075746 -0.261372 0.205000 -0.377924 -0.044184 0.100809 0.202628 0.177143 -0.040947 -0.010831 -0.134485 -0.186194 -0.023651 -0.022795 0.204393 -0.020961 0.203206 -0.044813 -0.173916 -0.027313 -0.011180 -0.055319 -0.114412 0.182448 0.080305 0.176006 0.120045 -0.082578 0.192659 -0.420760 0.148388 -0.018358 0.327762 -0.060479 -0.057203 0.135049 -0.026094 0.118526 0.102299 -0.312989 0.115208 0.079009 0.049185 -0.102764 0.167088 -0.026908 -0.338235 -0.408008 -0.179328 -0.019079 0.271378 -0.247792 0.053833 0.007367 0.080137 -0.034690 0.285753 -0.182012 0.158086 -0.087653 -0.162297 -0.035605 0.200396 0.099854 0.136253 0.022454 -0.001485 -0.076678 -0.021554 
eine -0.004905 0.103319 0.160233 -0.131101 -0.158176 -0.172051 -0.089592 0.039115 0.018270 0.260911 0.022877 0.112232 0.064294 -0.002510 0.197183 -0.009391 0.085356 0.137767 -0.154388 -0.012623 -0.042726 0.057792 -0.019244 0.046671 0.007507 0.002368 0.022673 -0.178488 -0.236369 0.030004 -0.390237 -0.025755 0.062835 0.101874 -0.124812 -0.157585 0.181444 -0.108055 0.026339 0.044324 -0.017105 -0.125696 -0.034838 0.120975 0.127789 0.046205 -0.153438 -0.098235 -0.125852 -0.165960 -0.047631 -0.034043 -0.062706 -0.102706 0.236522 -0.151881 -0.033505 -0.092219 0.044479 -0.049545 -0.012925 0.172182 0.171974 -0.234110 -0.165080 -0.052890 -0.042380 -0.136936 -0.089690 -0.326947 0.096920 0.027122 0.030269 0.035909 0.105699 0.380506 -0.367512 0.011965 -0.004917 0.244263 -0.199287 0.153085 0.162636 -0.216672 -0.060467 -0.072513 -0.173300 0.069513 0.020115 0.067476 -0.112707 0.212665 0.011062 -0.093547 -0.158062 0.097945 0.173761 0.032759 0.176015 0.022715 0.107163 0.408943 -0.087663 0.097872 0.155902 0.000882 -0.038131 -0.119130 -0.266567 0.144708 -0.097888 0.198883 0.073216 0.171833 0.044148 0.203857 -0.083575 0.053726 0.046277 0.034146 -0.133692 -0.077234 0.020157 0.232938 0.266157 0.108787 -0.005564 -0.122235 -0.392059 0.046065 -0.116161 0.027830 0.017079 0.014514 -0.146781 -0.141978 -0.064773 -0.251457 0.066328 0.019139 0.156103 0.061449 -0.282808 0.114616 -0.058785 -0.035725 -0.324078 0.026797 -0.139353 -0.034510 0.077190 -0.045127 0.352459 0.055340 0.012107 -0.133031 0.136978 -0.022075 -0.208851 -0.157874 -0.081043 -0.193927 -0.189857 -0.112054 -0.148249 0.126980 -0.266713 0.104189 -0.038594 -0.056305 0.277971 -0.234832 -0.094844 -0.173556 -0.157175 0.169809 -0.009438 0.218688 0.075166 -0.099531 0.170737 -0.062005 -0.066043 -0.023443 0.131805 0.026172 0.115232 -0.297534 0.188633 -0.011314 0.086950 -0.128446 -0.002046 -0.027080 0.041591 0.220193 -0.100084 0.193751 -0.426243 0.107680 0.124642 -0.164410 -0.065249 -0.051688 -0.120256 -0.212476 -0.266877 0.000729 -0.174681 0.056024 0.059644 0.251776 -0.101592 -0.009651 0.127172 -0.020927 0.288668 -0.144657 0.044463 -0.361156 0.194858 -0.154041 0.129276 0.169288 -0.006072 0.142599 0.114343 -0.304929 0.191541 -0.030782 -0.081079 0.036865 -0.173473 0.012454 -0.146717 -0.157352 0.040826 0.361385 0.157217 -0.160622 -0.268706 -0.067226 -0.400085 0.118189 -0.196186 0.086767 -0.026885 -0.054832 0.068431 0.126978 -0.026398 0.005603 -0.003481 -0.001775 0.144604 -0.248998 0.104941 0.181906 -0.033494 0.251398 -0.260151 0.145788 0.106120 -0.194846 0.143204 0.043039 -0.148766 -0.149565 0.287355 -0.042599 -0.201240 0.178715 -0.055694 0.160211 -0.000498 0.343207 0.013735 -0.148357 -0.431892 -0.198071 -0.005539 0.250381 -0.047474 -0.042892 0.192814 0.000359 0.354034 -0.006689 -0.275745 0.231354 0.094764 -0.220506 0.046646 0.145379 0.052287 0.082479 -0.137998 0.215362 0.116692 0.158181 
auch -0.016233 0.097898 0.137422 -0.028758 -0.185826 -0.113841 -0.054875 0.186129 -0.074392 0.112789 0.049509 -0.011291 0.068295 0.061652 0.107257 0.050171 0.099555 -0.002115 -0.087706 -0.093043 -0.027589 0.077245 0.068032 -0.005373 -0.027619 0.065574 0.086353 -0.129872 -0.030919 -0.063381 -0.317212 -0.008673 0.000948 0.002445 0.053771 0.012979 0.137255 -0.344283 0.085704 0.043474 0.116629 -0.144745 -0.018512 0.206996 0.153191 -0.045753 -0.280943 -0.070009 -0.183467 -0.074724 -0.002367 -0.201778 0.079017 0.104228 0.182963 -0.028670 0.037640 -0.004833 0.060798 -0.058810 -0.043044 0.065083 0.120404 -0.217612 -0.130596 0.162158 -0.024617 -0.177537 -0.025433 -0.137015 -0.012694 -0.062137 0.082459 -0.029763 0.259229 0.518251 -0.195177 0.112033 -0.104657 0.071582 -0.072116 -0.033635 0.261086 -0.022979 -0.087680 -0.091766 -0.130748 0.104230 -0.049141 0.018277 -0.039231 0.138673 0.009740 -0.104495 -0.071673 0.155298 0.066331 0.039194 0.092145 -0.019446 0.206393 0.212177 0.127043 -0.013642 0.096429 0.065014 -0.124332 -0.061436 -0.054966 -0.117873 0.105988 0.151485 -0.084322 0.013618 0.131344 -0.061833 0.014457 -0.037185 0.173118 -0.038535 -0.018101 -0.040891 0.082100 0.066755 0.193883 0.015710 0.022165 0.133260 -0.101676 0.093900 0.022103 -0.110904 0.096291 0.095377 -0.095414 -0.103764 0.006843 -0.260221 0.064380 -0.054408 0.236818 0.049474 -0.176633 0.119804 -0.096263 -0.020453 -0.242896 0.046212 -0.217366 -0.205802 0.111361 -0.057561 0.271982 0.070704 0.152891 0.016679 0.172213 -0.007433 -0.178170 0.008341 -0.117829 -0.121709 -0.033829 -0.023940 -0.260532 0.158517 -0.129356 0.182550 -0.253023 0.033771 0.122296 -0.050457 -0.132859 -0.202525 -0.206185 0.256917 -0.029554 -0.057225 0.120838 -0.179398 0.065832 -0.093582 0.014666 -0.088280 0.110935 -0.199971 0.092220 -0.110163 0.251831 -0.101432 0.046708 0.001073 -0.003110 0.082049 -0.031427 0.073513 -0.176821 0.000467 -0.164774 0.070094 0.082730 -0.109521 0.072629 0.127229 0.007269 -0.116059 -0.163251 -0.027306 -0.260047 -0.015059 0.109262 0.271894 -0.220913 0.026127 0.190258 -0.217771 0.030089 -0.012515 0.007094 -0.242709 0.130334 -0.179469 0.252662 0.053062 0.079119 -0.052927 0.004236 -0.239078 0.161493 -0.088824 -0.064394 0.109924 -0.076708 -0.000296 -0.108212 -0.096876 -0.252337 0.180419 0.154742 -0.127137 -0.056555 -0.017337 -0.284154 0.045865 -0.086152 0.050187 -0.082323 0.130395 0.014256 -0.167403 0.091917 0.090441 0.030485 -0.135666 0.068132 -0.004499 0.209447 0.137765 -0.130123 0.295265 -0.444429 0.012718 0.171514 0.063493 0.013146 0.018338 0.071943 -0.000393 0.226722 0.044362 -0.288403 0.262747 0.042118 0.167470 0.048210 0.043332 -0.000945 -0.097577 -0.288797 -0.000788 -0.025275 0.346659 0.006811 0.143762 0.063541 0.115446 0.083053 0.021276 -0.218996 0.044054 -0.131930 -0.154031 -0.045183 0.143761 -0.000249 0.056750 -0.026042 0.129529 0.012732 -0.069818 
an -0.010931 0.134693 0.139816 0.093937 -0.184883 -0.152409 0.032255 0.150281 -0.004351 0.181705 0.170710 0.112142 0.031673 0.091552 -0.097718 0.013014 -0.098349 -0.011814 0.010532 -0.001856 -0.069372 0.152035 0.077323 0.196002 -0.047555 0.032340 0.114479 -0.155533 -0.071516 -0.061955 -0.350771 0.001416 0.004345 -0.039774 0.021723 0.118355 0.048936 -0.058291 0.126513 -0.049690 -0.028939 -0.065404 -0.116356 0.052701 0.096790 -0.031636 -0.434725 -0.167783 -0.102086 -0.085094 -0.117771 -0.233867 -0.019629 0.330710 0.155488 -0.051774 0.164634 0.163890 0.047544 -0.079148 -0.053056 0.086692 0.147556 -0.191316 -0.123223 0.032516 -0.053202 -0.186962 -0.061351 -0.199008 -0.135373 0.020511 0.034802 0.103134 0.093948 0.506217 -0.133122 0.136018 0.030830 0.021489 -0.072876 0.046317 0.132972 -0.085460 -0.090324 -0.128608 0.014430 0.142201 0.112329 -0.056172 -0.196840 0.019507 0.042611 -0.210312 -0.009394 0.091109 0.187698 -0.048867 0.035762 -0.032628 0.365412 0.135111 0.004446 0.045842 -0.062448 0.159601 0.033482 0.082771 -0.120876 -0.197252 0.047802 0.200556 0.034573 0.134974 0.354420 0.019049 0.273852 -0.006440 0.055908 -0.068009 -0.021643 -0.319702 0.066321 0.132014 0.242848 0.028186 0.053600 0.009420 -0.017474 0.108487 -0.031998 0.023693 -0.067600 -0.012394 -0.131296 -0.133902 -0.011030 -0.352620 0.104362 -0.027485 0.195659 0.126337 0.064950 0.136203 -0.032696 -0.139254 -0.202360 0.073718 -0.171406 -0.177700 -0.069793 -0.000714 0.288649 0.246156 0.279940 0.033602 0.146884 0.085730 -0.220071 -0.087836 0.080819 -0.059732 0.119626 -0.059756 -0.179364 0.297435 -0.034410 0.035629 -0.166706 -0.019536 -0.012022 -0.071434 0.103537 -0.214543 -0.274286 0.068934 0.050946 0.060045 0.120218 -0.370632 0.217627 -0.112931 0.033795 -0.147749 0.225971 -0.171185 0.186915 -0.060566 0.078203 0.110756 0.024717 0.085745 0.007492 0.131813 0.152649 0.214738 -0.255640 0.130021 -0.215538 -0.011987 0.014501 -0.163786 -0.046503 0.133083 -0.177664 -0.004647 -0.290125 -0.077927 -0.160177 -0.058743 0.140843 0.189155 -0.094365 -0.228638 0.183763 0.031036 0.119544 0.091874 -0.088884 -0.214045 0.156901 -0.252749 0.203610 -0.131910 0.056949 0.015019 -0.153216 -0.229806 0.163181 -0.092408 -0.119196 -0.017185 0.001650 0.049051 -0.098177 -0.293009 -0.021638 0.272661 0.023665 -0.221345 -0.033310 -0.055020 -0.301369 0.068129 0.060616 -0.074919 -0.030310 0.023219 0.243362 0.189596 -0.063501 0.014621 0.273674 0.022495 0.077751 -0.112495 0.330231 0.284687 -0.167002 0.184181 -0.073375 0.170605 0.292807 0.220751 -0.182629 -0.041186 -0.147969 -0.039362 0.078096 0.104384 -0.094400 0.112002 -0.072079 0.155508 -0.091699 0.199226 0.037159 -0.088995 -0.343283 -0.032400 -0.075206 0.179532 -0.056994 0.308694 0.279043 -0.068372 0.096650 -0.124768 -0.160179 -0.075841 -0.164586 -0.088697 -0.077347 -0.007975 -0.178595 0.169154 -0.003010 0.114518 0.032495 -0.011591 
am 0.053782 0.059382 0.172020 0.212118 -0.052790 -0.188704 0.103934 0.144853 0.172330 0.045187 -0.005035 -0.056186 0.135216 0.109612 -0.123914 0.089465 -0.009417 -0.034716 -0.126708 -0.214434 -0.141648 0.154703 -0.038381 0.117919 -0.005275 -0.026828 0.028536 0.077852 -0.092334 -0.129890 -0.252685 -0.135927 0.088149 0.083339 0.081721 0.048785 -0.013382 -0.013205 0.030246 0.169243 -0.191311 0.082314 -0.134608 0.057800 0.015270 0.012940 -0.230497 -0.058008 -0.164532 0.052780 -0.005807 0.027760 -0.065602 0.002431 0.109630 -0.053369 -0.047141 0.243991 -0.228944 0.124069 0.028034 0.085290 0.141371 -0.048494 -0.083226 0.080844 -0.104578 -0.288958 -0.014594 -0.072350 -0.189211 0.273219 0.105514 -0.033072 0.188052 0.339576 -0.316781 0.234701 0.172915 -0.026635 -0.035819 0.123192 0.018408 -0.146507 -0.149287 -0.231886 0.036963 -0.060614 0.014431 -0.098481 -0.277142 0.063071 0.169029 -0.076667 -0.081918 0.088658 0.081171 0.063536 -0.237713 0.113124 0.260579 0.341997 -0.012056 0.262751 -0.032743 0.238069 -0.281716 0.071439 0.063353 -0.087704 0.059207 0.146345 0.027486 0.189615 0.122341 0.154399 0.188136 0.140277 0.122539 -0.053085 0.135810 -0.084362 -0.268432 0.147412 0.015567 0.014513 0.022795 0.089696 -0.118975 -0.048252 -0.051508 -0.176398 -0.055311 0.114176 0.045071 -0.107196 0.024634 -0.307504 -0.201495 -0.006171 0.165726 0.046243 -0.118616 0.051476 0.022422 -0.184367 -0.254086 0.079847 -0.080134 0.008080 -0.188181 0.014385 0.169432 0.212832 0.326286 -0.132950 0.203388 -0.310962 -0.199190 0.032104 -0.074872 -0.115409 -0.103340 -0.009029 -0.148275 0.137289 -0.050667 0.244977 -0.211832 -0.087937 0.165625 -0.079759 0.133932 -0.011403 -0.095758 0.064898 -0.110319 -0.227316 -0.155260 -0.239640 -0.096814 0.030370 0.143865 -0.009344 0.227904 -0.156516 -0.057667 -0.140422 0.070024 0.164504 -0.038041 0.034619 -0.030039 -0.015502 0.072704 0.127015 -0.018458 -0.003734 -0.121646 0.111288 0.034989 -0.005227 0.128034 0.131842 0.097980 -0.160039 0.017022 -0.045451 -0.100200 -0.203523 0.269500 0.146943 -0.219750 0.039336 0.089229 0.035742 0.036221 -0.136071 -0.005252 -0.118408 0.273312 -0.246848 -0.038229 -0.169578 0.254545 0.151913 -0.130269 -0.228006 -0.048306 0.170990 -0.210817 -0.048120 0.322759 -0.032623 -0.115678 -0.299799 -0.043764 0.331005 0.058364 -0.166315 -0.013207 -0.133659 -0.401477 0.112352 0.026227 0.047049 -0.058149 -0.069267 0.254156 0.025315 -0.034490 -0.024351 0.248699 0.026801 0.105462 -0.047013 0.089315 0.191689 0.019321 0.568830 -0.493655 -0.273117 0.102205 0.134170 -0.144651 0.183107 0.236147 -0.041916 0.065925 0.218868 -0.102066 0.345548 0.120866 0.132420 -0.187042 0.154858 -0.069966 0.071064 -0.287229 -0.142986 -0.292700 0.093904 -0.082030 0.194916 0.019847 -0.002947 -0.041067 -0.095753 0.033360 0.244699 0.008726 0.189361 -0.299420 -0.174851 -0.037220 -0.242119 -0.057478 0.076350 -0.047770 0.110343 
als 0.005373 0.080727 0.119646 -0.028619 -0.160218 -0.064793 0.048263 0.004296 -0.112693 0.157520 0.125464 0.016319 0.054436 0.094974 0.102541 0.076581 0.027925 -0.078427 -0.067325 -0.066810 -0.108266 0.260464 -0.068651 -0.018249 -0.163831 0.072100 0.030584 -0.247426 -0.087141 -0.154775 -0.233710 0.133444 -0.105785 0.012374 0.058088 -0.020751 0.201096 -0.199529 0.117179 0.049401 0.076142 -0.261507 -0.011646 0.053834 0.144798 -0.081747 -0.301511 -0.045253 -0.057216 -0.113139 -0.065132 -0.078361 -0.083923 -0.007560 0.092354 0.023118 0.048527 -0.017358 0.034433 -0.074279 0.006034 0.087479 0.084042 -0.381749 -0.273901 0.047077 0.008351 -0.153171 -0.125908 -0.116800 -0.116238 0.090826 -0.006714 -0.081436 0.119177 0.446977 -0.147643 -0.045644 -0.049002 0.019185 0.012928 -0.122715 0.195174 -0.141316 -0.091839 -0.031598 -0.233133 0.037055 0.095773 -0.121439 0.084542 0.304102 -0.014926 -0.125967 -0.179566 0.115861 0.228267 -0.005968 0.231891 0.019125 0.169399 0.229807 0.115303 0.140953 0.206182 0.177675 -0.039212 -0.075294 -0.093839 -0.167405 0.111891 0.225718 -0.148830 0.015755 0.247892 0.156163 0.218980 0.032652 0.115037 -0.050273 -0.041442 -0.063244 0.066774 0.143248 0.061897 -0.126620 0.010880 -0.031027 -0.081996 0.236507 0.200695 -0.056062 0.099669 0.182115 -0.064756 -0.152291 0.049339 -0.257955 0.152561 0.032523 0.338042 0.075674 -0.023134 -0.043315 0.173252 -0.197632 -0.239683 0.080382 -0.243091 -0.183091 0.189516 -0.182383 0.170930 0.046280 0.093017 0.037806 0.045824 -0.182473 -0.066264 0.215606 -0.060783 0.047405 -0.045098 0.110115 -0.074995 0.048763 -0.171599 0.115405 -0.215392 0.164901 -0.004166 -0.116565 -0.036529 -0.088087 -0.274130 0.014478 0.233431 -0.048684 0.002493 -0.151830 0.053716 -0.008955 0.043582 -0.048506 -0.103881 -0.097609 0.060145 -0.046315 0.235081 -0.145065 0.121994 -0.052098 0.011797 0.134171 0.241417 0.152220 0.031784 0.088688 -0.205529 -0.064774 0.016035 0.034565 0.182935 -0.165780 -0.046819 -0.143566 -0.151728 0.036940 -0.098218 -0.026126 -0.018950 0.184830 0.114424 0.047996 0.108208 -0.085953 0.084623 -0.016618 0.007931 -0.250032 0.243765 -0.303885 0.213911 0.082293 0.038709 0.069093 0.193385 -0.245373 0.060472 0.072098 -0.105486 0.202910 -0.045592 -0.119471 -0.195760 -0.252885 -0.074978 0.100139 0.176752 -0.123420 -0.135528 -0.071060 -0.336024 -0.011249 -0.172301 0.078934 -0.090091 0.043584 0.097221 -0.085281 -0.174670 0.067622 -0.004860 0.019018 0.132613 -0.168944 0.144988 0.033604 -0.001067 0.308976 -0.352193 -0.165641 0.166308 0.024605 0.154458 0.177702 0.000117 -0.036444 0.221080 0.168238 -0.288648 0.409191 -0.227336 0.067198 -0.008694 0.257895 -0.005950 -0.152181 -0.309262 0.005812 0.082481 0.097982 0.084949 0.079272 -0.016119 0.042599 0.293642 0.106721 -0.206994 -0.009293 -0.189875 -0.243032 -0.017649 0.054762 -0.159479 0.071590 0.074995 0.223745 -0.029618 0.109083 
aus -0.137339 -0.086392 0.081720 -0.057512 -0.086865 -0.105447 0.022836 0.007662 0.269497 0.340911 0.068387 -0.066888 0.144853 0.051542 0.046368 0.053511 -0.022164 0.200958 -0.133836 -0.231195 0.055168 0.162272 -0.030624 0.058700 -0.171558 -0.026694 -0.012485 -0.173916 -0.012734 -0.095817 -0.341223 -0.004307 -0.116505 0.156283 0.064148 0.199302 0.107459 -0.143042 0.277301 -0.014018 0.033988 -0.091657 -0.034847 0.021398 0.060465 -0.111216 -0.155792 -0.087375 -0.069187 -0.076535 0.186417 -0.151885 -0.040443 -0.099075 0.270157 0.038624 -0.006424 -0.013616 0.117459 -0.048844 -0.066619 0.148588 0.218585 -0.283582 -0.188962 0.165476 0.135658 -0.087212 -0.118453 -0.074639 -0.198867 0.065561 0.172575 0.066611 0.093900 0.369698 -0.023478 0.066545 0.066407 0.064759 -0.029898 0.028637 0.104598 -0.070124 -0.133032 -0.117267 -0.085900 0.237856 0.049858 0.018989 -0.176619 0.291165 0.177431 -0.157459 -0.112197 -0.075276 -0.076447 -0.017329 -0.042923 0.141591 0.142337 0.089693 0.054130 -0.031163 0.156379 0.006546 -0.008001 0.050510 -0.105131 -0.216672 0.177081 0.112887 -0.119461 0.114047 0.322383 -0.012596 -0.007195 0.120124 0.036920 0.037591 0.058342 -0.095065 -0.027499 0.035652 0.234073 0.068956 -0.150609 0.055139 -0.093712 0.191845 0.285362 -0.084317 0.010522 0.212723 -0.195476 -0.126039 -0.124432 -0.181035 0.006136 0.143414 0.212503 0.164470 -0.117627 0.110832 0.021238 -0.148858 -0.240223 0.016092 0.086528 -0.294678 -0.029991 0.054574 0.328417 0.025810 0.221776 -0.096911 0.157776 0.052901 -0.177708 0.056741 0.004120 -0.063772 -0.021819 -0.036676 -0.045206 0.263136 -0.042199 0.078522 -0.105353 0.081000 0.223841 -0.074533 -0.222741 -0.034647 -0.200701 -0.054262 0.084918 -0.072298 0.000704 -0.019144 0.210195 0.037434 -0.002129 0.009146 0.295708 -0.321721 0.053448 -0.076868 -0.048412 0.092169 -0.119574 -0.089616 0.074305 0.145384 0.004922 0.212212 -0.044575 -0.090021 -0.134563 -0.086701 -0.070177 -0.134555 0.214422 0.082960 -0.015427 -0.340168 0.019541 0.155334 -0.074919 0.023598 0.105065 0.039432 -0.027729 -0.157756 0.054721 0.095855 0.024732 0.031321 -0.031848 -0.300248 0.063887 -0.145408 0.434138 0.034928 -0.089013 -0.033038 0.058726 -0.426808 0.095437 -0.072009 0.076955 0.155295 0.093706 -0.018240 -0.176777 -0.176068 0.043168 0.058591 0.222215 -0.077442 0.070594 0.076420 -0.183181 0.005761 -0.062113 0.148031 -0.044476 0.134454 0.137871 0.033029 0.052048 -0.081195 0.148400 -0.035945 0.086444 -0.010284 0.248602 0.064042 -0.055743 0.222552 -0.187456 0.048651 0.105146 -0.006274 0.020218 0.118604 0.011580 -0.078020 0.238517 0.128572 -0.271614 0.088460 -0.063273 0.198085 -0.158125 -0.014851 0.068512 0.080132 -0.255748 -0.201663 -0.029808 0.284352 -0.029958 0.166753 -0.036953 0.110408 0.187048 0.083527 -0.237749 0.088106 0.035668 -0.169179 -0.006984 0.265497 0.009383 0.151046 -0.243339 0.023957 -0.187360 0.116172 
dass -0.083625 0.055530 0.162991 -0.105754 -0.213099 -0.083174 -0.100724 0.063541 -0.153386 0.262480 0.084398 0.114254 0.076748 0.041755 0.102286 0.001054 -0.064364 0.125362 -0.003654 0.036443 0.117775 0.178955 0.165040 0.066547 -0.134338 0.123443 0.001114 -0.067386 -0.207024 -0.059768 -0.350206 0.086356 0.099986 0.250550 0.144414 -0.048295 0.311369 -0.079208 0.167468 -0.077043 0.087210 -0.189448 0.008240 0.192259 0.213046 -0.063670 -0.074409 -0.163824 -0.069612 -0.072474 0.024343 -0.153778 0.050694 0.142050 0.303790 0.063878 0.133182 0.039509 -0.008069 -0.029497 0.147756 0.183509 0.187486 -0.195152 -0.115688 0.002047 -0.142709 -0.396669 0.007760 -0.287731 -0.016869 -0.003212 0.062594 0.050299 0.065279 0.551815 -0.230837 0.146792 -0.095652 0.137620 -0.215679 -0.075964 0.344527 -0.158853 -0.237231 -0.094077 -0.112953 0.046047 -0.074014 0.017878 -0.043949 0.181952 0.027295 -0.018447 0.023477 0.131150 0.084426 -0.137323 0.149080 0.100354 0.207518 0.371696 0.021040 0.067194 0.132087 0.070222 -0.119453 0.088227 -0.220479 -0.247661 0.030669 0.206204 -0.075303 0.127089 0.161046 -0.021602 -0.034227 -0.070712 0.108503 -0.162931 -0.051907 -0.193038 0.089346 0.023169 0.150927 0.047024 -0.207791 -0.020580 -0.179636 0.139126 0.078911 0.086840 -0.011203 0.244014 -0.186899 -0.175842 -0.078563 -0.327385 0.021749 -0.025777 0.255421 -0.034752 -0.146211 -0.015102 0.023528 -0.328194 -0.223646 -0.070861 -0.305375 -0.238284 0.053243 -0.072674 0.229146 0.076126 0.140339 -0.053907 0.249620 -0.063303 -0.090592 0.071379 0.005879 -0.174461 -0.154179 -0.080208 -0.160802 0.161183 -0.162941 0.100593 -0.241419 0.055106 -0.027375 -0.230338 0.011302 -0.337066 -0.038080 0.169533 -0.059992 0.051433 0.055423 -0.285649 -0.011961 -0.215645 0.018737 0.002054 0.128758 -0.158958 0.302701 -0.178725 0.159492 -0.255248 0.110215 -0.193548 -0.138234 0.037265 0.045240 0.010122 -0.179607 -0.035973 0.007105 0.204825 0.060027 -0.065037 0.194368 -0.024761 -0.069716 -0.234602 -0.229648 -0.133470 -0.093949 -0.123635 0.069387 0.136170 -0.131178 0.066492 0.228015 -0.247718 0.054284 -0.114111 -0.076683 -0.198420 0.095906 -0.111816 0.408270 0.162414 0.197930 0.148544 0.041319 -0.292695 0.319336 -0.214520 -0.166999 0.004975 0.122612 -0.068120 -0.030170 -0.242372 -0.032927 0.254060 0.064859 -0.192196 0.080470 -0.016874 -0.322502 0.075613 -0.148165 0.038627 -0.135108 0.120690 -0.145631 -0.167877 0.138946 0.243738 -0.001064 -0.077285 -0.053642 -0.121582 0.080601 0.113713 -0.130570 0.317268 -0.455779 0.078865 0.315691 0.168098 -0.039598 -0.015612 0.028776 0.197420 0.272666 -0.087072 -0.320744 0.189459 -0.056612 0.130274 0.058603 0.061121 0.026951 -0.183487 -0.511458 -0.133870 -0.119109 0.333194 0.029843 0.191419 -0.117399 0.178862 0.226643 0.016688 0.055437 0.284501 -0.235991 -0.179177 -0.085665 0.133122 -0.062463 0.244603 -0.147809 0.141820 -0.028898 -0.218372 
