500 300
</s> 0.0801407 0.0884912 -0.0767164 -0.0656625 0.0273944 0.060496 0.0188637 0.00420528 -0.0721507 0.0443958 -0.0872296 0.0250515 -0.0150189 -0.0191641 -0.0663834 -0.0376673 0.0516649 0.0605561 0.0594747 0.0319602 0.0309389 -0.0761757 -0.082003 0.0995451 0.0761156 0.0618777 -0.0120752 0.0804411 -0.00991245 0.0147185 -0.00300377 -0.059715 0.026253 -0.0267937 -0.0765962 0.0952196 0.0877102 -0.0219276 -0.00450566 0.0102128 -0.0728716 -0.0802608 0.0911946 0.00126159 -0.051725 -0.0609165 -0.0615774 0.0340027 0.00402506 0.0266735 -0.0844061 -0.0762358 -0.00258325 0.0228888 0.0510642 -0.0634998 0.0817027 0.0185633 0.0224082 -0.0121953 0.0597751 -0.0458376 -0.0419928 0.0431943 -0.0150789 0.020666 0.0361654 -0.0818829 -0.0397099 0.0583333 0.0847665 0.078759 -0.0610367 -0.0422331 -0.0182029 0.0400703 -0.0758753 0.0600154 0.0558101 -0.0320202 -0.031059 -0.0448163 0.0847064 0.0783384 -0.0236097 0.0844061 0.0965413 0.0363457 0.0997854 -0.0622983 -0.0306986 -0.042173 -0.0582131 0.0563508 0.0315997 0.00853072 -0.0439152 0.0305183 0.061277 0.00390491 0.0456574 -0.0991846 0.0863885 0.00961208 -0.036646 -0.0416924 -0.0149588 -0.0587538 -0.08753 -0.0568314 0.0856676 -0.0354445 -0.0536474 0.0463783 -0.0341229 0.0952797 -0.0321404 -0.0919155 0.0543683 -0.00150189 -0.0698678 0.0195245 0.0288963 -0.00961208 0.0365259 -0.0792396 0.0176622 0.0364057 -0.0602557 0.00282355 -0.00120151 -0.0480604 -0.0567113 -0.0940181 0.000480604 0.00306385 0.000180226 -0.078759 -0.0993648 -0.0950394 -0.0866288 -0.0109337 0.027875 0.0237298 -0.0637401 0.100086 -0.0402506 -0.0255321 -0.0281153 0.0947991 -0.0753947 0.0232492 -0.0267336 0.0638602 0.000841057 0.0854874 -0.056471 -0.0521455 -0.0839254 -0.0734122 -0.0640405 -0.0623583 0.0489615 -0.0373669 0.0536474 0.0738928 0.0271541 0.0591143 0.0495623 0.0468589 -0.0711294 -0.0687264 -0.073232 -0.00264332 0.0827239 -0.0547888 -0.061277 -0.0840456 0.0662032 -0.0836851 -0.0115946 0.0436148 -0.0924562 -0.0896927 0.0288963 0.0705887 0.0853673 0.042954 0.0633196 -0.0626587 -0.0728716 0.0796 -0.0553896 0.0350841 0.0114744 0.0358651 -0.0236697 0.00396498 -0.0337624 -0.0225884 -0.0887916 -0.065302 0.0698077 0.0201253 -0.0473395 -0.0319001 0.0499828 -0.0707689 -0.0463182 0.0947991 0.0850669 -0.0792996 0.0174219 -0.0450566 0.00306385 0.0601956 0.0970219 0.03977 0.0823635 0.0630192 -0.00462581 0.0896326 0.0507638 0.0949193 -0.0341229 0.0950394 0.0866889 -0.0285959 -0.0884912 0.0967816 0.0179626 -0.0416323 -0.014358 -0.0147185 -0.0771369 -0.028656 -0.00889117 -0.0986439 -0.0704085 -0.0240903 -0.0188637 0.0358651 0.0163405 -0.0123155 0.0589941 0.0289564 0.0109938 0.072451 -0.0225283 -0.0285959 -0.00829042 -0.0546086 -0.0600755 0.00402506 0.0868691 -0.0273944 -0.000420528 -0.082784 0.0742533 -0.0304583 0.0594147 -0.0482406 -0.0179025 0.00186234 0.0725712 -0.00174219 0.0887916 -0.0148987 0.0420528 -0.00276347 -0.0781582 0.085127 0.0211466 -0.0606762 0.0602557 -0.0830243 -0.0871695 0.0654222 -0.0687264 -0.0530466 0.0706488 0.0657827 0.0136972 0.0905938 0.0972622 0.0812221 0.0353244 -0.0871094 0.0458376 -0.0979831 -0.0257724 0.030278 0.0196447 -0.0305183 0.0588139 -0.0922759 -0.0282355 -0.026253 -0.0331617 0.0615173
. -0.056468 -0.0605493 0.0621211 -0.0205325 0.0360694 -0.0229081 0.0273378 -0.0138342 0.0680286 0.0169661 0.00746643 -0.03002 -0.0237665 -0.0076477 -0.0150834 -0.0256548 0.0442837 -0.0123717 0.0516401 0.0143159 -0.0676759 -0.005894 0.0587698 -0.014684 -0.0165839 0.0370728 -0.000434431 -0.0791057 -0.0289391 0.0636813 0.079644 -0.0371331 -0.00248 -0.0890233 0.0371835 -0.00915622 -0.00238169 -0.0541011 -0.00152266 -0.00268155 -0.0222961 0.0296292 -0.070406 -0.056825 0.01156 0.00145875 -0.0409323 0.0250513 0.0376179 -0.00247693 -0.0990754 0.0539118 -0.000956116 -0.049071 0.00939894 -0.125548 -0.0480381 -0.0905809 0.021064 -0.0243699 0.108829 -0.0105861 0.0478513 0.017258 -0.0121788 0.0863921 -0.06514 0.0302141 -0.0661686 -0.0292599 -0.0104159 0.0683777 0.110414 0.0589726 -0.00519842 -0.0648064 0.020578 -0.00505648 0.0680735 0.0197694 -0.0177201 -0.121853 0.037769 -0.000197859 0.0908839 -0.0528094 0.0489352 -0.00400512 0.00857739 0.0368363 -0.001393 0.0597357 0.0133014 0.0180998 0.0200121 0.0125198 -0.073707 0.00792974 -0.118547 0.0826285 -0.0488701 -0.0183585 0.0198376 0.0721038 -0.0457725 -0.0674787 0.0185865 0.0202253 -0.115102 0.048902 -0.0505863 -0.051253 0.0188089 0.0271516 -0.00671678 0.0473898 0.0651326 0.067354 0.00680465 0.0124283 -0.0232331 -0.0388001 0.138929 0.0627903 0.0441804 0.0230906 -0.0671198 0.0441085 -0.0306971 -0.0161108 0.0358414 0.050295 0.0603355 0.0485389 0.044758 0.00672722 0.000881151 0.0282988 -0.0770362 0.0260185 -0.00203636 -0.0793847 -0.000743509 -0.0655744 0.0569479 -0.0460324 0.0128461 0.0525852 0.0301072 0.0226211 0.0699876 -0.00864806 -0.0965149 0.0913607 -0.0302989 0.0614987 0.0187524 -0.159331 -0.0116203 -0.00416242 -0.0291529 0.0145015 -0.00320938 -0.0250169 -0.0323027 0.00792667 0.0463059 0.0360485 0.112608 0.107363 -0.105572 -0.0890908 0.00703384 -0.021488 0.0110457 -0.0195402 0.024024 0.00978606 0.0375128 -0.0355145 -0.0282902 -0.0429607 -0.0900132 0.12052 0.123846 0.046245 0.123971 -0.0395356 -0.0167376 -0.110281 0.0807912 0.0376277 0.0722206 -0.0382262 0.0465867 0.0281643 0.0183573 0.0895277 -0.0464441 -0.105548 -0.00842992 0.124596 0.0612172 -0.0379466 0.0619122 0.0301625 -0.073275 -0.0324342 -0.00115029 0.0979785 0.0031848 0.0210862 -0.0789797 -0.0918799 -0.0353327 -0.0782971 0.0320471 -0.109951 -0.107791 0.0314541 0.141268 -0.0560022 0.0728098 0.00799979 -0.0302393 0.190467 0.0301717 -0.0853715 0.0582967 0.0115563 0.0159928 0.0894313 0.0227422 0.00225203 0.0104128 0.0209811 -0.0642005 0.119671 -0.075798 0.0722605 0.0896746 -0.0166319 -0.0210118 0.0068747 0.0549275 -0.0446984 -0.0371687 0.0314369 0.0743552 -0.0130163 0.0995823 0.105677 0.00838752 0.123072 -0.0410872 0.0117855 0.0379909 0.0579993 0.00490286 -0.0222033 -0.012969 -0.0169582 0.0640579 -0.0762122 -0.0440164 -0.0996591 -0.0993156 -0.0224743 -0.0297785 -0.0266533 0.0667278 -0.0417754 0.113889 0.0491994 -0.040877 0.0577885 -0.0429244 0.0995442 0.00638619 0.00907389 0.00470377 -0.12954 0.0194425 0.00602857 -0.106293 0.0395713 0.0353929 0.0736732 -0.0719539 -0.00163326 0.0457191 0.0065478 0.064222 -0.0139116 -0.0114924 -0.05748 0.0152622 -0.07444 0.00493666 -0.0865979
the -0.0171187 -0.0103174 0.0207666 0.0217605 -0.0285091 -0.123858 -0.00989993 -0.0655203 0.0584808 -0.00152765 -0.00766935 0.00399705 -0.0223146 -0.0199737 0.0215819 -0.0398074 -0.0060206 -0.0210914 0.098887 -0.0643336 -0.117668 -0.0272324 0.00211218 0.0361148 -0.00987963 0.0478313 0.0753986 0.0350134 -0.0344708 0.0287513 0.0799524 -0.0120168 0.0166877 -0.0551664 0.0157798 -0.00683855 0.0129512 -0.0792745 0.0106468 0.0764993 0.0361919 0.0351507 -0.0475255 -0.0342299 0.0969602 0.132656 -0.0689308 0.0437321 -0.0136081 0.0483752 -0.0365864 0.0996758 -0.0357292 -0.0354369 0.00764567 -0.105495 -0.0659296 -0.0578191 0.05281 0.00089575 0.0877686 -0.0058244 0.0247082 -0.0209946 -0.0402878 -0.00996352 0.015474 0.000159665 -0.0200651 0.00827892 -0.0876651 0.0695343 0.0796114 0.0553457 0.0281992 -0.0873897 -0.0480078 0.0196578 -0.0253834 -0.0267757 -0.0131372 0.0165301 -0.0490504 0.050072 0.0245736 -0.0229127 0.0865143 0.00243963 -0.0548491 -0.0106387 0.0178047 -0.0122347 0.0312261 0.104141 0.0141358 0.029649 0.027206 -0.0302911 -0.114666 0.00724989 -0.0300475 -0.0438951 0.0373292 0.0986948 -0.0768342 -0.051078 0.0529473 0.0452766 -0.118315 -0.0185767 -0.00997232 -0.0908394 0.113125 0.00473651 -0.118176 -0.0374781 0.0817466 -0.0166532 -0.00685005 0.0149246 0.0960725 0.00660311 0.0681588 0.0858769 -0.00666738 0.0041195 -0.0105406 -0.0454065 -0.00762334 -0.0356399 -0.0392235 -0.0363509 -0.0237617 0.0722648 0.0360722 -0.0569931 -0.0127475 0.0801344 -0.0334519 0.103001 -0.0161384 -0.126295 -0.0190144 -0.0373028 -0.0258414 -0.00683922 0.0224519 0.00225967 -0.0100447 -0.0542409 0.0747985 -0.0669715 -0.101543 0.00500172 0.0249477 0.0387676 -0.0392777 -0.0607256 -0.0155795 -0.0441691 -0.131052 0.00345716 -0.00265004 0.0263996 -0.0108437 -0.00525678 0.0610375 -0.025564 0.0946937 0.18059 -0.0650494 0.0730151 -0.0142785 -0.0743492 -0.0118619 0.0252569 0.140988 0.00487723 0.0202227 0.0248557 -0.053561 0.034165 -0.0582345 -0.0471777 0.0856747 -0.0109851 0.0447523 -0.0268082 0.0438572 -0.0970447 -0.0871015 0.0213458 -0.0113281 -0.0058907 0.0314108 -0.0122164 -0.061164 0.128689 -0.0262216 0.0585458 0.0651719 0.129265 0.0346108 -0.0231873 0.0892482 -0.00732228 0.0253929 -0.0436313 -0.0287357 0.117091 -0.0251872 -0.0113146 -0.0910607 0.0384875 -0.00296057 0.037746 0.0401565 0.0202498 -0.0784133 -0.0548403 0.0813163 0.0123369 -0.0110947 -0.00226847 -0.0292959 0.135889 0.0102138 -0.0667056 0.0361892 0.0193594 0.0243469 0.109008 0.0782333 0.0571771 0.110534 0.0662591 -0.0228389 0.071664 -0.00989384 -0.0245052 0.00499428 -0.10716 -0.000313918 -0.039913 0.0634243 0.0588719 -0.0751266 -0.0774952 0.0152541 -0.00558287 0.108967 0.106912 0.0166512 0.112762 -0.00732634 0.0738946 0.00203235 0.0853127 0.0486134 -0.0394543 0.067257 -0.0397749 0.161922 0.00601451 -0.0737241 -0.0709056 -0.0319804 0.053538 0.0241988 0.00202288 0.0335676 0.028367 0.00249376 0.0278312 -0.0493204 -0.060208 0.00954271 0.0593333 -0.0230067 -0.0622377 0.0315021 -0.0763972 -0.0280267 -0.028691 -0.0734346 0.0808001 -0.06363 -0.0048637 -0.00447063 0.00387188 0.105704 0.0112009 0.0107524 -0.0889809 0.102826 -0.12206 -0.0490037 0.0276755 0.0497635 -0.0791257
, -0.0477891 -0.0158718 0.0602913 0.00708475 0.0146838 -0.0388052 0.0535881 -0.0286285 0.00867257 -0.00361474 -0.0473099 0.0729974 -0.0403804 -0.0273891 0.000191803 -0.107602 0.0753426 0.0500928 0.0604572 -0.0206177 -0.0403024 0.0106313 0.0612841 0.000836062 0.00566766 0.0373959 -0.0217889 -0.0457811 -0.0503492 0.0120758 0.0555771 -0.084977 -0.0104957 -0.064903 0.0021028 -0.0108555 0.0279048 -0.0473802 -0.0379622 -0.0154826 0.0267238 -0.0139847 -0.0465216 -0.0247889 0.0743885 0.0471638 -0.00160257 -0.0133679 0.0576616 0.03955 -0.0892943 0.0653773 0.000870489 -0.0508354 0.0428598 -0.106816 -0.0212683 -0.0539942 0.0308992 0.00419717 0.0937774 0.0257556 0.0438308 0.0150077 -0.027602 -0.0246217 -0.0571537 0.00324097 -0.0623021 -0.0538818 0.0261378 0.0567602 0.124348 0.0789426 0.0181306 -0.0529277 -0.0122079 0.0527963 0.0245753 0.0274292 0.0497366 -0.068052 0.0370657 -0.00735032 0.0951868 -0.0406994 0.0430495 -0.00951144 -0.023277 -0.0196123 -0.0304868 0.0326352 0.0232243 0.0946142 0.0223706 0.092517 -0.00582363 -0.0364193 -0.14943 -2.74004e-05 -0.0592677 0.0159828 0.0287563 0.0516968 -0.047697 -0.0568431 0.0352488 0.0521239 -0.0792039 -0.00313137 -0.0536647 -0.122879 0.10049 0.0229411 -0.0316699 0.0580649 0.0960256 0.0514129 0.0112911 -0.00787725 0.0523495 0.0221824 0.116924 0.0865156 0.0572618 0.0407872 -0.0341823 -0.00671028 0.00207259 0.0123491 0.0232334 0.0182782 0.0552834 0.0671829 0.0559501 0.0754332 -0.00271896 0.0166819 -0.0702194 0.0782154 -0.0520972 -0.0265727 -0.024628 -0.088591 0.0639258 0.0118124 0.0302872 0.0587014 0.00445853 0.0299135 0.0207575 -0.018758 -0.107964 0.0854154 0.0093906 -0.0427769 0.0278697 -0.0696538 -0.0207842 0.0634859 -0.0814655 -0.0607944 -0.00933228 -0.0406376 -0.0275627 -0.00774939 0.0951903 0.0463129 0.0759454 0.132049 -0.143437 -0.0201414 0.0286699 -0.0370074 0.0660208 -0.038957 0.0413001 -0.086439 -0.027888 0.0125367 -0.0659653 -0.0484417 -0.0126899 0.0298805 -0.00311943 -0.0305627 0.138892 0.0208685 -0.0786475 -0.0450469 0.0268833 0.0597848 0.0473556 -0.0244453 0.0613817 0.00178524 -0.0449015 0.10114 -0.0681356 -0.0231547 0.0686759 0.0620232 0.0634649 -0.0176767 0.0764807 -0.0463797 -0.0597841 -0.0555602 0.0469291 0.0990657 -0.0172763 0.040176 -0.0776695 -0.0486567 -0.0118138 -0.116709 0.0744426 -0.046719 -0.0541228 -0.0508621 0.0301095 -0.00189765 0.122505 0.0106932 -0.0896533 0.174347 -0.054238 -0.00702644 0.00295854 0.023539 0.017818 0.0705096 0.0700691 0.00339554 0.131182 0.0812386 -0.117391 0.158783 -0.00823697 -0.0434268 -0.0182191 -0.0256074 -0.00754002 0.0525666 0.0974252 -0.0612209 -0.0129168 0.0126836 0.101398 0.027451 0.0249161 0.0468497 -0.00127868 0.188092 -0.0957376 0.0638021 -0.101468 -0.0246638 0.00944118 -0.0845252 -0.0492947 -0.0315582 0.0489729 -0.00779084 -0.0453884 -0.0925043 -0.0258617 -0.0104761 -0.046868 -0.0674716 0.0609511 -0.0637642 0.0245922 0.0636595 0.0220341 0.0706993 -0.0202011 0.115696 -0.0580255 -0.0287381 0.0400095 -0.0924327 -0.0561918 0.0451108 -0.0741749 0.0373924 -0.0116227 -0.0439614 -0.0146206 0.0052405 0.00405947 0.0481698 0.0192751 -0.00948193 0.0194233 -0.0855025 -0.0198575 -0.0540743 -0.0498111 -0.104746
to -0.0433625 0.00822097 0.0381827 -0.00213224 0.0911484 -0.120335 0.0512547 -0.0578063 0.00654638 0.0947108 0.0215287 -0.00449562 -0.0852885 -0.00555249 0.0273019 -0.0551257 0.0203672 -0.0726909 0.0234275 -0.0190133 -0.0981478 -0.061553 -0.0125739 -0.0718802 -0.0402618 0.0735681 0.00137642 -0.0370542 -0.00541555 0.0512795 0.0152319 0.00434827 -0.0179657 -0.0311353 0.008648 -0.0210225 -0.0385577 -0.0875369 0.0331867 -0.0303061 0.00824467 0.0139162 -0.0370796 -0.0900615 0.0784959 -0.00817244 0.0190255 -0.0252876 0.0233587 0.0240452 0.0186302 0.0206798 -0.0526375 -0.0491924 -0.010463 -0.128428 -0.0666866 -0.0905977 0.0545964 -0.0170857 0.104604 0.0449903 0.042639 0.00174046 -0.0355558 0.0300172 -0.00554556 0.00786791 -0.0292857 0.00494345 -0.0743857 0.0474375 0.0753455 0.00500874 0.00915881 -0.0317819 0.0148899 0.0225729 0.0589036 -0.0373772 0.00817879 0.0155602 -0.00355374 0.0380903 0.0774396 -0.0816747 -0.00777488 -0.0142502 -0.00904209 0.0231051 0.0446921 0.0424559 0.0512004 0.101545 -0.0091357 0.0410563 -0.0451053 -0.0857132 -0.0767231 -0.0434434 0.00845962 0.0144513 0.0136151 0.144563 -0.0686559 -0.0248698 -0.00745533 0.0821404 -0.117644 0.0179773 0.000624071 -0.13994 0.0720351 -0.0525017 -0.0724945 -0.00903169 0.0742991 0.0354865 0.0142017 0.0118533 0.0267686 0.0558896 0.0733312 0.0872104 0.0286443 0.0408344 0.0166032 -0.00820884 0.000634472 -0.0386409 0.0556642 -0.0251061 0.00592809 0.00565997 -3.00478e-05 -0.0139566 -0.0258631 0.0516586 -0.0402826 0.155848 -0.0479442 -0.0133303 0.0640776 0.0104272 -0.076915 0.00143363 -0.0494096 0.0133337 0.0503764 -0.0708233 0.0952459 -0.0394956 -0.130391 0.0218205 0.0177941 0.0187204 0.0113176 -0.0391968 0.0957873 -0.0234362 -0.0518857 0.0600887 -0.105244 0.0253523 -0.0191301 -0.0588487 0.0108687 -0.102586 0.0786618 0.211955 -0.0918649 -0.00720339 -0.0366023 -0.0633062 0.0186759 -0.0148719 0.0514361 -0.0281092 0.0285472 -0.125248 -0.104702 0.0245479 -0.00674054 -0.0233558 0.0693678 -0.00338847 0.0578392 0.0618356 0.0530142 -0.0629508 -0.0629832 0.0305945 -0.0142334 0.0283132 -0.0620864 0.0345527 -0.0877374 0.0563409 -0.0522486 0.0242688 0.0693348 0.0207307 -0.0263063 -0.0433769 0.0522607 0.0581443 0.0355553 -0.0077431 -0.0538145 0.0789282 0.0406195 2.36916e-05 -0.0582454 -0.0292192 0.0184846 -0.0517216 0.0507317 0.0378921 -0.0234535 -0.0235783 0.0144155 -0.0328816 -0.0249154 -0.0448863 -0.00066452 0.147696 0.0236459 -0.0180801 -0.00956504 0.0347197 0.0515927 0.13606 0.0485348 0.0442605 0.0251021 0.00909987 -0.0673285 0.0639591 -0.132755 -0.0657013 0.0219378 -0.0161686 -0.0399856 -0.0926242 0.0656857 0.0142762 -0.00275573 0.00846193 -0.0226428 0.106319 0.00378892 -0.000568598 0.077665 0.0867192 0.0108473 0.0715168 0.0590249 -0.0330128 -0.0358534 -0.138031 -0.00269102 -0.0873907 0.165866 -0.163999 -0.0404577 -0.106006 0.0238961 -0.00924491 -0.0734456 0.0578161 0.105089 -0.0438768 -0.0223492 -0.117504 -0.068479 -0.0110732 -0.0376159 0.0530466 -0.0740778 0.0265652 -0.0425732 -0.0124514 -0.0310672 -0.016468 -0.0683941 -0.0159306 0.00100198 0.0471474 -0.0486122 0.00109906 0.0759003 -0.0463586 0.0283201 -0.0663087 -0.044528 -0.0908161 0.0654101 0.0336917 0.0585996 -0.0838878
of -0.048272 0.0451743 -0.0474506 0.0182145 0.00267004 -0.071566 -0.0402687 -0.0581289 0.0524795 0.0126107 0.0604674 0.0210319 0.00907184 -0.0292367 0.00210929 -0.0129158 0.0235713 -0.0248419 0.00469182 -0.00193367 -0.0905089 -0.0317095 -0.0155322 0.0113352 -0.00860352 0.0648641 0.0544508 -0.053455 0.00413847 -0.0431637 0.0891828 -0.0884298 -0.00796082 -0.0907911 -0.0038507 -0.0306201 0.0106296 0.00829357 -0.00670806 0.0440941 -0.0160972 0.0148772 -0.0275397 -0.000145426 0.0886714 0.0781909 -0.0453358 0.024323 0.0970327 0.0874488 -0.072807 0.096358 -0.0183322 -0.0321051 0.0194544 -0.129045 0.00160338 -0.0482326 0.0894459 -0.0179564 0.0402046 -0.00496973 0.00646404 -0.0149912 -0.030866 -0.0320478 -0.0130452 -0.00751468 -0.0568774 0.0365129 0.00155531 0.080612 0.0602949 0.0542462 -0.0552241 -0.0760606 -0.0264366 0.0588684 -0.00897818 -0.00461541 -0.0264003 -0.00692928 -0.0247914 0.0242589 0.0728791 0.00668218 0.0169261 0.0474519 -0.0577746 -0.0410969 0.00938303 -0.0126982 0.0470051 0.0188135 0.0142215 0.0468615 -0.0513833 -0.0578399 -0.116716 -0.0101169 -0.011724 -0.00408116 0.0593552 0.129322 -0.0329888 -0.0658352 0.0656368 -0.0448145 -0.0896807 -0.000988401 -0.0360144 -0.155843 0.0517351 0.046217 -0.137059 0.0488587 0.0911504 -0.0193077 -0.0215341 0.0295805 0.0478425 0.0475067 0.0400586 0.0583286 0.0607139 -0.00810994 0.00517 0.0186157 0.017061 -0.0219599 0.0151772 -0.0272297 0.00159906 0.0829739 0.0179434 0.0342711 0.0227659 0.0783899 0.00845255 0.162157 -0.0272174 -0.0393284 0.0272168 -0.0806908 -0.0813508 -0.0201655 0.040867 0.0570321 -0.000308105 -0.0258519 0.0879603 -0.0624122 -0.0583526 0.0650151 0.0761081 0.057265 0.0287018 -0.0560788 -0.00914764 -0.00620893 -0.189469 0.00823441 -0.0432407 -0.0250009 -0.104118 -0.00488778 0.0646799 -0.00363872 0.0369868 0.154716 -0.0232194 0.0539208 0.0326295 0.0581332 0.07939 -0.00591685 0.05253 0.0634807 0.0238036 -0.0100202 -0.0726382 0.104201 -0.0950732 0.0545845 0.0893227 -0.05275 0.0178849 -0.0346162 0.082036 0.0100658 -0.0489061 0.0689157 0.0138949 0.0299792 0.0891267 -0.0148383 0.0328391 0.0319283 0.00784127 0.0213344 0.0516335 0.0323689 0.0170665 -0.0288016 0.0467247 -0.035994 0.0772629 -0.00724355 0.0339341 0.0789014 0.0152469 0.0657453 -0.101938 -0.00147274 0.0023188 -0.0363866 0.00157996 -0.011687 -0.0836794 -0.0485043 0.0494237 -0.00617196 0.0797887 -0.025211 -0.0984857 0.150586 -0.0132793 -0.0291024 -0.0243064 0.0500757 0.0162156 0.0789593 0.0615261 -0.0273671 0.0880872 0.0648259 -0.0497657 0.0923101 -0.0864678 -0.0194919 0.0112834 -0.0900813 -0.0409003 -0.0696878 0.0723738 0.0514702 0.0586576 0.00504614 0.00527476 0.0207515 0.014362 0.118431 0.00742656 0.0974043 -0.0181825 0.0235904 0.0757149 0.0916926 0.038783 -0.0953264 0.0571707 -0.00440528 0.0796611 -0.0386881 -0.0474032 -0.0195221 -5.91561e-05 -0.104852 0.0351628 0.0213621 -0.0108552 -0.00082264 0.0164633 0.0274423 -0.0170986 -0.0357476 0.0244444 0.076866 0.0536928 -0.0121104 0.0210621 -0.0716862 -0.0622902 0.0075535 -0.105003 -0.0441668 -0.167138 -0.0825345 0.063339 0.0573858 0.13597 0.0211095 -0.117071 -0.164166 0.0365215 -0.0351437 0.0409767 0.0175453 -0.0782685 -0.0827693
and -0.0995752 0.00768528 0.0140965 0.0691579 -0.0129673 -0.0301196 0.0564939 -0.0246674 0.0426601 0.0223156 0.0177876 0.0329022 -0.0351374 -0.032586 0.011058 -0.0823983 0.0650059 -0.0431939 0.0619035 4.39081e-05 -0.108087 0.00688533 0.0119855 -0.0786215 -0.0196049 0.104093 -0.0350043 0.0205922 -0.0139113 -0.0330703 0.0489458 0.00290616 0.0338126 -0.0620887 0.107905 -0.0040464 0.0188318 -0.0153781 -0.0272484 0.0457138 0.0332116 -0.037516 -0.0524098 -0.060484 0.107306 0.068876 -0.0366289 0.0201181 0.0624208 0.0343587 -0.0308084 0.0682859 -0.0372114 -0.0750457 0.0234682 -0.140294 -0.0305408 -0.0539177 0.0676239 -0.0677193 0.185763 0.0158501 0.0208714 -0.0411679 0.00822521 -0.0248705 -0.00580135 -0.0241995 -0.0491283 0.00472423 -0.0638217 0.0663904 0.138283 0.0913548 -0.00485527 -0.096396 0.00900938 0.0771005 -0.0117502 0.0133721 -0.0159386 -0.0439355 -0.0138482 0.0503056 0.0519226 -0.036631 0.00897851 0.0383338 -0.011353 0.0190115 0.0249329 0.0616709 0.0517992 0.0706412 0.043917 0.0177094 -0.0413655 -0.079265 -0.148944 0.0231745 -0.0332199 0.0334291 0.0671821 0.058998 -0.0439273 -0.081326 -0.013239 0.00672205 -0.110939 0.0637778 -0.102109 -0.108981 0.117202 0.0115423 -0.142731 0.0190959 0.1131 0.0283646 0.0102217 0.0395557 0.0231011 0.0247614 0.0222614 0.0845333 0.0647829 0.0196646 -0.0253823 0.0483037 0.0618925 0.00418773 0.0661701 -0.0199267 -0.0346263 0.00495475 0.0160703 0.0151641 -0.0477205 0.0117687 -0.0537791 0.0869633 -0.0639411 -0.0191412 -0.0332336 -0.0802056 -0.0281691 0.0339073 0.0521539 0.0259991 0.0525936 -0.0250255 0.0510884 -0.0306746 -0.107542 0.0528427 0.0180297 0.0270858 0.076118 -0.0992 -0 -0.0404819 -0.139991 -0.021742 -0.0313305 0.00472629 -0.0180284 -0.0246242 0.0112494 0.0546401 0.0781543 0.12324 -0.08003 0.0185841 0.00723934 -0.0218978 0.0189353 -0.0182822 0.0887094 0.00416029 -0.0112206 0.0165115 -0.10516 0.0323307 -0.0307007 0.0612559 0.0670236 -0.0563505 0.0965874 0.0329859 0.035654 -0.116012 -0.0548967 -0.00734431 0.00848866 -0.0118415 0.0557968 0.0189889 -0.021941 0.0890565 -0.0329406 -0.0267016 0.0288867 0.0724723 -0.0110957 -0.0112254 0.0897289 -0.0571415 -0.0259812 -0.0065718 0.0320899 0.0979129 -0.00165478 0.0620778 -0.0443677 -0.0214834 -0.0635398 -0.0650738 0.0705184 -0.0124006 -0.0354757 -0.0283996 0.0189443 0.00443403 0.0274295 0.0113379 -0.0649997 0.125012 0.0110792 -0.0835454 0.00508099 0.0251847 0.0180483 0.125867 0.0375654 0.0378378 0.0747377 0.0326895 -0.0431712 0.154067 -0.0790729 0.00753846 0.00866498 0.0376196 -0.0209462 -0.0552007 0.0570565 0.0107438 0.00241014 0.0709726 0.0172161 0.0251916 -0.00568198 0.107713 0.0116823 0.117377 -0.0281986 0.0607056 0.11504 -0.0344164 0.0762848 -0.0768981 -0.0257404 -0.0118998 0.10762 -0.0417291 -0.0741971 -0.0709101 -0.0829416 -0.0633353 0.0288572 -0.0559011 0.0840537 -0.034015 0.0382432 -0.0124884 -0.0238139 -0.0269952 0.014819 0.0198375 -0.0325372 0.026541 0.0557632 -0.106798 -0.0129639 -0.0475806 -0.143634 -0.0168531 -0.0219081 0.0254296 -0.0408448 0.0544144 0.0479304 -0.022105 -0.0487722 -0.0387152 -0.00211582 -0.12999 0.0899573 0.0364643 0.0739419 -0.0200735
a 0.0022769 -5.87627e-05 0.0430445 -0.0273419 -0.0256704 -0.0658154 -0.00611725 -0.0461061 0.0749818 -0.00657133 0.00701769 -0.00152367 -0.0876905 -0.00311323 -0.0318506 -0.0891062 -0.0219903 -0.0684549 0.0972872 -0.0154653 -0.0506267 -0.0239864 0.0531209 0.0207687 0.0325355 0.0184847 0.0682288 -0.0694545 -0.0347299 0.0218662 0.0544718 -0.0401307 0.0374585 -0.0372348 0.0634904 -0.000289065 0.0572058 0.0221933 -0.00112124 0.0133124 0.0250418 0.0248898 -0.0892029 -0.0153489 0.0737549 0.120827 -0.0452556 -0.0483433 -0.0101885 0.0948376 -0.0529725 0.0534663 0.00306931 -0.092277 -0.0292478 -0.106352 -0.0335167 -0.0426 0.0482008 0.0619608 0.0722911 0.0220479 0.0374965 0.00686989 -0.00063986 0.0135101 -0.0212691 0.00258378 -0.0674109 0.0159366 -0.0629829 0.0226652 0.0386825 0.0636358 -0.0409873 -0.0467139 -0.0344913 -0.0267317 0.0314665 0.00514322 0.0239544 -0.00609351 -0.00781009 -0.0131824 0.0983111 0.0111993 -0.026835 -0.0086025 -0.0314535 -0.00717023 -0.0161544 0.0528205 -0.0680857 0.0576005 -0.0313567 0.0222663 0.107793 -0.080271 -0.150863 0.061404 -0.0579679 0.0119549 0.0475093 0.0582676 -0.0187732 -0.0135623 0.0137416 0.0150533 -0.110606 0.036932 0.0100027 -0.112427 0.0806669 -0.0119051 -0.0548469 0.0281188 0.0196267 0.0257345 -0.0444489 -0.0209302 0.0841327 0.0310469 -0.0211373 0.0674311 0.021487 -0.0488526 -0.00399527 -0.115191 -0.0784209 0.0461109 0.00355306 -0.0438352 0.0906316 0.0706856 0.0359734 -0.0181339 -0.0027571 0.032158 -0.00664018 0.0676679 -0.00765161 -0.0613933 0.020114 -0.0189673 -0.0419002 -0.0452775 0.0334092 0.0795813 -0.0263091 -0.0221054 0.0598519 -0.0956276 -0.0181927 -0.0163538 0.0677041 0.0678798 0.010179 -0.00230777 0.0233976 0.00463928 -0.0573785 -0.0315081 -0.0649464 0.00367652 -0.0574141 0.0122072 -0.0422539 0.0316956 0.0355639 0.0892225 -0.115369 -6.2324e-05 -0.0126951 -0.0935988 0.0322761 0.0359817 0.0830406 0.0384616 0.0495981 0.00230599 -0.102163 -0.0682472 -0.0300639 0.0583246 0.0142419 0.0319063 0.105253 0.0853566 -0.0685149 -0.00784571 0.028158 -0.0193448 -0.000693281 0.000280755 0.0277947 -0.0274054 -0.031549 0.0296455 -0.0273169 0.0283806 -0.0482168 0.0652022 -0.0218383 0.00150884 0.0650918 -0.0440803 0.00396084 -0.0487629 0.048573 0.0525742 -0.105739 0.0130251 -0.0745953 -0.0581626 0.0550701 -0.0694699 0.0650135 0.0111139 -0.120783 -0.05165 0.0261286 0.0332419 -0.00535512 0.0754364 -0.00759404 0.0880057 0.0430172 -0.0481765 0.0874145 -0.129035 0.0472553 0.0769085 0.0113667 0.0641291 0.0810373 0.0552606 -0.0463317 0.122641 -0.016285 -0.0943628 0.0534081 -0.0566068 -0.00714234 -0.0376621 0.091846 0.0384985 0.00488027 -0.0408044 0.00767773 0.0310528 0.107472 0.0871112 -0.0491202 0.0987723 -0.0926355 0.0562792 -0.04405 0.0910786 0.0494788 0.00865711 -0.0996514 -0.139038 0.0662843 -0.00415019 -0.049176 -0.185006 -0.0179553 -0.092905 -0.0754875 0.0011337 0.0209759 -0.0451938 0.0383275 -0.0434725 -0.057277 -0.0045366 -0.049306 0.155481 -0.0490193 -0.1033 -0.0167794 -0.0837611 0.0516565 0.00593562 -0.0739964 0.168225 -0.0648425 0.0354796 -5.99498e-05 -0.0187489 -0.0624523 0.0115964 0.0736486 -0.114422 0.057886 -0.0784102 0.103105 -0.043593 -0.0498391 -0.112006
in -0.0362946 0.0147504 0.0462072 -0.0229186 -0.00157404 -0.0669257 0.0125138 0.00951559 0.00796014 0.00813403 -0.0542135 0.0633243 -0.0835758 -0.0329523 -0.0317134 -0.0725497 0.0597067 -0.0558523 0.0945461 0.0714278 -0.0398553 0.0134648 -0.031789 -0.0205135 -0.0357879 0.0547148 0.0954473 -0.0295194 -0.0112431 0.0281666 0.057018 -0.0283795 0.0219784 -0.0338145 0.0293467 0.0412572 0.100646 -0.0935699 -0.013421 0.0274446 0.0310484 0.0450217 -0.0255072 -0.0882301 0.0701074 0.0667183 -0.0236885 -0.0378675 0.0220827 0.070099 -0.0469807 0.113929 0.000796314 -0.0480828 0.0371137 -0.0777305 0.0339824 -0.0685351 0.0606614 -0.0298582 0.104821 -0.0308008 0.0311036 -0.043281 -0.0183998 -0.00404333 0.00120586 0.0526814 -0.0290541 -0.0334883 -0.024248 0.0938733 0.0878607 0.0609396 0.00817241 -0.0612754 -0.00912103 0.0694184 0.0100996 0.0469753 -0.027763 -0.00551183 -0.00994133 0.0232478 0.0547532 -0.0116965 -0.000498296 -0.00155065 0.00897412 0.0108804 0.034311 0.0633843 0.0427041 0.059525 0.0345899 0.0217535 -0.00274272 -0.0355043 -0.0299709 -0.0203198 -0.0457706 -0.0490758 -0.000611626 0.0948501 -0.0749728 -0.0109007 0.061589 0.0458408 -0.0852709 -0.0332587 -0.0889299 -0.170154 0.128376 -0.0273511 -0.189819 -0.0254712 0.104928 -0.0073635 0.0416194 0.0634484 0.097203 0.0276809 -0.00568753 0.0530022 0.0280785 -0.0234715 -0.0243643 0.000623619 0.0171615 0.0268138 0.0668178 -0.0325008 -0.0255864 0.0751053 -0.0180154 0.0174122 -0.0346438 0.083818 -0.0841226 0.0502937 -0.0524452 -0.0462546 -0.0240813 -0.0349197 0.0716131 0.0206166 -0.023285 0.0914501 0.0354647 -0.081257 0.0396208 -0.0511512 -0.111186 0.0680267 0.070987 0.0270621 0.0222962 -0.0887686 0.0280029 -0.0362185 -0.121884 -0.0307354 0.0120011 -0.0126859 -0.00479227 -0.00624519 0.0549552 -0.00940646 0.130392 0.184881 0.00747204 0.0179992 0.000911443 -0.0727482 -0.00338193 0.0177887 0.086159 -0.0151935 0.0536252 -0.0482675 -0.0972426 0.00783302 -0.04388 0.0496059 0.0762446 0.0155641 0.0630497 0.0573292 0.00256523 0.0212582 0.00669671 0.0673437 -0.0628278 0.0208583 0.0429062 -0.0184046 -0.0729586 0.0860588 0.0451362 -0.0244003 -0.00353184 0.0826511 0.0669707 -0.0305352 0.0587899 0.00559698 0.0654218 -0.0207557 0.0387261 0.063816 0.100014 -0.042613 -0.054358 -0.0588636 0.0636086 -0.0107274 0.0786582 0.02355 -0.00275652 -0.0683217 0.026186 0.0332215 0.0298636 -0.0241005 -0.0826535 0.118405 0.0245664 -0.0187146 0.0342463 0.068089 -0.0119987 0.0154226 0.0911126 -0.028467 0.0937731 0.0387513 0.00218387 0.140931 -0.121859 0.0333031 -0.0489985 -0.0970933 -0.0693381 -0.0981037 0.0189334 0.0693345 -0.00741807 -0.00511248 -0.00840147 -0.0290205 0.0551411 0.0736068 0.0145681 0.0929666 -0.03339 -0.0158255 0.045436 0.147969 0.0230157 -0.102122 -0.065104 -0.0405736 0.0124802 -0.0253729 -0.0620663 -0.062597 -0.0141304 -0.0168857 0.000661396 -0.0264606 0.0244333 0.0922872 -0.0493289 0.0166003 -0.00694556 0.0343848 0.0994673 0.00184867 -0.0700702 0.0446092 0.0165571 -0.0578035 -0.0789688 -0.0129269 -0.102385 0.0655058 -0.0784771 0.0236586 -0.0313015 0.0448328 0.0852679 -0.0722715 -0.0484528 -0.079867 0.088034 -0.0820311 0.101824 -0.0732878 0.0466221 -0.0660353
&quot; -0.0112065 0.0336432 0.066379 -0.0379494 0.0335332 -0.0369313 -0.0273097 0.064351 0.0812569 -0.0385706 0.0476314 0.0589616 -0.0693381 -0.0157482 0.0705302 -0.00147839 0.000783268 -0.0692843 -0.0372277 0.000527108 -0.054701 -0.0437476 0.0838315 0.00320702 0.0204892 0.0964005 -0.0581618 0.031113 -0.0643729 -0.0078942 0.0699948 0.0216256 0.0191404 -0.034966 0.0192516 -0.0114408 0.0566786 -0.0458975 0.0443777 -0.079197 0.0461525 0.0854537 0.0101002 -0.0614741 0.0779209 -0.00706597 -0.0561616 0.0192977 -0.0018221 0.130271 -0.0479876 -0.000383943 -0.0533847 -0.0413499 0.00217469 -0.0539626 -0.0422302 -0.0371573 0.0359463 0.0212565 0.119582 0.111448 0.0277315 0.0338095 0.0110131 0.0120448 0.0236122 0.0153997 -0.0545903 -0.0644113 -0.0472457 0.056671 -0.0406376 0.0555274 -0.062365 -0.0562142 0.0139373 -0.13655 0.00403584 0.0144686 0.0266548 0.00195166 0.00134883 0.0784256 0.0221173 -0.0317572 0.0401596 0.0304451 0.0710011 -0.0498688 -0.0060017 0.0208187 -0.0901817 0.0733722 -0.00488714 0.0135427 -0.0177661 -0.029821 -0.124808 -0.0505391 -0.0353127 0.0236294 0.0474534 -0.0130718 0.00665127 -0.0216251 0.0368905 -0.0256213 -0.127813 -0.022461 0.0400591 -0.0811138 0.0455863 0.0307776 -0.0583972 0.0607908 0.00565089 -0.0103824 -0.0155322 -0.066479 0.00880466 -0.0644202 0.0703515 -0.0239837 0.0913175 0.0740442 0.0280071 0.0105877 -0.0647669 -0.011972 0.0428549 0.0206815 0.107772 0.0513135 0.0155388 0.0522932 0.0146756 -0.048381 -0.064012 0.119239 -0.0594366 -0.0850597 -0.0592527 0.0306758 -0.0318614 -0.0654401 -0.0359286 0.0329008 0.0150253 0.0347809 0.133102 -0.0324754 -0.111744 -0.0404116 0.0317194 -0.0329079 0.0216913 -0.0115508 0.00169254 0.049757 -0.0660962 -0.0889861 0.0154695 -0.0436512 -0.017688 0.0148152 0.00907857 -0.018492 0.0754445 0.129653 -0.0648397 0.0305226 0.0393018 -0.0226704 0.00232969 -0.0102316 0.0437731 -0.00309225 -0.0643143 -0.0453674 -0.00542371 -0.000974352 -0.111626 0.0151098 0.0119543 -0.0376536 0.0443451 0.0866664 -0.0326127 -0.0479391 -0.00628448 0.0476557 -0.0707727 -0.0939069 -0.0338811 0.0387173 -0.0136031 0.162614 -0.107917 0.121637 0.083557 0.090458 0.00127902 -0.0146094 -0.0631075 -0.0267346 0.0142337 0.0283621 0.0330055 0.106379 -0.125501 0.061638 -0.0252486 0.0425313 -0.0119821 -0.0742253 0.0331493 -0.0334386 -0.0280521 0.0828181 0.0306551 -0.0398686 0.068039 0.0363036 -0.0465689 0.0498712 0.0429922 -0.115841 -0.0696605 -0.150487 0.0517596 0.0260229 0.016225 -0.0254047 0.0824247 0.0605814 0.0279894 0.126597 0.00714584 0.0183861 0.0395621 -0.0957651 0.0173118 -0.0152607 0.151087 -0.0144419 -0.0153169 0.0204123 0.014862 0.0196846 0.0516448 0.0101996 -0.0119726 0.154723 0.0348176 -0.00139497 -0.0905355 0.0365409 0.141167 -0.0949878 -0.00750612 0.0282308 0.0431371 -0.0447385 -0.0328653 -0.0766472 0.0351642 -0.0355174 -0.105457 -0.0204945 0.0394243 0.00096252 0.0824584 -0.0144378 0.0469434 0.0807896 -0.0363303 -0.0257201 -0.0246274 0.0462643 -0.0251344 -0.0168414 0.0621881 0.0146809 -0.0635938 -0.0195811 -0.0873006 0.11556 0.0213748 0.00908981 -0.0184163 -0.0693707 -0.00654951 -0.066909 0.00869818 -0.0823413 0.0264412 -0.140277 0.0288673 -0.128924
is -0.0548668 0.0327431 -0.00136458 -0.000860746 -0.0565958 -0.108925 0.00362231 -0.0022583 0.0815875 0.0632735 0.0284578 0.0400467 -0.0611859 -0.0361213 0.0134064 -0.0407605 0.0355839 -0.08311 0.0579286 -0.0333024 -0.0573993 0.0115952 0.0529475 0.0703273 -0.023283 0.0377271 0.0750324 -0.0601759 -0.0443001 -0.0200257 0.0729072 0.0159898 0.0166388 -0.0432745 -0.01295 -0.019792 0.0776303 -0.00899792 -0.040333 -0.000488797 -0.0145627 0.0137511 -0.0842849 -0.050909 0.0547453 0.0763635 0.0171235 0.0512156 -0.0109433 0.0251126 -0.0264384 0.131762 0.0549171 -0.0265935 -0.0434694 -0.051816 -0.0473677 -0.0204352 0.0595887 0.00578806 -0.00369114 -0.0190712 0.0110613 -0.0128464 -0.0377051 -0.0152453 -0.00279685 -0.0304287 -0.0148114 0.00857276 -0.0561695 0.0724629 0.0417312 0.0792158 -0.032595 0.0104418 0.0287343 0.000321044 -0.0365216 0.00614323 0.0326199 0.00835525 0.00983669 0.0214949 0.0398575 -0.0124612 0.0404007 -0.0474833 0.0270967 0.0134642 0.0200592 0.00492847 -0.0393977 0.0588668 -0.00324573 0.0813133 -0.0740786 -0.0307254 -0.0776656 -0.0081875 0.0257536 -0.0179883 0.0980331 0.0829845 0.0203837 0.00162142 0.0572385 0.108276 -0.152265 0.0337247 0.0126613 -0.0920299 -0.00246944 -0.056962 -0.0576231 0.086339 0.0747901 -0.0272946 0.0285764 0.00174984 0.0548153 0.0475071 0.0120973 0.0465393 0.0953618 0.0192262 -0.0601348 -0.0339081 -0.0151666 0.0270389 0.119076 0.0163906 0.0169928 0.036049 0.0647579 -0.00234334 0.00036038 -0.0587546 -0.0639607 0.117755 -0.0520474 -0.0259387 0.0366691 0.0319321 -0.0815187 -0.0241992 -0.0729656 -0.0068744 -0.0108739 -0.00870407 0.0280425 -0.0673563 -0.0951663 -0.0578083 0.0536063 0.0353884 -0.022996 -0.028367 0.0338277 -0.00066407 -0.0972944 0.00911072 -0.0458295 0.00828526 -0.0462148 0.111298 0.00202171 0.00914312 0.026074 0.13339 -0.0676849 0.0299821 -0.00915121 0.0124351 0.016563 0.0168233 0.070705 0.0160083 0.0110491 0.0421737 -0.0300104 -0.0350257 -0.125307 -0.0066031 -0.0207649 0.0189995 0.0469818 -0.0501813 -0.123331 -0.0808031 -0.125096 0.0366257 0.0724988 -0.049453 0.0109311 -0.0951055 -0.0979001 0.071343 -0.00226524 0.00504763 -0.0674257 0.00568335 0.0475961 -0.00762987 0.0244908 0.0463108 0.0335697 -0.0117763 0.0531019 0.0520711 -0.0282936 -0.0368715 -0.192141 0.109734 0.0331885 -0.0435799 0.0595876 0.0116704 -0.11472 -0.0346635 0.0285539 0.00952663 -0.0785095 0.00756103 -0.061821 0.119527 0.00787861 -0.0566947 0.152667 -0.0479612 0.0653247 -0.00527438 0.0235508 -0.0597825 0.0731756 0.00575046 0.0190191 0.00781035 -0.0821718 0.0607665 0.0824147 0.00720644 -0.0152221 -0.0600018 0.111951 0.0641991 -0.0828029 -0.0496046 -0.0333134 0.00147333 -0.0610719 0.084448 0.0412129 0.201099 0.00529984 -0.0275144 0.0107107 -0.0463432 0.0520433 -0.0542415 -0.0786316 0.0704348 0.140981 -0.0175921 -0.0949112 -0.0493899 0.0371203 0.0439854 -0.0516668 0.0411261 0.103837 -0.018889 0.0564009 -0.0198585 -0.0738668 -0.00610679 0.040462 -0.00514944 0.0387492 -0.00676796 0.021665 -0.0558126 -0.0843121 0.0443458 0.0453066 -0.0346011 -0.188872 0.0228323 0.137593 -0.0217194 0.0962833 -0.0328113 -0.0485402 0.0206371 -0.0217043 -0.064147 0.0458394 -0.064825 0.0362867 -0.110748
- -0.0628239 -0.0207395 -0.0550441 -0.0523377 0.0691173 -0.0249005 -0.0179674 -0.028281 0.0706671 0.0572268 -0.0323861 0.00716351 -0.0646636 -0.04149 -0.0220371 -0.123761 -0.00549044 -0.0245679 0.0533281 0.0699615 -0.0760878 0.00943249 0.000826808 -0.0444686 0.00532389 -0.0155318 0.0330768 -0.0485428 -0.00198972 0.0936422 -0.0175011 0.0304986 0.0126141 -0.0929097 0.0362823 -0.0270628 0.0332179 0.0190116 -0.0286171 -0.00969579 0.0476222 0.0315858 -0.09279 0.00381239 0.0502094 0.0761805 -0.0223921 -0.0252979 0.0827945 0.0021872 -0.0910945 0.0744756 0.078636 -0.0133332 0.0439146 -0.0518216 -0.152767 -0.0975713 0.113496 -0.0222655 0.0923532 0.00736747 0.0359741 -0.02528 -0.0132015 0.0215135 0.0605191 0.00110308 -0.0895396 -0.0526888 -0.0640821 0.0581972 0.0920534 -0.0668079 -0.0516825 -0.0506881 -0.0534269 -0.0179928 -0.0200518 -0.00855681 0.05638 -0.0100863 -0.00759437 -0.0552076 -0.018653 -0.0575589 0.0443315 0.0319363 -0.111081 0.0621073 -0.0188311 0.0136164 -0.0448641 -0.00115344 0.00324589 0.03602 -0.0204657 -0.0539664 -0.0493138 0.0682032 -0.0159732 -0.00306238 0.0657297 0.0404288 -0.0303695 -0.0452096 -0.0210307 0.0275918 -0.024894 0.029052 -0.0144317 -0.0873629 0.0219184 0.0516231 -0.0801206 0.042416 0.117256 0.0259996 -0.012466 0.0310961 0.0626803 0.0349922 0.0908372 -0.00879468 -0.0104249 -0.0257328 -0.00494539 0.05299 -0.000638806 -0.0459562 0.0110557 0.023187 0.0564429 0.02208 0.00843364 -0.0525392 -0.0275609 0.0637036 -0.0623023 0.0527053 -0.092394 -0.033946 -0.093162 -0.0504084 0.00386426 -0.062595 0.00332369 -0.00850794 0.0470912 -0.0270179 0.0161048 -0.0708352 -0.0583872 0.0181574 0.0262554 0.0554814 0.0178222 -0.0982191 0.0116082 -0.0302244 0.00289881 0.032798 -0.0519184 0.0762384 0.00270034 0.10164 0.0715872 0.0564224 0.124866 0.119389 -0.0396559 -0.0452884 0.00768662 -0.115227 0.0173984 -0.0828962 0.0752345 -0.0971375 0.0305026 0.119722 -0.0853492 -0.068853 0.0104059 0.0500343 -0.0142946 0.0323702 0.0843269 0.0219044 -0.0806846 -0.0172857 -0.0186471 0.0474258 0.00120132 0.0814276 0.0138737 0.0288051 0.0260574 0.0727008 -0.0203166 -0.00212187 0.00226998 0.0947852 3.69022e-05 -0.127981 0.0655333 0.00964493 -0.0131696 -0.0397272 0.0764812 0.00241011 0.0390186 0.072797 -0.0852784 -0.0747817 0.0271974 -0.0393317 -0.0187044 -0.117544 -0.0182172 0.0336333 0.0647798 0.010549 -0.0456475 0.0221209 -0.0428738 0.0635021 -0.0316062 -0.0440333 -0.0726075 -0.091297 0.05092 0.0191223 0.0765845 0.00721138 0.0530848 0.0137929 -0.124334 0.149971 -0.0419194 -0.0341659 0.0440442 0.0200324 -0.0473854 0.0310377 -0.00989975 0.0142407 -0.00850246 0.0420321 0.0329741 -0.012441 0.102249 6.58255e-05 0.000646785 0.0808626 -0.0789372 0.0334748 -0.0258914 0.0112118 -0.0187747 -0.0221996 -0.0361377 0.00755048 0.0625202 0.0317633 0.0567785 -0.16768 -0.0897381 -0.0960538 -0.0190969 -0.0956604 -0.0297112 -0.197032 0.0659402 0.0111759 -0.0620266 0.0680082 -0.00960902 0.116651 0.0452106 -0.00304942 0.0774841 -0.176296 -0.0289547 0.142595 0.0261891 -0.0448067 -0.0533406 -0.0636388 -0.0434628 -0.0629596 0.0435914 -0.021512 0.030727 -0.0892973 -0.000806861 -0.0551104 -0.00791551 -0.0261377 -0.0472243 -0.00302448
that -0.0438739 -0.0156544 0.036653 -0.020383 -0.0456356 -0.0504077 0.07906 0.00156022 0.0240114 0.00601017 0.0475478 0.0271344 -0.0318467 0.0394109 -0.003182 -0.0449423 0.0259044 -0.042749 0.0412435 -0.0611787 -0.124365 -0.0200478 0.0360001 -0.0643147 0.0245357 0.0227124 -0.00754489 0.0423722 -0.0089055 -0.0180467 0.0288849 -0.00762387 0.0189502 -0.102471 0.00796029 -0.00292518 0.0372463 -0.0900269 0.072127 -0.0248186 -0.0240015 0.0422496 0.0144673 -0.0498716 0.0263521 0.119714 -0.011424 -0.0192189 -0.0078042 0.0516054 0.0232254 0.0450598 -0.0553918 -0.0266251 -0.0127535 -0.131015 0.0439778 0.0451941 8.51933e-05 -0.0124817 0.135778 0.0112001 -0.00876993 0.0127386 -0.0510115 0.0847822 0.0171562 -0.0274117 0.0334138 -0.0209557 -0.103986 0.0501627 0.12655 0.0764432 0.0482635 -0.0827569 0.0425929 -0.0421452 -0.00512652 0.000825193 0.0249349 -0.00114234 -0.0254809 0.000443378 0.00589886 -0.0024165 0.0443397 -0.0223144 -0.00298674 0.0393537 0.0197754 0.039674 0.00164106 0.0944091 -0.000621227 0.0178433 -0.0180803 -0.0409979 -0.0641232 -0.0128169 -0.0115104 -0.0363365 0.029138 0.0778698 -0.0530499 -0.0178334 0.100133 0.0161494 -0.171114 0.074763 0.013843 -0.139405 0.0671255 -0.0212274 -0.102758 0.10541 0.00443503 0.00103165 0.0256202 -0.0331396 0.0687211 0.0303804 0.0175299 0.0608075 -0.0285895 0.0429411 -0.0159529 0.00540013 -0.0130514 -0.00785271 0.00986314 0.00581802 0.00802682 0.118099 -0.0667126 0.00358434 -0.0496366 -0.0192338 -0.074449 0.109958 -0.0362476 -0.063252 0.0363744 0.0304824 -0.0576448 -0.0147801 0.0138877 0.0370641 -0.0134052 -0.0405271 0.148639 0.00152291 -0.123688 -0.0376672 0.0353409 -0.036663 -0.0793093 0.0225744 -0.0112909 0.0203021 -0.167224 0.0378855 -0.0469023 -0.00482119 0.0135644 -0.0770645 0.0403574 -0.0656405 0.00750198 0.116533 -0.0589513 0.0273483 -0.0418162 -0.0146346 -0.00801563 0.031473 0.0967404 0.0161985 -0.000242521 0.0524411 -0.0390764 0.0469894 -0.0806656 0.0358962 0.109249 -0.101573 0.0500134 -0.0463041 0.0279832 -0.11752 -0.0357551 0.119259 -0.0596154 0.000495613 0.011572 0.0610575 -0.0340394 0.104129 -0.0763338 0.0526215 0.0439579 0.11932 0.00162862 0.0594848 0.0452886 0.00635032 0.0706022 0.00228281 0.0331794 0.142594 -0.0505134 -0.0174696 -0.0427552 0.0665465 0.00672156 -0.0278234 0.141214 0.0609399 -0.0419449 0.00327403 0.107087 -0.0474688 0.00856099 0.0327043 -0.0733937 0.132612 0.0210602 -0.0633763 0.0246209 -0.00679556 0.0241315 0.0589718 0.0512851 0.0148404 0.0673593 -0.0297716 -0.0304557 0.0905144 0.0100541 -0.00505625 0.011613 -0.05389 0.0011156 0.043359 0.119577 0.0555634 -0.0316465 0.00754116 0.00911195 0.0460659 -0.00760832 0.108532 0.0391056 0.00453017 0.0324506 0.0412808 0.0456306 -0.0199719 0.0652456 -0.0869923 -0.0483264 -0.0355809 0.144298 -0.0133884 0.0350207 -0.121884 0.0365274 -0.0271686 -0.0685358 0.00329953 -0.0125533 -0.0842562 -0.00426961 -0.00895027 -0.0249834 -0.0747058 0.0739733 0.00046079 -0.079323 -0.0562157 0.00767237 -0.164712 0.0239542 0.03453 -0.0474241 0.0224836 -0.0984859 0.0552724 -0.0641673 -0.0859426 0.0612857 -0.000133076 -0.0486696 -0.117949 0.071147 -0.015808 0.0441743 -0.0644509 0.0150009 -0.0557127
not 0.0147255 0.0190435 0.113715 -0.0307559 -0.0250851 -0.0309264 0.0225431 -0.0252912 0.0343543 -0.0185894 0.0429152 0.0455429 -0.0300622 0.0245226 0.0409848 -0.00647403 0.0284345 -0.0534892 0.0347871 -0.0291944 -0.105891 -0.0405478 0.0514307 -0.00251048 0.0248795 0.072295 -0.0338702 0.0658592 -0.0519694 0.0550115 0.0305333 0.00349865 0.0269277 -0.0062483 0.0269287 -0.016096 0.0605856 -0.051877 0.0736339 -0.0439318 -0.0224176 0.0428077 -0.0340908 -0.0693377 0.0611972 -0.0105879 -0.035312 -0.0300885 0.000583195 0.0254224 -0.0391102 2.68611e-05 -0.026641 -0.0450197 0.0382455 -0.0873155 0.0155768 -0.00146134 -0.00274189 0.0139621 0.00185806 0.0692142 0.0445145 0.0498567 -0.11224 -0.0391696 0.0780371 -0.0141 0.00902118 -0.041474 -0.0259726 0.0756495 0.0245815 0.00783465 0.0531529 -0.0375507 0.0224068 -0.0355145 0.0232942 -0.00140504 0.134118 -0.046014 0.00395787 -0.00238237 0.0129042 -0.067664 0.030041 -0.0285197 0.0672002 0.00671526 -0.0217497 0.0327493 0.0495933 0.0544252 -0.0234177 0.0680442 0.0049724 -0.0670654 -0.0965981 0.0514818 0.0319073 0.0245138 0.0547351 0.0183353 -0.00251409 0.0313618 0.0281938 -0.0234884 -0.0626255 0.0511858 -0.0357035 -0.130367 -0.0266596 -0.000834759 -0.0418686 0.132065 0.0252783 0.0282713 -0.0413459 -0.00572709 0.0704416 0.047309 0.0400798 0.0704059 -0.0567729 0.0135592 0.00141795 -0.0098859 -0.0107015 -0.0666722 0.0161698 0.0564542 0.0288379 0.06874 -0.0652001 0.0300932 -0.0630667 -0.056541 -0.0414208 0.13566 0.0180191 0.0152385 0.0127575 0.0185192 -0.0714287 -0.0728978 -0.0337582 0.0306671 0.00987557 -0.0549438 0.0436647 0.00355651 -0.0842585 0.00321971 0.0257474 -0.0540739 -0.00657063 -0.00371251 -0.016424 0.0506889 -0.0579646 0.0707448 -0.0519105 -0.0272103 -0.0367537 -0.00798238 0.0700082 -0.123314 0.0198111 0.073808 -0.0670839 -0.0229657 -0.042176 -0.074137 -0.00718843 0.0180584 0.103672 0.0385477 -0.00676485 -0.125072 -0.0591191 0.0138706 0.0407648 -0.0415158 0.0207001 -0.0971001 0.00135028 0.020916 0.0533812 -0.000759858 -0.129349 0.0451617 -0.0500127 -0.0428119 -0.0259457 -0.0383514 -0.074353 0.045156 -0.00854595 0.057354 0.122155 -0.0267438 -0.00842611 0.0455502 0.062781 0.0209831 0.0664956 -0.0208147 -0.0474475 0.0855747 -0.0018374 0.050209 0.0163171 0.0799416 0.0689725 -0.0507349 0.0455801 0.0227327 -0.117861 -0.0286411 0.0934858 0.0272965 0.0188389 0.0217766 -0.038712 0.117283 -0.00953051 -0.12995 -0.0317064 -0.104842 -0.0323211 0.017813 0.0909123 0.0601683 0.0661474 0.100999 0.0488505 0.0968176 -0.0220194 0.068895 -0.00763887 -0.0330262 0.0400865 0.0866899 0.0785789 -0.00104035 -0.0177206 -0.107759 0.0104706 0.0301846 -0.0265537 0.02455 -0.00359215 -0.0934879 0.109344 -0.00366757 0.0398293 -0.0177908 0.116552 -0.033738 -0.0943743 -0.0140767 0.133487 -0.0431156 -0.0448187 -0.0288369 0.117561 0.0283121 -0.1268 -0.0440521 -0.0162034 -0.0479919 0.0991602 0.0356875 -0.0286086 0.0211515 0.151624 -0.0107444 -0.0880232 -0.0543781 -0.0657486 -0.172331 0.0425639 0.136407 -0.0760752 0.0140241 0.0359964 0.0618879 -0.0190543 0.0631049 0.141113 -0.0796725 0.0348982 -0.028295 0.0126862 0.000716984 -0.067537 -0.145532 0.0542785 -0.145306
&apos;s -0.100763 0.0318318 -0.0240666 0.0162146 -0.0275889 -0.10074 0.0107513 -0.0514432 0.0751252 0.0246604 -0.0550244 0.0307819 -0.0517823 -0.0617517 0.0192796 -0.0738163 0.00741099 -0.0458252 0.0153915 0.030108 0.0382153 -0.0490861 -0.0358527 0.0187683 -0.0506268 0.000411856 0.0175624 -0.0536984 -0.0406979 0.0129216 0.0526958 -0.00213874 0.0390378 -0.0269484 -0.00152551 -0.00318264 0.0522875 -0.0554641 0.0129271 -0.04649 -0.0137368 -0.0539604 -0.0268228 -0.0537275 0.0686108 0.0305392 -0.0247939 -0.0035217 -0.0189569 0.0876089 -0.01752 0.123309 0.0127766 -0.0309104 0.0296124 -0.118926 -0.0217993 -0.0619464 0.0926749 0.0326901 0.0778766 0.032297 0.066418 0.0373212 -0.0408829 -0.00750804 -0.0343418 0.0274136 -0.038225 -0.000941386 0.0131612 0.0349878 0.0882312 0.0888578 -0.00568713 0.0162595 -0.0246295 -0.050409 -0.00579631 0.00480822 0.00270466 0.0433953 0.0708599 -0.0109169 -0.0955464 0.0754686 0.118953 -0.0277321 -0.0699482 0.030464 0.0557716 -0.00637498 -0.0240514 0.112979 0.023443 0.0408138 -0.0317056 -0.0886 -0.125209 -0.0128519 -0.00108878 0.0448311 0.0515833 0.00204048 -0.0378817 0.000551366 0.0179652 0.021388 -0.105131 0.0774114 -0.00635011 -0.0470432 0.0125298 -0.0445041 -0.0887438 0.0345334 -0.0286395 -0.00783255 0.0509088 0.0151641 0.0542789 0.0165313 0.0351406 0.0479658 0.0382765 0.0126026 0.0456924 -0.0252494 -0.00819042 0.0498722 0.0558499 0.0204666 0.0903894 0.107288 0.0929928 -0.0380727 0.0440613 -0.0451307 -0.0853495 0.101092 -0.000533169 -0.0304161 -0.0188156 0.0110934 -0.053568 0.00732425 0.0492383 0.0337213 0.014546 0.0123793 0.0764384 -0.0245585 -0.150298 -0.0423235 0.00889161 0.0180186 -0.0369955 -0.0334331 -0.039369 -0.0263266 -0.159121 -0.0624954 -0.00718049 0.00291939 0.0849443 -0.0126408 0.0687588 -0.0245349 0.0714161 0.0670713 -0.0704456 0.0541175 -0.0817234 0.00926404 0.0220746 -0.0255357 0.0880123 0.00648173 -0.0124024 0.0128864 -0.0182151 -0.0507851 -0.0342023 -0.016117 0.0412196 -0.00591459 0.0306642 0.000633858 0.00538749 -0.0437138 -0.0771475 0.0680485 -0.00745648 -0.033401 -0.059761 0.0128173 -0.0364884 0.141648 -0.00451404 0.0316674 0.00499868 0.076951 0.0614745 0.0716769 0.103746 0.049074 0.0282616 -0.0353068 0.0249352 0.0874834 -0.00109606 -0.0228814 -0.0825447 0.0854277 0.0342605 0.063202 0.0273426 0.0442306 0.00357326 -0.120525 0.0844869 -0.0412645 0.00499747 -0.0207445 0.00374917 0.207805 0.0167733 -0.0333021 0.0137714 0.00408035 0.030905 0.107112 0.0797248 0.0238179 0.0633737 0.0471348 0.0538422 0.0931954 -0.00754079 0.035581 0.0150027 -0.0790624 -0.0180422 0.000696941 0.143152 0.0833581 -0.0906247 -0.0151216 0.0225186 0.0405584 -0.0484061 0.0943515 -0.0331978 0.124326 -0.0967874 0.080059 -0.0035308 -0.0609917 0.0829008 -0.0408623 -0.0133414 0.0140116 0.107436 0.00885521 -0.144115 -0.0946105 0.00908874 0.0320308 -0.0237215 0.010593 0.111369 0.0171973 0.106056 0.0373982 0.0118528 -0.0533223 0.0711438 0.0294905 0.0664696 -0.0161728 0.0147583 -0.0350727 -0.0324032 0.00185608 0.0172579 0.0518569 -0.100519 -0.00330819 0.0606508 0.0832671 0.138217 -0.0870224 -0.0612847 -0.0610469 0.0525459 -0.177894 0.0382292 -0.0203199 -0.0186488 -0.0819679
for -0.0211851 0.0992047 -0.0586093 -0.00145668 0.0324676 -0.0952448 0.0512368 0.00630075 0.027998 0.00474328 -0.0216298 0.050052 -0.0506784 -0.0212455 0.0769912 -0.055124 -0.0180743 -0.00981177 0.0482584 0.0417139 -0.0402713 -0.0195626 -0.00342665 -0.0156502 0.00370732 0.0113177 0.0809376 0.0343579 -0.0285265 0.00112913 0.0638782 0.00632828 0.0785317 -0.0249821 0.0359013 0.0777981 -0.000965063 -0.0282218 0.00434425 -0.000994947 -0.00797188 0.0310121 -0.082464 -0.0834642 0.0673986 0.0542967 -0.0681515 0.00149828 0.0421458 0.0215894 -0.056061 0.0649739 -0.00301121 0.0188524 0.0308398 -0.096313 -0.0569147 -0.0569968 0.0816126 -0.000724823 0.0910576 0.0280179 0.010018 -0.0348478 0.00666228 -0.00189614 0.0400651 -0.0375683 -0.0559731 0.00489622 -0.0936322 0.00333114 0.0978997 0.032392 -0.0486153 0.00322039 -0.0118192 0.0112737 -0.00104944 0.0324741 -0.0278808 0.0134986 -0.0303646 -0.00477141 0.0307736 -0.0258159 -0.0101475 0.00282839 -0.0258382 0.0256776 0.00794083 0.0205734 -0.0197343 0.0988695 0.0567676 0.0748935 0.00182466 -0.0248608 -0.0180544 -0.00278327 -0.0131751 0.00369326 0.0610211 0.1248 -0.0853363 -0.00668044 0.0233561 0.00276569 -0.0373996 0.0342026 0.0143593 -0.03443 0.0779434 0.00874299 -0.162446 0.0661148 0.103575 0.0221543 0.000491028 0.0667089 0.113478 0.0172774 0.0378513 0.0439751 0.0326481 -0.00166469 -0.0330243 -0.0324207 -0.00859065 -0.0443384 0.100971 -0.041278 -0.0574356 -0.0183362 -0.0176213 0.000684978 0.000826193 0.0239408 -0.0529543 0.0570384 -0.0224719 -0.00587945 0.0827845 -0.002611 -0.00829591 -0.0404846 0.034655 0.00667634 0.0314955 0.0121515 0.0424944 -0.0738845 -0.159439 0.0827078 0.0179542 0.0210046 0.0815505 -0.0354132 0.0406973 -0.0108348 -0.0739296 0.03096 -0.117067 0.0323141 -0.0489276 0.0270136 0.0401559 -0.0377488 0.0241031 0.135439 -0.121153 -0.0428267 -0.024876 -0.0278321 0.00945551 -0.0169909 0.0847164 0.00750312 -0.062132 -0.0867397 -0.0415206 0.0891251 0.0278462 0.0678961 0.00707186 -0.0691412 0.0424388 -0.0661704 -0.0451101 -0.10632 -0.0419589 0.0375713 0.0509802 0.0452302 0.069058 0.0242016 -0.0188618 0.0564688 -0.0155453 0.0208482 -0.0172006 0.0488057 -0.0260884 -0.0678111 0.126939 -0.00223951 0.0132068 -0.0560217 0.0819484 0.0363507 0.0379539 0.0435087 -0.108744 -0.00980767 0.00420069 -0.153766 0.0675656 0.0828783 -0.0384473 -0.0839945 0.0457881 -0.0805948 0.0221525 -0.0141373 0.00968989 0.185007 0.0305146 0.00338973 -0.0365886 0.00497825 0.032095 0.0687164 0.0425735 0.0290421 0.112825 0.0160369 0.00383271 0.0390397 -0.0862305 -0.0711194 0.0775397 -0.0571848 -0.039526 -0.113972 0.0221144 0.0143541 -0.168419 0.0414766 0.0587751 -0.0271665 -0.00295437 0.050621 0.000714862 0.132247 -0.0297687 0.123733 -0.00250553 0.0895142 0.12361 -0.0554961 0.095263 -0.0254983 0.110562 -0.0765828 -0.150272 -0.0172252 -0.0272134 -0.0525722 0.0385299 0.0160135 0.0104598 -0.00532689 -0.0861098 0.030323 0.0453328 0.0230824 0.0463687 0.0510763 -0.00634704 0.027838 0.00499935 -0.0698543 0.0585103 0.0398518 -0.129974 0.0196628 -0.0625147 0.00971919 -0.0464596 0.0468106 0.0980046 -0.075439 -0.0624467 -0.0733343 -0.141749 -0.0687603 0.060049 -0.0771588 0.0546248 -0.0328215
I -0.00123694 0.0270637 0.0239019 -0.0983491 -0.0240675 0.0120853 0.00424487 0.0419917 0.0227101 0.00371081 0.0311077 0.0875697 -0.0679065 0.028997 -0.0793872 -0.011964 0.00191912 -0.0119153 -0.022006 -0.0169697 -0.0756747 -0.0564308 0.0650338 -0.00624556 -0.0153923 0.00674431 -0.0522297 -0.00340279 -0.113026 0.0670945 0.0300749 -0.00902623 0.0648146 -0.0605052 0.0131761 -0.013989 -0.00806119 -0.0894507 -0.030068 -0.0691516 0.0489783 0.0419406 0.00330215 -0.00551224 0.0879682 -0.0096589 -0.00775683 -0.049098 -0.012397 0.0494933 -0.0687876 0.000721952 -0.0169953 -0.0711921 0.0322955 -0.0584583 -0.0579534 0.0231776 0.020599 -0.055708 0.0380833 0.0673627 -0.0160737 0.0715735 -0.0817819 0.0105156 -0.0640188 -0.0562291 -0.0328953 -0.038453 -0.0275446 0.0497425 -0.0210231 0.0456003 -0.0581872 -0.027269 -0.036824 -0.0207646 0.0129412 0.0261693 0.0611046 0.00341497 0.0484077 0.0463657 -0.000759694 0.0258689 0.0808773 -0.0264018 -0.0538315 -0.0526222 -0.01727 0.0432055 0.0219548 0.00543148 -0.0191721 0.131641 0.0200621 0.0196039 -0.0474658 -0.0416622 0.0359191 -0.0282117 0.0698942 0.0656392 -0.0039052 0.0257918 0.0217783 -0.00789684 -0.0650589 0.00423797 0.0317274 -0.0127058 -0.0193969 -0.0571767 -0.0240375 0.0534517 0.0619296 0.101952 -0.0162908 -0.0490457 0.0561029 0.0661299 0.0605068 0.0735385 0.0461563 0.0103123 -0.0148331 -0.00198121 0.0326774 -0.0318877 0.0585017 0.0677324 -0.0240083 -0.0512521 -0.042217 0.0391194 -0.0596295 -0.00770448 -0.0522963 0.0443301 -0.0173504 -0.0808834 0.0350328 0.0438967 0.007713 -0.0103147 0.00392833 -0.00684982 -0.0559807 0.0170964 0.168159 0.0436162 -0.120855 0.0167145 0.0356849 -0.00917395 0.0237879 -0.0704027 0.0196453 0.0719002 -0.07063 -0.0156419 -0.00857496 0.0399578 0.00287077 -0.0607162 -0.0317558 0.0228594 0.0142609 0.0369413 -0.00599882 0.041204 0.0956646 0.0991112 -0.0301049 -0.0462265 0.143922 0.0154211 0.025647 0.0231297 -0.0385208 0.0985966 0.0408717 -0.106233 0.0616679 -0.041734 -0.0426333 -0.00262606 0.0454428 -0.00535884 -0.0968723 0.0189883 0.026112 -0.0382306 -0.00444088 -0.0496755 -0.0168468 -0.0488525 0.0443459 0.0621159 -0.0223148 0.00293123 -0.0490725 -0.0179697 0.00213704 0.075857 0.0285258 0.089908 -0.0472134 0.0737788 -0.0544447 0.112186 0.0349065 0.040588 -0.0620234 -0.0238386 0.0663194 0.00979607 0.00362762 -0.0735142 -0.0118171 -0.0212211 -0.0619268 0.0618014 -0.0210093 0.00528336 0.00375099 -0.111655 0.0921055 -0.0841868 -0.031522 0.0596814 0.00277499 -0.0350019 0.0751476 0.0144541 -0.0428918 0.0913158 -0.00765984 0.0426642 0.0198068 0.04815 -0.102844 0.0969636 0.029609 -0.00908873 0.0807321 -0.0193219 -0.0930966 0.00447497 0.0852586 -0.0700383 -0.108935 0.0790568 0.0578329 -0.0377302 0.0593827 0.00588235 0.157677 0.00438244 -0.0142 -0.080168 0.112308 -0.191286 -0.0836645 -0.145928 0.147756 0.0806334 -0.009917 -0.0912976 -0.0681991 0.0866209 0.0575573 -0.019429 0.0628821 -0.105528 0.000408254 -0.0392334 0.0408283 0.00535763 -0.0307079 -0.0568484 0.0679869 0.0448244 0.010798 0.00100359 0.0641495 0.130192 -0.0618586 -0.140756 -0.0225295 -0.0746918 -0.00248767 -0.0537508 0.0585321 -0.0498577 -0.0562129 -0.162039 0.0111661 -0.178301
it -0.0359977 -0.0108254 0.0396565 -0.0443352 0.0154779 -0.034122 0.0914305 0.00835531 0.0169799 0.0605852 0.014461 0.0180431 -0.112591 -0.00632383 0.0199819 -0.0147576 0.0347038 -0.0740881 0.0152456 -0.0632562 -0.126099 -0.0445462 0.0732453 -0.0601115 -0.0252656 0.00816928 0.0188859 0.0724097 -0.0345023 0.0585882 0.0457456 -0.00562667 0.0132414 -0.0810164 0.0471678 0.039751 0.0771912 -0.0673839 0.0369368 -0.0543018 -0.0302028 0.00441361 -0.00811281 -0.0806027 0.0325279 0.160468 -0.0121526 0.0145359 -0.0552438 0.0758028 -0.0392375 0.0646422 -0.0296079 -0.0509318 -0.0199777 -0.114785 -0.00994459 -0.00404155 -0.0132872 -0.0150191 0.0616877 0.0801261 -0.0427085 0.0502555 -0.0818836 0.0322236 0.00467453 -0.0681744 0.038743 -0.052297 -0.0642363 0.030204 0.0529057 0.11033 -0.0722112 -0.0351365 -0.0101627 -0.00258005 0.00901206 -0.00554762 0.077417 -0.0107428 -0.018609 -0.0484986 0.0915797 -0.00184901 0.0344025 -0.0207106 0.00453842 -0.0685167 -0.0225174 0.0496177 0.0196657 0.103244 -0.000551552 0.0365974 0.0171267 -0.0976646 -0.0628794 -0.0420244 -0.0194387 0.0238332 0.0360399 0.0507303 0.00635474 -0.019863 0.0754206 0.0368482 -0.107512 0.00840285 -0.00974251 -0.123366 0.0464939 -0.0652609 -0.0329992 0.0413195 0.0237839 0.0190529 0.0353023 -0.0169882 0.12839 0.0586744 0.0192913 0.0594755 0.00155124 0.0553288 0.0350034 -0.0397249 -0.0239497 -0.0343086 -0.0224728 0.0382348 -0.051755 0.0925586 0.0288216 0.00778058 -0.0236549 0.0233168 -0.0746147 0.1163 0.0589698 -0.0797528 0.0471227 -0.00302938 -0.0412517 -0.00828517 0.00386384 0.0588616 0.00329386 0.00580438 0.0739847 0.0367555 -0.0780405 -0.041751 -0.0161454 0.0488475 -0.064537 -0.0748346 0.0248692 0.0141823 -0.0679931 0.0645691 -0.0394521 0.0152111 -0.00158928 -0.0137698 0.0858431 -0.0848785 -0.00929794 0.125314 0.0135392 0.0274891 -0.0903149 -0.0333648 -0.0405451 0.072676 0.113371 0.0250065 0.00482549 0.0434966 -0.000883197 0.0229501 -0.0909865 -0.00807478 0.0755086 -0.0999903 0.0354717 0.0403887 -0.0582375 -0.0776863 -0.0966245 0.11928 -0.0550209 0.00281006 -0.00799454 0.00162019 -0.00164158 -0.00181513 0.0164503 0.042882 0.0616223 0.0253667 -0.0510418 0.0191516 0.105215 0.0241138 0.0198381 0.113934 -0.0763122 0.0746426 -0.0410051 0.0627664 -0.0242826 0.0396987 -0.0280109 -0.0525532 0.0997567 0.0463482 -0.123186 0.0132931 0.0420065 -0.0157097 0.000505788 0.0294029 0.0354176 0.133859 -0.0240823 -0.0978732 0.066181 0.0123035 0.0222743 0.070358 -0.0332007 0.00563023 0.119773 0.0183706 -0.00760108 0.0364328 0.0370877 0.0421765 0.0153389 -0.0738492 -0.0128557 0.102866 0.0754932 0.0129668 -0.0616271 -0.0227539 -0.0285315 0.0762854 0.0289785 -0.00739722 0.0469771 0.0962441 0.0878585 0.0991546 0.00445878 -0.00195183 0.0440012 -0.0302153 -0.114899 -0.0343728 0.162906 -0.0171908 -0.0325927 -0.086734 0.0631106 0.0244609 -0.00705012 -0.0236199 0.0105871 -0.0333808 -0.0528355 0.00394764 -0.0116165 -0.0815828 0.0679034 0.0222071 -0.0628306 -0.00867982 -0.0604039 -0.108296 0.0345879 0.0532082 -0.0668817 0.0695134 -0.0494145 -0.0753838 -0.156317 -0.159971 0.00710064 -0.0248852 0.015475 -0.015658 0.0260823 -0.046945 -0.0237572 -0.0141216 0.0342515 -0.178531
on -0.0122936 0.00912 0.0591483 -0.00960235 0.0012508 -0.0909602 0.026311 -0.0067292 0.029129 0.0544102 -0.005087 -0.0171849 -0.00568732 -0.00616802 -0.0110709 -0.0267613 0.0631372 -0.067894 0.109885 0.059027 -0.0201143 -0.0089855 0.0277244 0.0359767 0.0840761 0.0679662 0.0428195 0.0177775 0.00616526 0.0377981 -0.00162345 -0.0470746 -0.0593759 -0.0497262 0.00159148 -0.027037 0.0305005 -0.0507862 0.0186755 0.0675467 -0.0603583 0.022122 -0.047686 -0.093888 0.0626372 0.0353593 -0.0446397 0.00226291 0.0441508 0.0551539 -0.089248 0.0165146 -0.0375809 -0.00709303 0.0274846 -0.10758 -0.0105764 -0.0483883 0.0410218 0.0217019 0.150744 0.0540028 0.045127 0.0364128 0.047971 0.0232063 0.0649949 -0.063275 -0.116584 0.0120158 -0.00608974 0.0748178 0.0586516 0.0414965 -0.0462417 -0.0251043 0.0493067 -0.0208667 -0.0404584 -0.0124661 -0.01311 -0.0635501 -0.0645225 -0.0738668 0.00959188 -0.0259775 -0.0035523 0.0231572 -0.0837239 -0.0090533 -0.0321576 -0.00608202 0.0986823 0.00388637 -0.0509119 0.0307524 0.0338588 -0.0650076 -0.0184743 0.018579 -0.0235652 0.0254466 -0.00759688 0.11375 -0.0277613 -0.0531842 -0.0118702 -0.0129138 -0.0440951 0.0259631 0.0199445 -0.107299 0.108496 -0.0116282 -0.088016 0.0742593 0.0278242 0.0334878 -0.032318 0.0274466 0.00114662 -0.0196562 0.0205332 -0.00767295 0.0176882 -0.0380147 -0.10249 -0.0306924 0.00471766 0.0211473 0.0676255 -0.0050429 0.0667148 -0.00142776 0.0148762 -0.00913875 -0.0591769 0.0809549 -0.0513474 0.0425179 -0.0795635 -0.0478817 0.0135813 0.0347413 0.0155631 0.00735157 0.0411497 0.147496 0.068443 -0.0579862 0.0265359 -0.0782152 -0.0893241 -0.020455 -0.00777935 0.0411464 -0.00527884 -0.11789 -0.0768387 -0.0362876 -0.0159617 0.033253 -0.0895722 0.0202411 0.0110373 -0.0111801 0.116413 -0.062259 0.135451 0.14667 -0.0817228 0.0602017 -0.0466573 -0.0416773 0.0178503 -0.0329883 0.12422 -0.0108713 -0.00192168 -0.0224704 -0.0168387 0.0487135 0.0119706 0.120724 -0.0172808 -0.00316642 0.0623158 0.0280033 -0.0521611 -0.0796793 -0.120838 -0.0307304 -0.00697506 -0.025499 0.00969717 -0.00878649 -0.0956195 0.0396641 0.00827548 -0.0322204 0.044874 0.0932116 0.024902 0.034894 0.0575243 0.00408592 -0.0198061 -0.0173707 0.00467742 0.034189 -0.033996 -0.0274058 -0.0738768 0.0533248 0.0365192 -0.0379943 -0.0315898 0.0610165 -0.0436596 -0.0269576 0.0542492 0.0318974 0.0211738 0.0497356 -0.0647716 0.0927077 0.0337618 -0.0304873 0.0141138 0.0057849 0.0152147 0.0319603 0.0405935 0.0900633 0.0595805 0.0569636 -0.111623 0.0655302 -0.103685 0.0876091 -0.0371939 -0.112684 -0.0335319 -0.08109 0.0718685 -0.0292641 0.00102313 0.0907982 0.00912221 0.0872067 -0.04054 -0.106722 0.0087468 0.14243 -0.082494 0.0103289 0.00930853 0.0614884 0.00786479 -0.0473117 0.0126078 -0.0769792 0.0403454 -0.137657 0.083204 -0.121183 -0.178964 -0.044632 -0.000574962 -0.0666939 0.110608 0.034818 0.00930523 -0.00669778 0.0307216 0.0615446 0.0221545 -0.0170758 0.0365533 -0.0535161 0.0113041 -0.0971178 -0.0296929 -0.042841 -0.0620457 0.0257366 -0.0580039 0.0521738 -0.0688322 0.0147825 0.0537063 0.00456221 0.0663444 -0.111096 0.0188817 -0.140263 -0.00204572 -0.0710654 -0.135945 -0.105864
are -0.0848679 0.0789393 0.0324804 0.063991 -0.0192098 -0.0559555 0.00628553 -0.00398207 0.0393525 0.0285286 0.0153197 0.0174416 0.0628453 -0.0239346 0.0223427 -0.00487192 0.0496167 -0.0626268 0.0904145 -0.0599423 -0.0832947 0.0233988 0.064084 -0.0168143 0.0459572 -0.00255935 -0.0287605 0.0696402 -0.0191566 -0.0410455 -0.016361 0.00977978 -0.00521071 -0.00627691 -0.0455959 -0.00438027 0.0269472 -0.0121647 -0.0582978 0.0540229 -0.00938733 0.0097333 -0.110478 -0.0152277 0.027747 0.0809481 0.0255399 0.0176835 -0.0104598 0.0429287 -0.0713116 0.0207173 0.0294064 -0.0723682 -0.0663242 -0.0307357 0.0319059 -0.00968203 -0.00793299 -0.0349243 0.0739385 0.0303955 0.0612098 -0.0484974 -0.034448 -0.0282214 0.0305191 -0.070415 0.0593654 -0.0305436 0.000634926 0.0611633 0.0650845 0.0229508 0.0404412 -0.0807809 0.0818509 0.059201 -0.0350925 -0.00954259 0.0306892 -0.0068112 -0.0385039 0.086775 0.104651 -0.094962 0.00937056 -0.0225397 0.0594382 -0.0455139 0.022682 -0.0241397 -0.0110952 0.0256985 -0.0150859 -0.0105551 -0.0136991 -0.0222747 -0.0207307 0.0174669 0.0235412 -0.00269592 0.139607 0.0336013 0.0222574 -0.0121944 0.0947976 0.0651564 -0.0975626 -0.0386232 -0.0224898 -0.111683 0.0220101 0.020113 -0.0382235 0.0759607 0.0933069 -0.036715 -0.0334153 -0.0193262 0.00662959 0.115605 0.036347 0.0757336 0.108364 0.0341303 -0.0390343 0.0606276 0.0143872 -0.0973623 0.128971 -0.00272084 0.0167031 -0.0146805 -0.043969 0.0224333 0.0656365 -0.0337886 -0.0751437 0.09357 -0.0837145 -0.0897729 0.02145 -0.10402 -0.0849412 -0.0705214 -0.0481624 -0.016672 0.00834988 -0.045594 0.0624672 -0.0131073 -0.0731895 0.0571697 0.0494898 -0.0895721 -0.0378823 -0.0247746 0.0223154 0.0275184 0.00692094 -0.0376274 -0.161287 0.0472131 -0.0314732 0.0955907 0.0167343 -0.0220418 0.0390918 0.117057 -0.112774 0.0944809 0.0244186 -0.00122241 -0.00470325 -0.0160644 0.0305771 -0.0259203 -0.0827407 0.026608 -0.0262467 0.0147667 -0.1043 0.0799605 -0.0609366 0.0255777 0.0648933 -0.00902698 -0.114989 -0.0743635 -0.0831313 0.0490714 0.064267 -0.034183 -0.109402 0.0349392 -0.0979061 0.0287499 -0.0108014 -0.0179576 -0.0159661 -0.000819415 -0.0285458 -0.00321345 0.100237 0.0568132 0.0757623 0.0340814 0.0256117 0.0709896 -0.0573331 0.00649446 -0.128829 0.0767892 0.0346991 -0.0386486 0.0202472 -0.0566033 -0.034943 -0.0363322 -0.0024271 -0.0662259 -0.0086441 0.0535576 -0.149934 0.0170582 0.00945585 -0.0802408 0.0166001 0.0282391 0.0512014 -0.0766651 0.0552108 0.0508152 0.0861377 0.00164218 -0.00295133 0.04047 -0.107193 0.0199146 -0.00595154 0.0916987 -0.0279233 -0.108581 0.0650366 0.0431755 -0.0233916 -0.0376634 -0.0732178 -0.00211275 0.015037 0.0580189 0.104009 0.131334 0.0799955 0.0533717 0.0781616 -0.0687815 0.0192792 -0.0163255 -0.03196 0.145385 0.0803093 0.00572488 -0.0702995 0.0537076 0.00352157 0.0594885 0.0524996 0.0540526 0.0885509 0.0564859 0.0289263 0.0544762 -0.0442877 0.0498884 -0.0352339 0.119683 -0.0382815 -0.0139051 0.0321963 -0.0806678 0.0257234 0.0021899 0.00114239 0.0239533 -0.159761 0.0361256 0.0588987 -0.032491 0.0248407 -0.0383783 0.0582685 -0.090321 -0.0152076 -0.0042921 0.079477 -0.0671369 0.0334316 -0.0891504
have -0.0403855 0.0663262 0.0215917 -0.0256193 -0.0112741 -0.0122913 0.0220856 -0.00427356 -0.00175451 -0.0143236 0.0276259 0.0382531 0.00680545 0.0665824 -0.0127447 0.0047403 0.0118595 -0.0128356 0.0781092 -0.0849711 -0.109415 0.0301131 0.0476109 -0.0828546 -0.00259043 0.0698075 -0.0889171 0.0764168 -0.0396728 -0.0136622 0.0423151 0.0509228 -0.00793764 -0.0404548 0.116844 0.00481937 0.0326691 -0.107518 -0.0135056 -0.0181936 0.052763 0.0942838 -0.0999422 -0.0174208 0.0561766 0.0552035 -0.00775177 0.103977 -0.00546993 -0.0244758 -0.0371399 -0.0240162 -0.0290256 -0.0274416 -0.0298538 -0.03644 -0.0085348 0.027935 -0.0330219 0.000130933 0.0918397 0.0589575 0.0348432 0.0236024 -0.0212014 0.0488294 -0.012833 -0.0577991 0.0106451 -0.0317074 0.0267212 0.0491883 0.0629712 0.0323241 0.0200795 -0.0755105 0.0974544 0.00987648 -0.0438724 -0.0188226 0.0148155 -0.0462631 -0.0446123 0.081305 0.0323739 0.00253292 0.0319888 0.0285127 0.0603972 -0.0174958 0.0768368 0.047518 -0.0437338 0.024177 0.0103561 0.0431438 0.0308176 0.00153731 -0.0168822 0.00744215 0.00481116 0.0181248 0.0807206 0.0704858 -0.0148602 -0.0564112 0.0555486 -0.020595 -0.100214 -0.0505613 -0.0382731 -0.0932384 0.0498394 -0.0265517 -0.0538423 -0.0286908 0.0566068 0.0544241 -0.0432937 -0.0939203 0.0214238 0.0790622 0.0548503 0.0838784 0.116999 0.0632624 -0.0653804 0.0895861 -0.0633538 -0.0435736 0.0849167 -0.0486687 -0.0254468 0.00600393 -0.0959104 -0.0533253 0.0170629 -0.0196051 -0.0863292 0.118339 -0.0218628 -0.0321767 -0.00182074 -0.051197 -0.0408681 -0.0582355 0.0620573 -0.000328617 -0.00307308 -0.0571034 0.111836 -0.0336031 -0.00423813 -0.000447741 0.12353 -0.0339348 -0.042427 -0.0263448 -0.0216322 0.041263 -0.0697202 -0.0516689 -0.0924785 -0.0258781 -0.0461851 -0.0210736 0.0683631 0.00333443 0.0475344 0.0853228 -0.035276 0.067406 -0.0902808 -0.00863903 -0.0548744 -0.025208 0.105079 0.00617646 -0.00537237 0.0751917 -0.0934212 -0.0147626 -0.0800341 0.0476294 0.00575388 -0.0860057 -0.00344124 0.0181058 -8.98562e-05 -0.13111 -0.0484792 0.0970976 -0.0419151 -0.0016436 -0.00315113 -0.0249543 -0.0741904 -0.0314343 -0.00395367 -0.134015 0.0801132 -0.0296371 -0.0296125 0.0118271 0.13382 -0.00579085 0.0800275 -0.0305783 0.0135195 0.0590484 0.0590951 -0.0133321 -0.00513259 -0.0543959 0.0178655 0.0167117 0.0792147 -0.0167559 0.0342866 -0.00969882 -0.0347687 -0.0896755 0.0207193 0.112738 -0.0629163 0.0942966 -0.0315087 -0.0152981 0.0355317 -0.0291314 -0.0704996 0.0301876 0.0858614 0.033959 0.149927 0.0138769 0.00232137 0.0655288 0.0251669 0.0173905 -0.0326763 -0.0136094 -0.0466369 -0.0310404 0.0397488 0.0046792 -0.0835663 0.0241718 0.0273153 0.022921 0.0187794 0.0148828 0.0894829 0.0148191 0.09271 0.184221 -0.00555619 0.0128299 0.0921185 -0.0637928 0.0297398 -0.0380359 0.0674794 -0.023379 0.0207568 -0.0187692 0.119636 0.0252265 0.0977728 0.051311 0.0350372 -0.0236537 -0.00696668 0.00877921 0.081076 -0.0566756 0.0753108 0.0555897 -0.056594 -0.104477 -0.00763367 -0.0826148 0.0234145 0.0139128 0.0126856 0.102926 -0.0503015 0.0462092 -0.0896595 0.0435464 0.117789 -0.0970247 0.069388 -0.148387 0.0661116 -0.00149367 0.143604 -0.121682 -0.04195 -0.0174413
with -0.0151923 0.00504732 0.00800208 0.0448969 0.0122747 -0.0604431 0.0203337 -0.0721216 0.0354073 0.0587532 0.00583183 0.0234406 -0.0476837 -0.0140544 0.0210438 -0.0311965 0.0729126 -0.0464812 0.0521648 0.0189846 0.0312161 0.0475283 0.0760906 -0.0169418 0.00895125 0.0747738 0.0224613 -0.0247459 -0.00820012 -0.0193758 0.0808501 -0.011737 0.0207922 -0.105243 0.0620411 0.0338383 0.0196734 -0.0306707 0.00657913 0.0475595 -0.0402473 -0.038879 -0.00401718 -0.141347 0.143618 0.0737393 -0.0253116 0.0314607 0.069477 0.0206341 0.0127261 0.0250364 -0.0315378 -0.0288495 -0.018728 -0.152819 -0.00957492 -0.012406 0.0690218 -0.0756064 0.0916275 0.0156239 0.0143979 -0.0023672 0.00642978 -0.0578325 -0.0193441 0.00630122 -0.0153881 -0.00226325 -0.0674922 0.0591925 0.110022 0.0756409 -0.0301816 -0.0854199 0.0356212 0.00737458 -0.0747114 -0.0176541 0.0816604 -0.0127447 -0.00685212 -0.0094759 0.0493446 -0.109358 -0.016926 -0.0120439 -0.00319766 0.0797451 0.0519585 -0.0204716 0.0111456 0.0939477 0.0633497 0.114801 -0.0015619 -0.0401526 -0.141234 0.0127387 -0.0947946 -0.00761037 0.0351195 0.0464664 -0.0716089 -0.0224159 -0.0602292 0.0224421 -0.103695 -0.0344182 -0.0598419 -0.12385 0.00515564 -0.0538968 -0.0489562 -0.0198999 0.0324897 0.0408824 0.0358187 -0.00207944 0.096636 0.031673 0.0113141 0.0857585 0.00158324 -0.0524432 -0.109974 -0.0187505 0.0454073 0.0358926 0.114941 -0.0188665 -0.0217627 0.0376979 -0.0162088 -0.025834 -0.102193 0.0556879 -0.0787702 0.068158 0.00976749 -0.0731583 0.043667 -0.0974172 0.0164511 0.0138831 0.0179348 0.0488232 0.0469161 -0.102489 0.0522808 0.0399327 -0.0566273 0.0345342 0.0443416 0.00350129 0.0695782 -0.00536244 -0.0894042 -0.0547716 -0.0722698 -0.0436359 -0.0490125 -0.0393791 0.012801 0.0199349 -0.0372033 -0.00762077 0.0385453 0.145643 -0.0426577 -0.0136222 0.00926692 -0.0269539 -0.00871218 0.0271601 0.0611789 -0.00625198 -0.0848498 0.0396258 -0.0376695 0.0295716 -0.0648515 0.0953657 -0.00545599 -0.0258915 0.06602 0.0646004 -0.0476202 -0.0755938 -0.0582351 -0.00184419 0.0485081 0.0553652 -0.00967558 -0.0225532 0.00311177 0.0646622 0.0352021 0.04613 0.0522321 0.0734881 0.0228907 0.0137125 0.0651917 -0.0342097 0.0266317 -0.0612632 -0.036316 0.0898446 0.0284321 -0.0425931 -0.0759079 -0.0116877 -0.0798014 -0.0558718 0.0225778 0.0364216 0.0205181 -0.0139707 -0.0395415 0.0322906 -0.0406166 0.0515624 -0.0286028 0.0273866 0.0582494 -0.131694 -0.0197522 0.036578 0.0373625 0.0782904 0.0827348 0.11669 0.0856206 0.0929526 -0.00331583 0.13418 -0.116983 0.012987 -0.0691668 -0.00499261 -0.0540872 -0.0423595 0.0571459 -0.0066973 0.0122966 0.0442765 0.00184474 -0.0457301 0.0435866 0.0285152 0.0541589 0.0582986 -0.024625 0.0292226 0.110024 -0.0345123 0.108743 0.030122 0.0253066 -0.106182 0.0994759 0.00181574 -0.0724941 -0.120896 0.00258001 -0.0143985 -0.0563313 0.0288189 -0.10262 -0.110377 0.0669336 -0.0667028 -0.0188003 -0.0187384 0.0655014 0.0597675 -0.00395426 0.0699891 0.0846545 -0.048437 -0.00347831 0.0266114 -0.106917 0.0169232 -0.0913042 0.0316576 0.052894 0.0305586 0.138966 -0.140297 0.0485513 -0.0765096 -0.026967 -0.00165873 0.118357 0.0253006 -0.00257071 0.0114809
be -0.0619561 0.00979612 0.0501007 -0.0052764 0.0382721 -0.121417 0.0694133 -0.027873 0.0263899 0.0598964 0.0817576 0.0172221 -0.0592235 -0.0186387 -0.0476329 -0.0452414 0.0012927 -0.0600471 -0.0243168 -0.104385 -0.109031 -0.0376622 0.00735552 0.0276593 -0.0311298 0.00623439 -0.0281968 0.0626136 0.0461086 0.0122387 0.0586329 -0.000359495 0.0534691 -0.0427165 -0.031106 0.0372358 0.0260106 0.0370255 0.0444123 -0.0511376 -0.0161108 -0.000502302 -0.0186556 -0.0748876 -0.0466888 0.117678 -0.00401494 -0.00987 -0.030744 -0.00445377 -0.0142107 0.115797 0.0302234 -0.0787498 -0.0504166 -0.0521645 -0.0237634 -0.0449597 -0.0374579 -0.0241516 0.0734719 0.000197846 0.0484406 0.0194212 0.013694 0.027812 0.0133063 -0.0450554 -0.0231074 -0.0164173 0.0579605 0.0131808 -0.00538747 0.0487079 0.0193979 -0.0690761 0.0850204 -0.0490237 0.00143401 -0.0156418 -0.0384233 -0.00281993 -0.0176584 -0.014001 0.0804902 -0.0363993 -0.0340231 -0.0330532 0.000481971 0.0455552 0.0241492 -0.0146178 0.0102697 0.0577191 -0.0182951 0.0790091 -0.01322 0.0512744 -0.111435 0.015308 -0.0435009 -0.0133499 0.0664769 0.122805 -0.0184384 0.0453579 0.0208458 0.0866527 -0.0472907 0.0132681 0.000119501 -0.0821504 0.0313981 -0.00904986 0.0102979 0.047316 0.0784577 -0.00583622 0.0488388 0.0594536 0.0877838 0.0311987 0.0560356 0.0367597 0.0660236 0.0475272 -0.0691495 0.0517133 -0.115988 -0.00346603 0.0356793 -0.00225416 0.0384556 0.0409403 -0.00765353 -0.00865714 -0.0105235 -0.0381561 -0.0424115 0.0901564 -0.10081 -0.0528721 0.0126195 0.0147076 -0.0581539 -0.0105647 -0.00592746 -0.00655223 -0.00719734 -0.0693984 0.0661446 -0.0509273 -0.125839 0.00517524 -0.0163965 0.0494051 0.0163176 -0.0349162 -0.0223279 -0.00535623 -0.0799547 -0.0186481 -0.10129 -0.0412889 -0.0316971 0.0679183 -0.00731337 -0.0923689 -0.0048212 0.0938233 0.0288231 0.0699047 -0.069635 -0.0216605 0.00698363 -0.0745603 0.135771 0.0028001 -0.00615009 0.0805111 -0.0795565 0.0259124 -0.0886029 -0.0364161 -0.00444286 -0.0177744 0.0546844 -0.069092 -0.135299 -0.162949 -0.132961 0.00662512 0.00456584 -0.0789109 0.0442739 -0.0657673 -0.0101452 0.037152 -0.0305501 -0.0116828 0.054678 -0.00656165 -0.0620712 0.0104705 -0.0380787 0.0516721 0.0788266 -0.0781919 0.00529623 0.0104943 -0.0307703 0.00215251 0.0116035 0.0256298 0.0143977 -0.0435039 0.112136 -0.0161292 -0.10406 0.0268838 0.0678841 -0.00641736 0.0198907 0.125796 -0.113885 0.111651 -0.0104422 -0.122669 0.0715807 -0.0257751 0.0409805 0.00130013 0.0654321 -0.00953282 0.0742613 -0.0550667 0.0252926 0.0710541 0.0429039 -0.00714429 -0.0102002 0.01735 -0.0345279 -0.00893383 0.0935987 0.00649719 -0.100704 -0.0364702 0.0129527 0.00713288 -0.025067 0.111872 0.0856655 0.0496074 0.0308025 0.00583919 0.00710164 0.0125947 0.0524149 -0.0620563 -0.0176277 0.0573541 0.110847 -0.105411 -0.00199086 -0.0433918 0.0838288 0.0238744 0.0769751 -0.0532122 0.0504221 0.00956009 -0.0724732 -0.0345517 0.0147239 -0.0863795 0.113884 -0.0325415 -0.0133777 -0.0797985 -0.0749322 -0.195663 -0.0247724 -0.016867 -0.0135864 0.074598 -0.0543408 0.132155 -0.0600729 0.0683621 0.110382 -0.083208 -0.0417704 -0.0470101 0.0471514 -0.0739494 0.0846881 -0.0944337 0.0619056 -0.126571
was 0.0197709 -0.00869378 0.039615 -0.0277638 -0.0389904 -0.0510246 -0.0036058 -0.0461562 0.0163567 0.0376841 0.0349749 0.0621419 -0.159048 -0.0453613 -0.0476237 -0.0589636 0.0703457 -0.0107376 0.0909116 0.000916446 -0.0515985 -0.00606694 0.0607157 0.0554498 -0.063617 0.0629537 0.0599781 -0.0381105 -0.0600417 0.0497808 0.0829564 -0.0447045 0.0540647 -0.0267269 0.0500716 -0.0386605 0.017382 -0.0585732 0.0294381 0.0123814 0.00504375 0.0239684 -0.0582891 -0.0334658 0.0568913 0.140838 -0.0853306 -0.00919343 -0.0836222 -0.0209202 -0.0164066 0.105314 0.00597545 -0.0674662 0.0150677 -0.0831597 -0.0328238 0.0138956 0.0612239 -0.0188291 0.0456205 0.0581285 0.0123474 0.00118482 -0.0681789 0.0334337 0.0104885 0.01662 -0.0425403 -0.0247034 -0.0719163 0.082874 0.0225909 0.0982914 0.0021704 -0.0611411 0.0181774 -0.0228044 -0.01757 0.0397269 -0.0109206 -0.00473319 0.0143226 -0.0460281 0.02229 0.0728668 0.103875 -0.00049914 -0.0367076 0.0203982 0.00922697 0.0303281 0.00885237 0.082809 -0.0403958 0.0298356 -0.00479164 0.0322072 -0.0718584 0.0304181 -0.00317376 -0.00287641 -0.0158505 0.039336 -0.0180539 0.0589178 0.00713791 0.0703757 -0.113082 0.0155598 -0.0189968 -0.153894 -0.0266943 -0.0293629 -0.00254195 0.0512838 0.136443 -0.0342185 0.0197531 0.11575 0.0390996 -0.0129141 0.0391169 0.0431944 0.0754149 -0.0424091 -0.0151724 0.0204983 -0.0753818 0.0515751 0.0308776 0.0506363 -0.0345708 0.118919 -0.0703254 0.0501778 -0.00131596 -0.00585651 -0.032408 0.0870999 -0.0954374 -0.0654555 -0.0167146 -0.0253784 -0.0499374 -0.00258821 0.0230712 -0.00953042 -0.00143998 -0.0658311 0.016064 0.00588345 -0.13058 0.0129166 0.0526328 0.0536347 0.0260783 -0.125286 0.0088178 0.014224 -0.187905 0.0362664 0.00320629 0.0222204 0.061072 0.0665 0.0233127 -0.0448138 0.0663043 0.106779 -0.00145066 -0.0059175 0.0186019 -0.00877663 -0.0447152 -0.0396069 0.0958827 -0.0203097 0.140711 -0.00620875 -0.0108332 -0.00822768 -0.0839048 -0.0286584 -0.056539 0.0369816 0.0856157 -0.0368403 -0.107552 -0.0274974 -0.0749478 0.070181 0.000233813 -0.052273 -0.00827952 -0.0471464 -0.0589239 0.0299326 0.0285892 -0.00207992 -0.0678693 0.0152822 0.00258363 0.0768904 0.0399825 0.103939 0.00831409 -0.0368683 0.0132328 0.04893 -0.0999856 -0.073304 -0.0868712 0.0169143 -0.0232273 0.0141589 0.02287 -0.0115697 -0.094154 -0.115477 -0.00162602 0.0411806 -0.0552653 0.039704 -0.02732 0.105905 -0.0655515 0.0113318 0.138008 -0.0704723 0.0470884 0.0964931 0.0536103 0.0286884 0.0890309 -0.0388333 0.0434501 -0.0613658 -0.051874 0.0216933 0.0400598 -0.0391007 -0.0093083 -0.0505255 0.0580105 0.011035 -0.0782481 -0.0255532 -0.0188499 -0.00220038 -0.0734681 0.0576741 -0.0160492 0.129901 -0.0702883 0.0327491 0.0268046 -0.0397198 0.0729573 -0.0294747 0.032379 -0.000536245 0.0320466 -0.0296429 -0.0527996 -0.118079 0.0986589 0.00598104 -0.0460393 0.0024469 0.0575007 -0.0180316 0.0520473 -0.0136613 -0.00132104 0.0063836 -0.025661 -0.0319694 0.0344366 -0.0244619 -0.146693 -0.00746779 -0.031674 0.0718086 0.000175868 0.0456972 -0.123533 0.0727438 0.169564 -0.00741848 0.146168 -0.0237803 -0.0563581 -0.0835068 -0.0165133 -0.0510033 0.052365 -0.0185719 0.0835546 -0.0569472
you -0.0672331 0.0533751 0.0461308 -0.0951478 -0.00488614 -0.0123447 -0.00430865 0.0121492 0.0576251 0.110149 0.019505 0.0448261 -0.0239597 0.0124134 -0.00461237 -0.00249632 0.00738288 -0.0653458 -0.00925304 -0.0616862 -0.10976 -0.0638955 0.0149946 -0.0533889 -0.00926926 -0.0270959 -0.0781112 -0.00805772 -0.0619954 0.0664176 0.00541161 0.0358156 0.0967737 0.0103169 -0.0212678 -0.0271746 0.0691515 -0.0429829 -0.022345 -0.0357532 0.0117103 0.00124567 -0.038656 -0.0948233 0.0580033 0.0794742 -0.0352668 -0.00621917 -0.00376903 0.13292 -0.0238457 0.0430545 0.0175924 0.0141105 -0.0632602 -0.0610875 -0.0516951 -0.0325329 -0.0238079 -0.00136965 0.0735113 0.0429151 0.00470391 0.0132264 -0.0350259 0.0394914 -0.00949352 -0.0713516 -0.0378239 0.00129351 -0.0347043 -0.0156012 -0.0052169 0.0629273 0.0101709 -0.0484736 -0.00492109 0.0674244 0.0137032 0.0115813 0.0200222 -0.0202843 0.0189579 0.0502418 0.06279 -0.0571695 0.00424874 -0.0459103 0.0248422 -0.0301277 -0.108867 0.0060332 0.00623207 0.0373259 0.0600869 0.0511451 0.00565625 -0.0333937 -0.0793652 0.0324672 0.0417011 -0.00341747 -0.019324 0.00698554 0.0591042 0.0738138 0.0750882 -0.021287 -0.0395189 -0.0434144 0.0326091 -0.0135659 -0.0484482 -0.0767099 -0.0230228 0.114634 0.0250585 0.110605 0.0269 -0.0439216 0.165931 -0.0446904 0.00166172 0.0517151 0.10083 -0.0292823 0.00272349 -0.0950458 0.0112613 -0.0376916 -0.0536685 -0.0148906 0.0256356 -0.0579642 0.00642554 0.0389676 0.00394169 -0.0742897 -0.0597383 0.111272 0.00574196 -0.0962757 0.00476548 0.044633 -0.0675905 0.0439727 -0.0110425 -0.00915443 0.0158508 -0.0598806 0.136607 0.00733212 -0.0741246 -0.0392996 -0.069315 0.000735999 0.0487103 -0.0932668 0.0438683 -0.0212757 -0.00539289 0.0199964 -0.0348241 0.0952855 -0.047711 -0.0297678 -0.00835436 -0.034723 0.0332431 0.0387213 -0.0453836 -0.00686947 0.0627996 -0.000959836 0.0138471 -0.0402278 0.0132413 0.00721146 -0.0100914 0.187017 -0.0652809 0.0111132 0.000202202 0.0012985 0.0612065 -0.0972613 -0.0189729 0.0628745 0.0125186 0.0127208 -0.159138 0.0074432 -0.0696 -0.0543125 -0.022501 -0.0477547 -0.0134951 -0.0245796 0.0539372 0.0795237 -0.00523978 0.00999445 -0.0125573 -0.00365628 -0.00661692 0.00423418 0.0208447 0.0622878 -0.0267535 0.0828326 -0.0343486 0.0448065 -0.0172533 0.149229 0.0320079 0.046467 0.0087105 0.0380186 -0.0203355 -0.0190873 0.0494239 0.0720909 -0.0475853 0.0357802 0.00436981 0.0149343 0.0391003 -0.144125 0.0335868 -0.0303565 -0.0492075 0.0820017 0.0547623 -0.0262476 0.0363839 0.0969589 -0.00825243 0.12698 -0.0193232 -0.0782044 0.148153 0.00961792 -0.0457805 0.01782 0.0826678 0.00965744 0.0259243 -0.0114244 -0.0893164 0.00145744 0.133693 0.0298685 0.0443368 0.0634956 0.0775932 0.00814675 0.112258 0.00620628 0.0221798 -0.011907 -0.134081 -0.0366818 0.151776 -0.0827652 -0.0434622 -0.0687737 0.144804 0.0577495 -0.0155009 -0.00334424 0.011345 0.0721075 0.0250127 -0.104269 0.0701313 -0.0106447 -0.0576913 0.0393329 0.00847335 -0.0435038 -0.0321377 -0.0738313 0.0208081 0.0362075 -0.0945349 0.0174069 0.0314054 0.00124691 -0.0554184 -0.116835 0.0109048 -0.0729992 0.031036 0.0436757 0.0427928 -0.089856 -0.0592856 -0.204901 -0.0774996 -0.104498
The -0.00463287 0.043441 0.00773123 0.0440315 -0.0311128 -0.133583 0.0792758 0.00371622 0.0386688 -0.0746708 -0.0053829 0.0518893 -0.00795153 -0.0363797 0.017828 -0.0307938 -0.0115908 -0.0277612 0.0984798 -0.0712599 -0.0165153 -0.00967746 -0.0290749 0.0278438 -0.0308388 -0.000804219 0.0869579 -0.0204569 -0.0480586 0.0233715 0.022233 0.0352757 -0.0363139 -0.0838362 0.0455964 0.00367824 0.0119357 -0.00775909 -0.0052968 -0.0117387 0.0383381 -0.00283148 -0.00731444 -0.0139735 0.0435149 0.0707672 -0.0729433 -0.00142764 0.0796323 0.0157567 0.0271469 0.0460719 -0.0261285 -0.0386445 -0.00479644 -0.0905328 -0.0629164 -0.0710984 0.0269606 -0.00651326 0.0368102 -0.0143362 0.0996411 -0.0424909 -0.026287 -0.0179334 0.00205815 0.0100472 0.00184697 -0.00767705 -0.0971322 -0.00133952 0.051393 0.0369915 0.0206332 -0.0849474 -0.0981481 0.0031009 -0.0194091 -0.0341499 -0.0361362 0.0367277 -0.0342563 0.0135669 -0.0314876 -0.00218375 0.0972527 -0.0347369 -0.045924 0.033685 -0.0464173 -0.0401598 -0.0610198 0.0713962 0.0209122 0.0404363 0.00745776 0.0181121 -0.077482 0.0623492 0.00552419 -0.0783485 -0.0145833 0.0906827 -0.0407103 -0.0631261 0.0318512 -0.0485291 -0.0750785 0.0170901 -0.00148284 -0.0527168 0.0576181 0.00458931 -0.160795 -0.0737182 0.0663075 0.00820272 -0.0284424 -0.00691132 0.03876 0.023692 0.0595177 0.0235523 -0.0263984 0.00608988 -0.00202169 -0.0828193 -0.049783 -0.049662 0.00969114 -0.0558056 -0.0410379 0.0336237 0.00457817 -0.112441 -0.00102553 0.0729631 -0.0571775 0.054504 0.0118217 -0.118875 -0.0027155 -0.0343834 -0.016845 -0.0493298 0.0355857 0.0187259 0.0340937 -0.0146061 0.0458481 -0.0671912 -0.116074 -0.0108691 0.0273384 0.0573629 -0.139195 -0.0603058 -0.0800476 -0.00813537 -0.0555584 0.0578597 0.0334607 0.0558542 -0.0762964 -0.0212267 0.0502981 -0.0656421 0.0920121 0.080514 -0.0525593 -0.0183836 -0.0135314 -0.105297 -0.00277526 0.0689364 0.182886 0.000181304 -0.00968101 -0.0425091 -0.0277187 0.0494762 -0.128038 0.0780487 0.0340268 -0.0595552 0.0654972 -0.0223368 0.000274488 -0.0811466 -0.048206 0.0772131 0.0938743 -0.0639019 0.0789552 -0.0131724 -0.0157496 0.161273 -0.030495 0.0718049 0.0831738 0.123573 0.071734 0.0049975 0.00114252 0.00675939 0.0072567 -0.0778846 0.0172598 0.095464 -0.0416538 -0.031126 -0.116006 0.0633712 0.0578414 0.0473633 0.00424443 -0.0385655 -0.071501 0.0310672 0.114479 0.0388846 -0.0411904 0.0097671 -0.0450474 0.0300559 -0.0144572 0.0162616 -0.0137563 0.0130174 0.145279 0.0935659 0.111628 0.0644018 0.013421 0.0313812 -0.0312622 0.0167893 0.0015507 -0.00214121 -0.0346037 -0.0100289 -0.0220416 -0.0267149 -0.0545547 0.0771569 -0.115106 0.00366304 0.026756 -0.0787866 0.126913 0.0458957 -0.0723761 0.119515 -0.00640083 0.0396797 -0.0288283 0.0758087 0.0222573 -0.0377188 -0.0117275 -0.0938439 0.19625 -0.025975 0.0161046 -0.0237872 -0.0896172 -0.0089016 -0.0236596 -0.0211082 -0.0453072 -0.0163973 0.00284363 -0.00780416 -0.0357057 -0.0895954 -0.0144491 -0.0657064 0.00940449 -0.13128 0.0694226 -0.0062099 -0.0884929 -0.0628921 -0.00744105 0.0489652 -0.0315301 0.0710913 -0.0805864 0.0568858 -0.0016292 0.103955 0.0255046 0.00345844 0.102226 -0.050958 0.0367479 0.103585 -0.0113244 -0.057098
as -0.057871 -0.0149295 0.05995 0.0436519 -0.0465551 -0.0582022 0.121173 0.0338261 -0.004736 -0.00770656 -0.00436116 0.0121748 -0.0526928 -0.018398 0.0571964 -0.062814 0.0402745 -0.073002 -0.0063546 0.0225086 -0.119467 0.00129068 -0.0255851 -0.03041 -0.0388596 0.106359 0.0303465 0.00555082 -0.00495958 -0.0598732 0.0367773 0.014181 0.0362087 -0.0446147 0.0694628 0.0634345 0.0601443 0.0441995 -0.0446864 -0.0452749 -0.0238026 0.0502632 0.0404793 -0.0503609 0.04859 0.0279319 -0.0560994 -0.0116675 0.0160342 0.0229022 0.0172216 0.0391069 0.0392957 -0.10947 -0.0166906 -0.11209 -0.0458822 0.0203606 0.0196368 -0.0261178 0.0396319 0.0219957 0.0480561 -0.0401067 -0.0515953 0.0018074 0.0460848 -0.0980312 0.00273263 -0.0631905 -0.027292 0.0901518 0.0855191 0.0946902 0.00359051 0.00481715 0.0144741 -0.0661042 0.00468687 0.053326 0.00471889 -0.01852 -0.101086 -0.0426836 0.0605191 -0.0329604 0.0155103 -0.0109714 0.00251236 0.0340474 -0.0336604 0.0586201 -0.022439 0.0504791 0.0281499 0.0524212 -0.0691597 0.0255564 -0.0712713 -0.0333022 -0.023181 0.0537014 0.0581773 0.0742783 -0.0280798 0.0379868 0.0551444 0.0335605 -0.111874 -0.0407426 -0.00203042 -0.0403418 0.0307501 0.0341457 -0.0383048 0.029705 0.0136399 -0.00297884 0.0303564 -0.0445385 0.039739 0.0185405 -0.0225919 0.0969354 0.0310978 0.00348506 -0.0523152 0.0429354 0.0375606 -0.0406852 0.0949784 -0.0388541 0.00285904 -0.00483702 0.00736815 0.0225814 -0.163201 0.00170969 0.0351333 0.113267 -0.0317172 -0.0119562 -0.0408238 -0.0777959 0.0793522 0.109892 0.0912002 -0.0388143 0.10842 0.00593118 0.00920867 -0.0387934 -0.101225 -0.0354226 0.0980825 0.0111419 -0.061319 -0.0383468 0.0245804 -0.0585577 -0.109414 -0.0309725 -0.0662096 0.0501015 -0.00163626 -0.0326988 -0.013052 -0.0773604 0.0831806 0.0838077 -0.0521479 0.00753708 -0.0117519 -0.0284193 0.0501754 -0.0226791 0.153358 0.0473385 -0.0389286 -0.0595183 -0.103734 -0.0289923 0.0405814 0.061891 0.0194778 -0.119987 -0.0756082 -0.012988 -0.0536235 -0.0123581 0.0138983 0.0193724 -0.0126899 0.0602856 0.0472855 0.027795 -0.110767 0.0679905 -0.0413758 0.000213642 -0.0306805 0.123353 0.00183003 -0.0220658 0.0713039 -0.032468 -0.061621 0.0417904 0.0597015 0.0754453 -0.0488014 -0.0602359 0.047217 -0.0621642 -0.0381221 -0.0728093 0.134023 -0.0186972 -0.0998386 -0.0198184 -0.0950777 0.0456106 0.0490592 0.00884377 -0.0445573 0.193156 -0.0424197 -0.0776198 -0.0206581 -0.0485199 -0.0215193 0.00710096 0.11136 0.0898802 0.0099037 0.0545609 -0.0421211 0.0981858 -0.0458303 -0.0493623 0.0173066 0.0486336 -0.0847865 -0.0648356 0.0665613 0.0942 -0.0225908 -0.00494964 -0.00140992 -0.0228122 0.00147562 0.0444424 -0.0165807 0.111448 0.0374486 0.053188 0.0932278 0.0474207 0.0529351 -0.0391174 0.0824563 -0.0379647 0.126867 0.022439 -0.0122709 -0.0189164 -0.00935331 -0.0639854 -0.0541502 -0.00605815 0.0483261 0.0168954 0.0332078 0.0572444 0.00312071 -0.0420885 -0.0377351 0.0162108 -0.0139519 -0.0668229 -0.0105927 -0.057999 -0.0415519 0.0872459 -0.0792103 0.0387117 -0.0852199 -0.0761376 -0.0455532 0.0428796 0.146881 0.000317426 -0.0217611 -0.0543842 0.0313639 -0.14478 0.0323709 0.0222922 0.0844696 -0.132241
they 0.026954 0.0143144 0.061154 -0.00708237 -0.00266109 -0.0880352 0.00178151 -0.0182866 0.0158917 -0.0113545 0.0303558 0.0524731 0.00537987 0.0207195 0.0112645 -0.0023445 0.0401887 -0.0128474 0.0152398 -0.0778047 -0.134525 -0.0289237 0.00170405 -0.0147075 0.0397988 0.0543056 -0.0351062 0.0736308 -0.0935274 0.0424089 0.0573664 0.0590591 0.133584 -0.0629938 0.0419697 -0.0317235 0.0286689 -0.0320573 -0.0165997 -0.0298001 0.0437132 0.0352247 -0.033687 -0.0652925 0.0509921 0.0818647 -0.00343721 0.002947 -0.00611026 0.0391984 -0.0191495 -0.00720713 0.0185865 -0.00967067 -0.0786312 -0.103715 0.0217643 -0.0939178 -0.0083773 -0.0107764 0.073936 0.0452801 0.112905 0.0184805 -0.0570072 -0.0156151 0.0430499 -0.0465256 0.00867205 -0.0101635 -0.0173675 0.017421 0.0656075 0.00836482 0.040957 -0.0775931 -0.0141684 0.029601 -0.00966236 -0.0405547 -0.00714995 0.00740467 -0.0434278 0.0195181 0.120725 0.0127638 0.0115156 0.0488743 0.0345411 0.0229797 -0.0325038 0.0558007 0.07344 0.0922153 -0.0624495 0.0146212 0.0459117 -0.0613277 -0.101731 0.0657349 0.00625477 -0.0417472 0.0157544 0.103937 -0.013033 0.0113706 -0.0357289 0.0690115 -0.0679198 -0.0960538 -0.0133174 -0.0802968 0.0206228 -0.0460447 0.000757934 0.0378281 0.0260915 0.0677405 -0.0180256 0.0491784 0.0810272 0.0174959 0.0534686 0.088684 0.0550667 -0.0109563 -0.0583214 0.0552236 -0.0488264 -0.0774938 0.00152782 -0.00782367 0.0265053 -0.0436815 -0.102044 0.0555782 -0.0252151 0.0381046 -0.0761713 0.16251 -0.056988 -0.0884568 0.0428966 -0.0604174 -0.00287058 0.0104801 0.0186973 0.0113929 -0.00715722 -0.0502035 0.146176 -0.00118681 -0.0923484 0.0254121 0.0485296 -0.0417155 0.0259824 -0.0354378 0.000463182 0.00730642 0.00614561 0.0506428 -0.0907878 0.0214717 0.0202053 -0.0510815 -0.0102124 -0.0583775 0.0217992 0.100726 -0.0271926 0.0483232 0.00619967 -0.0146919 -0.0289335 -0.064297 0.133188 -0.0207252 -0.0447493 0.0668978 -0.0346643 -0.00723728 0.00153562 -0.0353261 0.0413079 -0.0692615 0.0448455 -0.0108128 0.0364328 -0.0133174 -0.041519 0.0680841 -0.083433 -0.0412123 -0.0327445 0.0281694 -0.0314922 -0.0471395 -0.00250513 0.0249505 0.011551 -0.00960829 0.0195878 0.109772 0.092941 0.0869337 0.0837496 0.0563907 -0.0493208 0.0626023 -0.0190315 -0.0200338 -0.00155174 0.0691222 0.0147002 -0.0032116 0.0479167 0.0485499 -0.0763117 -0.0297934 0.0543191 -0.0813375 -0.0513794 0.0224771 -0.079227 0.105997 -0.00750396 -0.0995623 0.0308112 0.0251012 -0.0665152 0.0470101 0.0568742 -0.0231523 0.0937046 -0.0603218 -0.0613791 0.182214 -0.0255946 0.0363418 0.0416921 0.0517511 -0.0543233 0.0267731 0.0854194 -0.00258259 -0.00485171 -0.0171679 -0.0481709 0.0694461 0.109897 0.0689268 0.0335388 0.0484402 0.105485 0.129218 0.126207 -0.0457666 0.0945868 -0.0374709 -0.10244 -0.0535383 0.127595 -0.0947511 -0.00614301 -0.0865719 0.0935165 0.00184649 -0.0268713 0.0280919 -0.022542 0.0654532 -0.0613776 -0.0112754 0.0490952 0.0361687 -0.00278897 -0.0158953 0.0511236 -0.0111891 -0.115219 -0.141249 -0.0245871 -0.0360814 -0.126832 0.0367868 -0.0512515 -0.0480976 -0.116929 -0.102305 0.027846 -0.037969 0.0656866 -0.0424984 -0.0132644 -0.0203992 -0.104941 -0.105215 0.002698 -0.0768331
? 0.00993652 0.0525747 0.00587731 -0.0737599 0.0430464 -0.0149568 -0.0845404 0.0568133 0.106496 0.00921063 0.118844 0.0220833 0.0406649 0.0266383 -0.0113616 0.0579977 -0.00242216 -0.0887734 0.0358751 -0.0265752 0.0055702 -0.0778132 0.0457651 0.0223176 -0.0165896 -0.0486039 0.0318815 0.00317046 -0.0296378 0.00402241 0.0718429 0.0340071 0.0396128 0.0175909 -0.00784558 -0.00904185 0.0518789 -0.0236158 0.00712265 -0.0345875 -0.0113663 -0.0126006 -0.082306 -0.0645565 0.0284191 -0.100904 -0.0247191 -0.00395473 0.00543738 0.0906833 -0.0347013 0.122843 -0.0130795 -0.00442681 0.0044285 -0.0454508 -0.0644156 -0.0119543 0.023291 0.0345519 0.0617092 -0.0207368 0.0251822 -0.0622033 0.00906343 0.124071 0.0620899 -0.0292245 -0.0112229 -0.084897 -0.072702 -0.0353781 -0.0652122 0.0545608 -0.016195 -0.0404402 0.0332715 -0.0429517 0.0382448 0.0167322 0.0694622 -0.10923 -0.0483992 0.00627917 0.0218713 -0.134756 -0.0600662 0.000844752 -0.00499364 0.0165342 0.00639973 0.113314 -0.0302584 0.118525 0.0488983 -0.02706 0.0396644 0.0712227 -0.0446881 -0.0561635 0.0726631 -0.0165769 -0.00402156 0.00249111 0.0742595 0.0570832 0.05048 -0.0400354 -0.0063257 0.0145114 -0.0375824 -0.0210702 -0.0736783 0.040642 0.0260092 0.0750865 0.0573581 0.115091 0.0166895 -0.00847756 -0.0126518 -0.0861537 0.0565328 -0.0369745 0.0371759 0.00258248 -0.0625074 -0.0365752 -0.015901 -0.0711072 -0.0335765 0.00429187 0.0253451 0.0350227 0.0678611 -0.00889718 -0.0145004 -0.080691 -0.0200025 0.0550041 0.012475 -0.103781 0.0757185 0.000514381 -0.00683839 0.0511953 -0.0878136 0.00865691 -0.0316721 -0.0292541 0.033931 -0.046488 -0.0163739 -0.00268739 -0.00724363 0.00570049 0.083312 -0.0235575 0.104427 -0.0215169 0.00720726 0.00651606 -0.0283108 -0.0104712 -0.0424457 -0.0115448 0.106026 0.0773966 0.0424483 0.0663776 -0.021862 -0.131254 0.000168358 -0.00705793 -0.0118325 -0.1267 0.0429013 0.113305 0.0137741 0.00848856 0.0659677 -0.0252516 0.0909697 0.0423324 -0.0117525 -0.0409779 0.0878318 -0.0232292 0.026505 0.0708627 -0.0224982 0.089325 -0.0256484 -0.00120262 -0.0235541 0.025274 0.0411619 -0.0130816 0.000497884 -0.0475016 0.0189166 0.0308616 0.00998094 -0.0284242 0.0337981 0.01553 0.00663281 -0.022733 -0.0426378 0.103796 0.0192724 0.0702215 -0.0988589 0.0513205 0.0141569 -0.0169441 0.014986 -0.0789951 -0.000821487 0.029752 0.115747 0.0660239 0.0143024 0.0292884 0.0479461 0.0394656 0.0590316 -0.162911 0.00507359 -0.0268823 -0.0700408 0.020637 0.0479461 -0.0331031 -0.0166768 0.13553 0.00146235 0.0699901 -0.0455955 0.0111984 0.0342956 0.0596043 0.0345557 0.137666 0.119645 -0.0343138 -0.00850251 -0.0212939 0.0461513 -0.0397562 0.0894092 0.0276987 0.0705806 0.125638 0.118143 -0.0438802 0.110564 0.0234872 -0.0353392 -0.029035 -0.115869 -0.0332681 0.06807 -0.0555286 -0.00776774 -0.0903826 -0.0172601 0.0442262 -0.0552909 -0.0448116 0.0658797 -0.0513493 0.186955 0.0337533 0.0675527 0.0335401 -0.0726343 0.0542198 -0.0129801 0.0697777 0.0155947 -0.0880201 -0.0836986 0.00633289 -0.100726 0.0896402 0.0862147 0.0978432 -0.00372715 -0.00700844 0.0198367 -0.00311294 0.154295 0.0187999 -0.0146383 -0.0743314 0.0787316 -0.119149 -0.0596517 -0.10112
he -0.0338208 -0.0642045 0.0968059 -0.060957 0.0256065 0.00559277 0.0450236 0.0327505 -0.0241072 0.00803994 -0.0185696 0.062962 -0.115167 0.00661417 -0.0382892 0.0514566 0.0112858 -0.0307125 0.0753864 -0.0301474 -0.162433 -0.0477733 0.0407096 0.0201844 -0.0200914 0.0167484 0.0707619 0.0426763 -0.0427036 0.0256023 0.0402963 -0.0142214 0.0192108 -0.0389714 -0.00760932 0.0180954 -0.00756993 -0.0981629 0.0579658 -0.0613572 -0.0769502 0.0316714 0.0291491 -0.0469677 0.0602559 0.0843983 0.00440595 -0.0401703 -0.0846483 0.0487826 -0.00263464 -0.00412552 -6.93189e-05 -0.0674683 0.0136632 -0.192354 0.0233379 -0.0419169 -0.0524828 -0.0177787 0.0568703 0.0861828 0.0170188 0.0296427 -0.107052 -0.0205819 0.0465193 -0.0192843 -0.0481467 -0.0447044 -0.0600301 0.0558337 0.0827047 0.0386195 -0.0170173 -0.0518263 -0.0392718 -0.00721284 0.0166696 -4.20114e-06 0.0589221 -0.0375251 0.00301222 0.00881662 0.00508286 0.031549 0.0570688 -0.00470318 0.00902616 -0.0530205 -0.00917267 0.0293702 0.0422472 0.115517 0.0282233 0.0797125 0.0635927 -0.00302377 -0.0639288 -0.0223973 0.0065081 0.0316997 0.0149576 0.0306909 -0.0762938 0.0544573 -0.0387524 0.0594126 -0.0947085 0.0207636 -0.0108263 -0.112039 0.0598337 -0.0625366 -0.0616255 -0.00190469 0.0379773 0.0409858 0.0889744 0.0718663 0.0752467 0.00944364 -0.0133633 0.114587 0.0258144 0.00403205 -0.0249023 -0.0178128 -0.0443441 0.0230753 -0.0225197 0.126884 0.0473343 0.00391494 -0.00432875 0.0148978 -0.0991632 0.0536696 -0.0954788 0.111572 0.0469593 -0.0435433 0.0502798 -0.00863492 -0.0170808 -0.0289117 -0.0177393 -0.0697784 0.000773535 0.0373818 -0.000601289 0.0470318 -0.083577 -0.0060612 0.0790324 0.0218491 -0.00969309 -0.022328 -0.0534538 0.0393999 -0.133059 0.0102203 -0.026505 0.0100969 0.0811246 -0.0671096 0.0301831 -0.0164643 0.0436546 0.0624726 0.0343632 -0.0185564 0.069594 -0.0241739 -0.0966247 0.0149823 0.128614 -0.0356252 0.0111682 0.00867273 -0.0159927 0.0912635 -0.107304 -0.0887938 0.0586989 -0.043559 0.0621596 -0.0391688 0.0562638 -0.0969356 -0.0891661 0.074617 -0.0795985 -0.0290577 -0.0032039 0.0306227 0.023319 0.0238452 0.0490473 0.0104283 0.0409879 0.0367395 -0.00365762 0.0644865 0.0753921 0.0483704 -0.0161991 0.0426663 -0.0959158 0.00701696 -0.0950325 0.0198126 -0.0827384 0.0384935 0.0288697 -0.0486508 0.0641641 0.05348 -0.0170981 -0.0582221 0.0246476 -0.0955918 -0.0168088 0.102338 0.0288398 0.0708334 -0.115217 -0.145951 0.0677518 -0.0754783 0.0446891 0.0750634 0.0380844 -0.0522155 0.12494 -0.0356861 -0.0301784 0.0860384 0.0398415 -0.0609455 -0.0482065 -0.0457946 -0.0221185 0.0594819 0.0635517 0.0228075 0.0261222 0.0192181 -0.072423 0.0177892 0.0885344 -0.0653372 0.0435522 0.0716489 0.00801578 0.00368598 0.0511295 0.0976571 0.0910493 -0.0129469 0.0140098 -0.085404 0.0388354 -0.00368125 -0.0106562 -0.0905304 0.109435 -0.00606225 -0.06008 -0.00755733 -0.0103527 0.0310601 -0.0227025 -0.0631752 0.0622515 0.00204911 -0.0446597 -0.0596095 -0.00972302 0.0153142 -0.0692711 -0.106846 0.0793475 0.0094657 -0.105639 0.0591983 -0.104114 -0.0147586 -0.105567 -0.0311594 0.0582368 0.0464394 0.00944574 -0.0566907 0.0519687 -0.0795949 -0.0297835 -0.144602 0.0662646 -0.0579222
at -0.0302964 0.00766852 0.0341699 -0.023965 -0.0199982 0.024838 0.00832497 -0.0166825 -0.00208051 0.0455902 -0.0254667 -0.0516589 -0.0689638 -0.0644512 -0.0768236 -0.0162183 0.0657442 -0.0341214 0.0412481 0.032389 0.0172947 -0.00303847 0.0404256 0.0301536 0.0228439 0.0144529 0.0747111 -0.0275876 0.0537447 0.062898 0.0727228 -0.024771 -0.000825408 -0.0781559 0.0360606 0.105054 0.0570444 -0.0506781 -0.0491627 -0.0109842 -0.0285183 0.031131 0.0324754 -0.0524542 0.0286485 0.0737162 0.027724 0.0270273 0.0358698 0.0576596 -0.0513345 0.0106609 -0.0819912 0.0513268 0.0447648 -0.0831001 0.0132235 -0.168794 0.0363694 0.0146316 0.109975 0.0373628 -0.0157818 -0.0759429 0.0137824 0.0584957 -0.0475731 0.0108556 -0.111347 -0.0356367 0.0806773 0.0513807 0.0773354 0.105858 -0.03504 -0.0445555 0.0677966 0.112713 0.00234027 0.06639 -0.0425449 -0.116091 0.024218 -0.0274594 0.0502659 -0.0331367 0.105469 0.0361038 -0.00342301 -0.00757919 -0.0617454 -0.0319884 0.0494793 0.0176113 0.000903093 0.0203128 -0.0749543 -0.0532446 0.0324109 -0.0232012 -0.0613249 -0.029235 0.0161192 0.0799043 -0.0632097 -0.0761249 -0.00512287 0.0409689 0.0406499 -0.0293787 0.00995782 -0.0858798 0.0156823 -0.0296652 -0.0970583 -0.0364825 0.0875821 -0.0302522 0.0446143 0.0902336 0.0768275 0.0289301 0.0708851 0.0163169 0.0302648 0.0500333 -0.0910537 0.00862357 -0.0061658 0.00623523 0.0663657 -0.0158255 0.029132 -0.0105157 0.0164708 -0.0114188 0.0265325 0.0798242 0.0409985 0.0558141 -0.0198297 -0.0709797 -0.00378377 -0.043365 -0.0393244 0.0279333 0.0906919 -0.0154201 0.0655553 -0.00503207 0.0981041 -0.00408286 -0.0617978 -0.0152375 -0.001913 0.074058 0.0517744 -0.0595007 -0.107191 -0.034352 -0.0263412 0.0802311 -0.134892 0.0392224 0.0944403 -0.0460786 -0.0514122 -0.0992631 0.111408 0.0907949 -0.138657 0.0560991 -0.00150224 -0.0512549 -0.0988207 0.0253497 0.0210999 0.00255245 0.0209425 -0.0273021 -0.0847335 0.000793848 0.00797878 -0.0643876 0.0444565 0.0360266 -0.0553485 -0.0387039 -0.057041 -0.0579902 -0.0555441 0.0877321 0.000456402 0.037172 0.0408218 0.0192461 -0.109718 0.0256644 -0.02737 -0.00338369 -0.029033 -0.0299633 0.00493254 0.0883546 0.068151 -0.00452081 0.0403255 -0.066323 0.0353678 -0.00565599 0.0294107 0.026195 -0.199756 0.0274137 0.00828078 -0.105824 0.0958002 -0.0705962 0.0280639 -0.0641808 0.0090858 -0.0372409 0.0309708 0.0215529 -0.0360694 0.0821965 0.0740804 0.0487097 0.0450017 -0.0186188 -0.080857 0.0520662 0.105711 0.0188072 0.0955089 0.0255352 0.03103 0.101793 -0.0629874 -0.0490613 0.0286518 -0.10935 0.0226084 -0.00231163 -0.0070349 0.0236096 -0.0825427 0.06993 0.0334824 -0.0464724 0.00532777 0.0241956 0.0111547 0.116408 0.0314039 -0.0418302 0.0312286 0.104449 -0.0230119 -0.050698 0.0201225 0.0612797 0.0944874 -0.0341743 -0.145686 -0.0571624 0.0126622 0.044605 -0.0745513 0.00280979 -0.0214616 -0.0320875 0.0711997 0.0244292 -0.0403726 -0.00943635 -0.0163926 -0.0142664 -0.0809191 0.054173 -0.0247108 -0.0541021 -0.111743 0.0270491 -0.146495 0.026298 0.0702174 0.0379561 -0.0718042 0.0297292 0.0628291 0.0395895 -0.0557675 -0.074681 0.120726 0.0202147 -0.00617842 0.000793848 -0.0923588 -0.036199
